{"type":"LSTM","options":{"inputSize":4,"inputRange":4,"hiddenLayers":[20,20],"outputSize":4,"decayRate":0.999,"smoothEps":1e-8,"regc":0.000001,"clipval":5,"maxPredictionLength":100,"dataFormatter":{"indexTable":{"t":0,"e":1,"s":2,"unrecognized":3},"characterTable":{"0":"t","1":"e","2":"s","3":null},"values":["test"],"characters":["t","e","s","unrecognized"],"specialIndexes":[3]}},"trainOpts":{"iterations":20000,"errorThresh":0.005,"log":false,"logPeriod":10,"learningRate":0.01,"callbackPeriod":10,"timeout":"Infinity"},"input":{"rows":5,"columns":4,"weights":[0.7069031000137329,-0.4557754099369049,0.7671537399291992,-0.329066663980484,0.2863226532936096,0.6215881109237671,0.2555813491344452,0.16404440999031067,-0.6912662386894226,-0.5833649039268494,-0.5682685971260071,-0.8014051914215088,1.421157717704773,0.4774489998817444,1.2634730339050293,-1.2682523727416992,0.030511226505041122,-0.0509965717792511,0.06522826850414276,0.0389140360057354]},"hiddenLayers":[{"inputMatrix":{"rows":20,"columns":4,"weights":[-0.31307920813560486,0.0748431533575058,-0.28572458028793335,-0.4797782301902771,-0.4681583642959595,-0.5367854833602905,-0.4189332127571106,-0.032764047384262085,0.6308552026748657,0.12246857583522797,0.645426332950592,-0.19969724118709564,0.8770662546157837,-0.41969630122184753,1.0458937883377075,-0.30040228366851807,-0.4531893730163574,0.40418973565101624,-0.3456575572490692,0.00683156494051218,0.6403804421424866,0.0023463533725589514,0.6070857644081116,-0.2791323661804199,-0.06883187592029572,0.09687702357769012,-0.1482614129781723,-0.048717085272073746,0.3569140136241913,-0.19720371067523956,0.35673752427101135,-0.17607291042804718,0.14870832860469818,0.48443010449409485,0.13938267529010773,-0.32558536529541016,0.8221499919891357,-0.3680351972579956,0.8283130526542664,-0.5928700566291809,-0.2276180237531662,-0.6991962194442749,-0.20312510430812836,0.08802349865436554,-0.7955870628356934,-0.45551466941833496,-0.6687915325164795,-0.06510251015424728,0.14431245625019073,0.38251757621765137,0.12882289290428162,-0.2129272222518921,-1.1626989841461182,-0.919119656085968,-1.0289462804794312,-0.2507069706916809,-0.036116961389780045,0.2699928283691406,-0.1562677025794983,-0.48275965452194214,-0.10890927910804749,0.694232165813446,-0.10249341279268265,-0.30190327763557434,0.09374518692493439,0.47790345549583435,0.018872655928134918,-0.25334370136260986,1.195461392402649,-0.06884095817804337,1.2669614553451538,-0.07706261426210403,0.08043166249990463,0.43364566564559937,0.0783458948135376,-0.21022969484329224,-0.3498938977718353,0.7773757576942444,-0.3023318946361542,0.35940054059028625]},"inputHidden":{"rows":20,"columns":20,"weights":[-0.22767868638038635,-0.8237124085426331,0.14542065560817719,-0.27661988139152527,-0.6758043766021729,0.2384851574897766,-0.35899612307548523,-0.8506172895431519,-0.00883891899138689,0.48927047848701477,0.8971673250198364,0.15083548426628113,0.06148955598473549,0.4832698702812195,0.2846546471118927,-0.839070200920105,-0.059991318732500076,-0.036292169243097305,0.04416752979159355,-0.6681686043739319,0.6105544567108154,-0.0675947517156601,-0.15271525084972382,-0.1274927705526352,0.010707397013902664,-0.03465692326426506,0.679065465927124,-0.48899370431900024,-0.48158591985702515,-0.09882829338312149,0.5838367938995361,-0.7869945764541626,-0.5304885506629944,-0.7405837774276733,-0.6597000360488892,-0.016265692189335823,0.646438717842102,0.12923352420330048,-0.5309599041938782,-0.20169734954833984,0.3269774317741394,-0.903050422668457,-0.26257795095443726,0.0636725127696991,-0.3463510274887085,-0.12217677384614944,0.02821028232574463,-0.650588870048523,-0.46719712018966675,0.31986621022224426,0.6993950009346008,-0.05562339723110199,-0.37476906180381775,0.28384125232696533,-0.17598219215869904,-0.3393622040748596,0.37992703914642334,-0.17734214663505554,-0.44985324144363403,-0.2601298987865448,-0.16742192208766937,-0.5364353060722351,0.2089432328939438,-0.3886848986148834,-0.07686770707368851,0.30201712250709534,-0.36267727613449097,-0.4981788396835327,0.19735656678676605,-0.2662045955657959,0.4985598921775818,-0.06277714669704437,0.23219919204711914,0.1310209184885025,0.2895481586456299,-0.05918877571821213,-0.2601829469203949,0.4577222764492035,0.2908179759979248,-0.04860844835639,0.22358547151088715,0.2499338984489441,-0.3352104723453522,0.2979000508785248,0.06906619668006897,-0.3441786766052246,0.13178342580795288,0.0498284213244915,-0.3400193452835083,0.38387542963027954,-0.10976583510637283,0.1337870955467224,-0.377829372882843,0.049765072762966156,-0.2474205046892166,-0.06031966954469681,0.29129719734191895,-0.30283477902412415,-0.3714423179626465,0.03608028590679169,0.10522288084030151,-0.9095971584320068,0.16784583032131195,-0.2304571121931076,-0.5117703676223755,0.20203517377376556,-0.40500178933143616,-0.8993285298347473,-0.12760134041309357,-0.08010208606719971,0.7921881675720215,-0.10852112621068954,-0.028382590040564537,0.20851682126522064,0.0810442790389061,-0.4550643265247345,-0.019945740699768066,0.2792838513851166,-0.11147953569889069,-0.3839775323867798,0.5337573289871216,-0.7669506669044495,-0.253105491399765,0.2360120713710785,-0.47587159276008606,-0.21361418068408966,0.2532694339752197,-0.783574104309082,-0.7180267572402954,0.374142050743103,0.7837278842926025,-0.4799865186214447,-0.5337692499160767,-0.15343979001045227,-0.37207362055778503,-0.49880141019821167,0.5734003186225891,-0.22424784302711487,-0.5646776556968689,-0.648119330406189,0.8129619359970093,0.6471601128578186,-0.8234348297119141,0.7253252863883972,0.3003883957862854,-0.7996279001235962,0.7757707834243774,0.48689374327659607,-0.5938855409622192,0.6871626377105713,-0.5515676140785217,-0.2527587413787842,-0.7164985537528992,-0.7011079788208008,-0.7929083704948425,0.13978125154972076,0.7810612320899963,-0.738167941570282,-0.7559088468551636,-0.14980947971343994,-0.3210531771183014,-0.8708466291427612,0.410555362701416,-0.3695827126502991,-0.6605756282806396,0.46617600321769714,-0.45769017934799194,-0.6837247014045715,0.22067798674106598,0.028038453310728073,0.7776628136634827,0.016142530366778374,0.12494440376758575,0.4502483606338501,0.2974558174610138,-0.6720632910728455,-0.21136003732681274,0.3122263550758362,0.13524113595485687,-0.6486044526100159,-0.40242472290992737,0.7474883198738098,0.08549227565526962,0.047486770898103714,-0.23729078471660614,0.2027597874403,-0.09946748614311218,0.48761340975761414,0.5211926102638245,0.2860966920852661,-0.7405270338058472,0.035279303789138794,0.40000471472740173,-0.0011852618772536516,0.48389866948127747,-0.4671803116798401,-0.46590641140937805,-0.03060767985880375,0.43048322200775146,-0.4928775727748871,0.5974332094192505,0.32594507932662964,-0.30558472871780396,-0.010721731930971146,0.2008989006280899,-0.23876143991947174,0.6023531556129456,-0.17428629100322723,-0.6933475136756897,-0.05868484079837799,0.05410284921526909,-0.6133664846420288,-0.5385847091674805,-0.7874671816825867,-0.67545485496521,0.23493894934654236,0.6156014800071716,-0.04950299859046936,-0.5748670101165771,-0.054561879485845566,-0.387649267911911,0.08680842071771622,0.14375892281532288,-0.13113321363925934,-0.26855525374412537,0.23325695097446442,-0.10675112158060074,-0.49203383922576904,0.47137612104415894,-0.003825258230790496,0.0481153205037117,0.23357117176055908,0.3269795775413513,0.23819436132907867,0.33828580379486084,-0.3173510432243347,-0.2925313413143158,0.06470666080713272,0.3838488459587097,-0.3492319881916046,-0.23670780658721924,-0.8919700384140015,0.3785388469696045,-0.26654717326164246,-0.6564549803733826,0.24745869636535645,-0.4307299256324768,-0.8534596562385559,0.19360309839248657,0.09403882175683975,0.7828428745269775,-0.012609327211976051,0.10556618869304657,0.36568111181259155,0.38733282685279846,-0.5912672877311707,-0.24359333515167236,0.3254963159561157,0.08876054733991623,-0.5738430619239807,-0.23634012043476105,0.12058001756668091,0.07780288904905319,0.0034815033432096243,-0.39623814821243286,0.014523228630423546,-0.08066333085298538,-0.5448355674743652,0.1584271490573883,0.026030663400888443,0.02912592701613903,-0.10564688593149185,0.1647244542837143,-0.09803204238414764,0.046370308846235275,-0.499775230884552,-0.17073464393615723,-0.14226660132408142,0.04694394767284393,-0.6785565614700317,0.4118771553039551,-1.1717122793197632,-0.12262056022882462,-0.030155139043927193,-0.7204490900039673,-0.036225803196430206,-0.27835533022880554,-1.069278359413147,-0.6348412036895752,0.28648534417152405,1.062438726425171,-0.05751274526119232,-0.44865989685058594,0.4093067944049835,-0.2970949709415436,-0.7740706205368042,0.4405589997768402,-0.011111813597381115,-0.6168152689933777,-0.7762935757637024,0.18033704161643982,0.3909333050251007,-0.5910414457321167,0.5845246315002441,-0.3580915629863739,-0.608543336391449,0.350162148475647,0.41676056385040283,-0.4302535057067871,0.7079871892929077,-0.5742738246917725,0.1487872153520584,-0.539945662021637,0.09962432831525803,-0.3009421229362488,-0.4635300636291504,0.43029865622520447,-0.6601317524909973,-0.3641388714313507,-0.4201039671897888,0.11722904443740845,-1.0492007732391357,0.1444028913974762,-0.14129161834716797,-0.7335519790649414,0.12318993359804153,-0.4541206359863281,-1.0194590091705322,-0.41098958253860474,0.3191329538822174,1.030472755432129,-0.009586910717189312,-0.31859296560287476,0.4993351995944977,-0.042973730713129044,-0.8302977681159973,0.28258493542671204,0.06168229877948761,-0.27009105682373047,-0.6221212148666382,0.13197265565395355,-0.05704674869775772,-0.21095073223114014,0.16138866543769836,0.05790764465928078,-0.1051274836063385,-0.1478625386953354,0.11697535961866379,-0.04401054233312607,0.33572494983673096,0.0065593719482421875,0.05237400531768799,-0.0910288542509079,0.19833432137966156,0.13165679574012756,0.16547025740146637,-0.04766722023487091,-0.10792651772499084,-0.04566409811377525,0.14223040640354156,-0.2246304750442505,-0.9530556797981262,0.3566083014011383,-0.25306376814842224,-0.6386841535568237,0.3927798569202423,-0.506786584854126,-0.9019834995269775,0.06479234993457794,0.07827816158533096,0.8265967965126038,-0.008995258249342442,0.18947941064834595,0.5511224269866943,0.3278181254863739,-0.6847452521324158,-0.1644255518913269,0.258082777261734,0.044190663844347,-0.5385592579841614,0.3050225079059601,0.594012439250946,-0.5342603325843811,0.5930675864219666,0.2567010223865509,-0.6267350912094116,0.3868711590766907,0.7363983988761902,-0.37265774607658386,0.6715627312660217,-0.5948213338851929,0.09925303608179092,-0.3915148675441742,-0.09211530536413193,-0.38302597403526306,0.15120823681354523,0.45198309421539307,-0.6861672401428223,-0.43912169337272644,0.18246036767959595]},"inputBias":{"rows":20,"columns":1,"weights":[-0.8466109037399292,0.7292948365211487,0.17543178796768188,0.5674790143966675,-0.2768949270248413,0.12128349393606186,-0.39002639055252075,0.32464078068733215,-1.1432876586914062,1.0677015781402588,0.8922404646873474,-0.48804235458374023,-0.6899781823158264,-0.35065218806266785,-0.6769763827323914,-0.50095134973526,-0.9553185105323792,0.6352450847625732,-0.9773524403572083,-0.17600375413894653]},"forgetMatrix":{"rows":20,"columns":4,"weights":[-0.5474066734313965,-0.24398407340049744,-0.5635974407196045,0.3163700997829437,0.7488744258880615,0.15009446442127228,0.7526856660842896,-0.5023539066314697,-0.31644830107688904,-0.22021344304084778,-0.3452102243900299,0.47067832946777344,-0.18512845039367676,0.1798468977212906,-0.22380021214485168,0.2855321168899536,0.08820098638534546,-0.1233346089720726,0.09722469002008438,-0.43565887212753296,-0.5903444886207581,-0.3353608250617981,-0.44347167015075684,0.5092048048973083,0.06715495139360428,-0.35852909088134766,-0.01764439418911934,0.2126581370830536,0.0010652338387444615,-0.40157589316368103,-0.038024384528398514,-0.5125874876976013,-0.5691471695899963,-0.3897469639778137,-0.5225580930709839,0.3973049819469452,0.12063086777925491,0.3645356595516205,0.10079324245452881,-0.6394971013069153,0.401867538690567,-0.052088260650634766,0.23624387383460999,-0.6014975309371948,-0.21980227530002594,-0.017013097181916237,-0.1180255338549614,0.2260754257440567,-0.7017045617103577,-0.47284868359565735,-0.6249954700469971,0.5332152247428894,0.06530723720788956,0.14646010100841522,0.10096355527639389,0.07250610738992691,-0.6252942085266113,-0.5251038074493408,-0.592731237411499,0.5706977248191833,0.2006411999464035,0.10583487153053284,0.2618727385997772,-0.46827396750450134,-0.7048947215080261,-0.5873037576675415,-0.7198099493980408,0.4633025527000427,-0.1847171038389206,0.16997088491916656,-0.2787381708621979,0.12906289100646973,-0.684787392616272,-0.4544163942337036,-0.6173951029777527,0.4847913980484009,0.44909942150115967,0.41442131996154785,0.4333328902721405,0.2183048576116562]},"forgetHidden":{"rows":20,"columns":20,"weights":[-0.004409263376146555,0.2864799499511719,-0.0354473702609539,-0.0890766903758049,0.09165167063474655,0.021280882880091667,-0.0005556888645514846,0.2377694547176361,0.10832450538873672,-0.22627775371074677,-0.3233923316001892,-0.119546078145504,0.1401711255311966,-0.16427449882030487,-0.04032880812883377,0.12042967230081558,-0.07723363488912582,0.08831962198019028,0.16758780181407928,0.0773998349905014,0.09657321125268936,-0.4713432490825653,-0.06556551158428192,0.1039857491850853,-0.5277802348136902,-0.05858321487903595,-0.387940913438797,-0.3569979667663574,-0.2638193666934967,0.33103451132774353,0.3951851427555084,0.09323763847351074,-0.06883519142866135,0.36929091811180115,0.0802624300122261,-0.5803658962249756,0.17881517112255096,-0.24841688573360443,-0.15670782327651978,-0.3779786229133606,-0.2763938009738922,0.2809116840362549,0.35014623403549194,-0.18234530091285706,0.1680871695280075,0.36104831099510193,-0.2811983525753021,0.36052581667900085,0.5988812446594238,-0.4005357623100281,-0.31605613231658936,-0.016669321805238724,0.4385503828525543,-0.15740473568439484,0.34597381949424744,0.21553274989128113,-0.4784504473209381,0.3094888925552368,0.4973781108856201,0.09444622695446014,-0.08286023139953613,0.24523653090000153,0.04628080874681473,0.025372516363859177,-0.057237207889556885,-0.04606368765234947,0.08670210093259811,0.41949743032455444,0.2208138257265091,-0.10497112572193146,-0.23171530663967133,-0.13086354732513428,0.08828635513782501,-0.06858055293560028,0.03477104753255844,0.046420056372880936,-0.10283848643302917,-0.14690665900707245,0.18691736459732056,-0.008374539203941822,-0.017056869342923164,-0.2239057719707489,0.02992180362343788,-0.10148649662733078,-0.3904728889465332,0.015681233257055283,-0.06452032923698425,-0.3465094268321991,0.024720361456274986,0.11208563297986984,0.2906918227672577,0.07908943295478821,-0.016480550169944763,0.08090244233608246,0.08491292595863342,-0.4676690697669983,-0.03580076992511749,-0.10051791369915009,0.02583214081823826,-0.25627315044403076,-0.11380305141210556,0.2363564670085907,0.19799236953258514,-0.19532164931297302,0.14002017676830292,0.2778250575065613,-0.20903410017490387,0.24244408309459686,0.32200655341148376,-0.34968259930610657,-0.14579510688781738,-0.06029362604022026,0.3601699769496918,-0.0954805240035057,0.28012123703956604,0.16320788860321045,-0.39322540163993835,0.19646455347537994,0.33095765113830566,0.02980228327214718,-0.4700309634208679,-0.1279774010181427,0.5510271787643433,-0.3846595287322998,0.080513134598732,0.5477426052093506,-0.5017766356468201,0.05766574665904045,0.5490676760673523,-0.4528277814388275,0.08625346422195435,0.08527474850416183,0.6901498436927795,0.02755814976990223,0.5355643033981323,0.09806620329618454,-0.688126802444458,0.3894234597682953,0.590269148349762,0.05478113517165184,-0.17309486865997314,-0.49016281962394714,0.31527775526046753,-0.22100390493869781,-0.3935734033584595,0.2906859219074249,-0.4060804545879364,-0.522607147693634,0.1341615468263626,0.061792150139808655,0.4732377529144287,0.16133613884449005,0.2169216126203537,0.3427845537662506,0.27370479702949524,-0.6069953441619873,-0.2670704424381256,0.006844554096460342,0.14753909409046173,-0.3424535095691681,0.05971122905611992,0.27887260913848877,0.17258517444133759,-0.1245187371969223,0.07317065447568893,0.12483774125576019,0.0316011980175972,0.12587395310401917,0.17266197502613068,-0.28169989585876465,-0.12213800102472305,-0.1303519308567047,0.18566879630088806,-0.23417437076568604,0.06440525501966476,0.15646414458751678,-0.0680304616689682,0.07702638953924179,0.20109529793262482,-0.00020322813361417502,-0.30148014426231384,0.8191187381744385,0.00041532141040079296,-0.01923339255154133,-0.34007906913757324,0.1685333400964737,-0.08295170217752457,0.6854482293128967,0.4669917821884155,0.2526993751525879,-0.7984080910682678,-0.08304017037153244,0.3192977011203766,-0.1598430722951889,0.4757726490497589,-0.5810664892196655,-0.40921396017074585,-0.10700135678052902,0.4765850007534027,-0.5791921019554138,-0.05800984799861908,-0.5399644374847412,0.11947198957204819,-0.05361703410744667,-0.48482540249824524,0.011199160479009151,-0.4320206940174103,-0.4597645401954651,-0.1939321905374527,0.26563581824302673,0.39749863743782043,0.14942283928394318,-0.04620768874883652,0.4570658206939697,0.15914906561374664,-0.6018375158309937,-0.03962509334087372,-0.06865324825048447,-0.15960274636745453,-0.4567282497882843,0.00908469408750534,0.08824005722999573,-0.024711528792977333,0.04952751472592354,0.050382208079099655,-0.0181979201734066,0.05654573813080788,0.05413313955068588,0.07703125476837158,-0.06813317537307739,-0.0828980877995491,0.04131344333291054,0.05341803655028343,0.03828427568078041,0.006261658389121294,0.043791234493255615,-0.052332352846860886,0.07285866141319275,0.08158643543720245,0.05833261087536812,0.05973786488175392,0.3301900029182434,0.07885226607322693,-0.10925254225730896,0.09564764052629471,0.17505326867103577,-0.053926970809698105,0.1182933896780014,0.17800357937812805,-0.34653884172439575,-0.1441304236650467,-0.0652194619178772,0.15795201063156128,-0.3063385784626007,0.07678995281457901,0.1989389806985855,-0.21597237884998322,0.1863739937543869,0.23700569570064545,0.09056068956851959,0.004168573301285505,0.07032116502523422,0.049955230206251144,0.04587138444185257,0.0030842104461044073,-0.08950158208608627,0.05845833569765091,0.045151155441999435,-0.08442051708698273,-0.017150016501545906,-0.053158506751060486,0.01118631660938263,0.051711346954107285,0.0417967215180397,0.06400369852781296,-0.0460093729197979,-0.024391017854213715,-0.02316504903137684,-0.06635124236345291,0.00895389448851347,-0.2608906030654907,0.2764013111591339,0.2611981928348541,-0.31062281131744385,0.22143656015396118,0.38666200637817383,-0.17172931134700775,0.27751460671424866,0.4324248433113098,-0.5224443078041077,-0.2019987851381302,-0.045342717319726944,0.4074738323688507,-0.180990532040596,0.22679385542869568,0.1726943552494049,-0.40690183639526367,0.3048079013824463,0.44994640350341797,0.06003453955054283,-0.020576834678649902,-0.27993345260620117,-0.008062503300607204,-0.12130796164274216,-0.4222475588321686,0.005364340730011463,-0.06368499994277954,-0.19255195558071136,-0.05892843380570412,0.2074442356824875,0.18936702609062195,0.019173486158251762,-0.02506592869758606,0.13421332836151123,-0.027268726378679276,-0.5970030426979065,0.10714361816644669,-0.13694892823696136,0.0053250486962497234,-0.43496495485305786,-0.1435347944498062,0.40010374784469604,0.20567244291305542,-0.24895447492599487,0.11769036948680878,0.12048652023077011,-0.10182181000709534,0.11976964771747589,0.39105674624443054,-0.4713180363178253,-0.30304548144340515,-0.18870984017848969,0.23975802958011627,-0.3390531539916992,0.17882968485355377,0.2679329514503479,-0.20116165280342102,0.21425823867321014,0.23215486109256744,0.027662428095936775,-0.2260725349187851,0.5686244964599609,-0.1440989226102829,0.1497606486082077,-0.10309000313282013,0.005259720608592033,0.095148466527462,0.7357994318008423,0.34453603625297546,0.14925508201122284,-0.6276947855949402,-0.06818737089633942,0.2138294279575348,-0.22856232523918152,0.21142005920410156,-0.1956654191017151,-0.3035449683666229,-0.3135799467563629,0.31281033158302307,-0.286519855260849,-0.03191709518432617,0.32494205236434937,0.03500835970044136,-0.08155523240566254,0.19332058727741241,0.13126561045646667,-0.05897650122642517,0.14181019365787506,0.253072053194046,-0.4146219789981842,-0.24963419139385223,-0.1149137020111084,0.13171705603599548,-0.28341689705848694,0.07252728939056396,0.24829337000846863,-0.11477088928222656,0.23415948450565338,0.12550722062587738,0.0868970975279808,0.006795238237828016,0.028720492497086525,0.20102454721927643,-0.24932047724723816,0.1538231521844864,0.19156767427921295,-0.07354094833135605,0.3874857723712921,-0.009558900259435177,-0.3910650312900543,-0.1194891557097435,-0.047646332532167435,0.08245236426591873,0.038384921848773956,0.0986516997218132,0.19789475202560425,-0.14254023134708405,0.2021428346633911,0.10096672922372818,0.28021106123924255]},"forgetBias":{"rows":20,"columns":1,"weights":[0,0,0,0,0,0,0,0,0,0,0,0,0,0,0,0,0,0,0,0]},"outputMatrix":{"rows":20,"columns":4,"weights":[-0.33856815099716187,-0.05422094836831093,-0.3421258330345154,-0.5494884848594666,0.08787558972835541,-0.4566401243209839,0.26081427931785583,-0.838107705116272,0.49600982666015625,0.165415957570076,0.6181216835975647,-0.13008609414100647,0.9220947027206421,-0.48426854610443115,1.1551976203918457,-0.16662034392356873,-0.2631957232952118,0.31505003571510315,-0.2613343894481659,-0.553337812423706,0.5428757071495056,-0.1960214525461197,0.5328693985939026,-0.17599467933177948,0.0051115225069224834,0.15064311027526855,-0.02045757696032524,-0.04901785030961037,0.4492022693157196,-0.5384259223937988,0.4865590035915375,-0.7474828362464905,0.1810646951198578,0.4150345027446747,0.1216951534152031,-0.2226090133190155,0.7176237106323242,-0.1568233072757721,0.8661741018295288,-0.6689758896827698,0.26827841997146606,-0.5624722838401794,0.5390386581420898,-0.7306231260299683,-0.9434856176376343,-0.40578874945640564,-0.7413403987884521,-0.040091194212436676,0.15722373127937317,0.3021276891231537,0.05334040895104408,-0.10795918852090836,-1.1431409120559692,-1.0178954601287842,-1.020581841468811,-0.4405909478664398,0.015803979709744453,0.08439742028713226,-0.1361292451620102,-0.3451515734195709,-0.029994981363415718,0.7032862901687622,0.028713993728160858,-0.6473752856254578,0.10955795645713806,0.2845477759838104,0.09887788444757462,-0.2024070918560028,1.2616640329360962,0.016852784901857376,1.4378876686096191,0.09282805025577545,0.13769671320915222,0.20755746960639954,0.08244506269693375,-0.17058268189430237,-0.17039288580417633,0.9554996490478516,-0.18590416014194489,0.2680119276046753]},"outputHidden":{"rows":20,"columns":20,"weights":[-0.31047555804252625,-0.785969614982605,0.2956378161907196,-0.4505383372306824,-0.6052376627922058,0.39325791597366333,-0.5054652094841003,-0.8450399041175842,0.22704315185546875,0.39117974042892456,0.7202906012535095,0.1288052201271057,0.3050045073032379,0.5220046639442444,0.4808766841888428,-0.8696800470352173,-0.33692121505737305,0.19059404730796814,0.36097589135169983,-0.7113586068153381,0.21434995532035828,-1.079307198524475,0.1783338189125061,-0.2258758693933487,-0.7524092793464661,0.17896248400211334,-0.38927701115608215,-1.1396641731262207,-0.5324057936668396,0.07969266921281815,0.9591724276542664,-0.03006846271455288,-0.40301513671875,0.4621572196483612,-0.08246728032827377,-0.6557641625404358,0.42609521746635437,0.02681535668671131,-0.4268183410167694,-0.5077978372573853,0.4807542562484741,-0.9104450941085815,-0.11778722703456879,0.19546036422252655,-0.31939855217933655,-0.11844860017299652,-0.2169196456670761,-0.7793090343475342,-0.3951301574707031,0.32682475447654724,0.8046718835830688,-0.16737110912799835,-0.2936508059501648,0.20412229001522064,-0.20389296114444733,-0.27957743406295776,0.43479394912719727,-0.1807185262441635,-0.364950954914093,-0.16684263944625854,-0.4103619158267975,-0.1874813586473465,0.4218445420265198,-0.3866407871246338,-0.00634749373421073,0.3853948414325714,-0.4723972678184509,-0.1603253036737442,0.607020914554596,-0.24671943485736847,0.26873061060905457,-0.035975728183984756,0.5134972929954529,0.02961527369916439,0.6043016910552979,0.056281257420778275,-0.6136119961738586,0.4342142343521118,0.5351649522781372,0.20809230208396912,0.13032564520835876,-0.09574950486421585,-0.24526837468147278,0.3285718262195587,-0.45723938941955566,-0.25729691982269287,-0.16822057962417603,-0.3679765462875366,-0.2899002134799957,0.3951588273048401,0.15570351481437683,0.23644384741783142,-0.2707980275154114,0.45223626494407654,-0.11218268424272537,-0.5195659399032593,0.27439674735069275,-0.28403595089912415,-0.2929408848285675,-0.2397417426109314,0.13153082132339478,-0.938847541809082,0.3402824401855469,-0.3437473475933075,-0.6328803300857544,0.1912771463394165,-0.5062504410743713,-0.8084465861320496,0.09539791196584702,-0.01193040981888771,0.8664358258247375,-0.23944196105003357,0.15336807072162628,0.12421555817127228,0.27017903327941895,-0.474046528339386,-0.11833582818508148,0.29539868235588074,-0.0017449273727834225,-0.2762144207954407,0.388504296541214,-1.0826058387756348,-0.18635740876197815,0.28840792179107666,-0.6966117024421692,-0.27353817224502563,-0.09550461918115616,-0.9267889857292175,-0.6748398542404175,0.2898879051208496,0.9328362941741943,-0.44382375478744507,-0.6008812785148621,0.14849087595939636,-0.40997523069381714,-0.5838066339492798,0.5104737281799316,-0.2751021683216095,-0.639477550983429,-0.6110765933990479,0.21886123716831207,-0.8834470510482788,0.10362787544727325,-0.14288431406021118,-0.33912229537963867,0.029817283153533936,-0.08905467391014099,-0.8035828471183777,-0.5721406936645508,0.32445693016052246,0.853053629398346,0.30438485741615295,-0.30538204312324524,0.3122800886631012,-0.21645978093147278,-0.4149485230445862,0.37480905652046204,0.0659838616847992,-0.4277368187904358,-0.24619074165821075,-0.4528651833534241,-0.860743522644043,0.6095751523971558,-0.5617161393165588,-0.760744571685791,0.612863302230835,-0.6474251747131348,-0.7998807430267334,0.5357704162597656,-0.14361563324928284,0.7575926780700684,0.04859311878681183,0.5087777376174927,0.46628984808921814,0.5974597930908203,-0.6907125115394592,-0.5664423108100891,0.5266953110694885,0.46502548456192017,-0.5918562412261963,-0.669063925743103,1.0816562175750732,0.3629760146141052,-0.26416483521461487,-0.5426018238067627,0.35329362750053406,-0.3812481164932251,0.8133693337440491,0.6962637901306152,0.08210951089859009,-1.2190234661102295,-0.06037278100848198,0.7153226137161255,-0.2507472038269043,0.6240946650505066,-0.8495399951934814,-0.8008856177330017,0.1401505470275879,0.8125857710838318,-1.1744489669799805,0.23409932851791382,-1.1740036010742188,0.19981451332569122,-0.31929317116737366,-0.4441140294075012,0.17430229485034943,-0.28139612078666687,-1.193385362625122,-0.5336567759513855,-0.037759192287921906,0.988187849521637,-0.1365237981081009,-0.38177797198295593,0.4771136939525604,-0.16022585332393646,-0.3235515356063843,0.3975619077682495,0.23486481606960297,-0.37473997473716736,-0.12115408480167389,-0.38557687401771545,0.1839115023612976,0.17165565490722656,-0.1939062774181366,-0.17639893293380737,0.20069202780723572,-0.11382655799388885,-0.5479809045791626,0.40640419721603394,0.01999414898455143,-0.0408395417034626,0.19850103557109833,0.30580905079841614,0.21302469074726105,0.2337125837802887,-0.2725384831428528,-0.30800414085388184,-0.026693616062402725,0.30871739983558655,-0.39854034781455994,-0.3586508631706238,-0.7538585662841797,0.5969871282577515,-0.48541468381881714,-0.636600136756897,0.6183909773826599,-0.7114174365997314,-0.8586317300796509,0.5691866278648376,-0.03489281237125397,0.7925887703895569,-0.09635693579912186,0.5866134762763977,0.3992154002189636,0.6732321381568909,-0.6366593837738037,-0.4527517259120941,0.356089323759079,0.4753815829753876,-0.5256888270378113,-0.15454408526420593,0.1437489241361618,-0.10148884356021881,0.08418641984462738,-0.49688318371772766,-0.013159377500414848,-0.012837303802371025,-0.634911060333252,0.11517423391342163,0.1403992474079132,0.04103643447160721,0.03767998516559601,0.011513047851622105,-0.00778485182672739,-0.02370941825211048,-0.6264995336532593,-0.11244552582502365,-0.08755265921354294,0.1429644227027893,-0.5823080539703369,0.6884967684745789,-1.2888402938842773,-0.05193966627120972,-0.11688882112503052,-0.7784931659698486,-0.04224242642521858,-0.27360478043556213,-1.1219329833984375,-0.5833424925804138,0.15401549637317657,1.1068222522735596,-0.21146711707115173,-0.5755210518836975,0.382198303937912,-0.2556169629096985,-0.8199342489242554,0.6656520962715149,-0.03185290843248367,-0.628758430480957,-0.740161120891571,0.07031343877315521,0.14140555262565613,-0.47019222378730774,0.6032976508140564,-0.6544759273529053,-0.46331310272216797,-0.02698846533894539,0.1228066086769104,-0.33145657181739807,0.871498167514801,-0.3067367970943451,0.21881860494613647,-0.3986518979072571,0.35768455266952515,-0.14105123281478882,-0.9411333203315735,0.29196229577064514,-0.7828502655029297,-0.37536585330963135,-0.49500027298927307,0.2653416097164154,-1.1493123769760132,0.13121949136257172,-0.0875396654009819,-0.7136478424072266,0.052961088716983795,-0.5858385562896729,-1.0493539571762085,-0.31752026081085205,0.10433904826641083,1.0557657480239868,-0.0915549099445343,-0.2924412488937378,0.5102041363716125,0.033648524433374405,-0.9036653637886047,0.23994703590869904,0.08203351497650146,-0.4238007068634033,-0.6558945178985596,-0.12262770533561707,0.2065548449754715,-0.1494431495666504,0.1979188770055771,-0.15592992305755615,-0.1880575716495514,-0.2718048393726349,0.4936462342739105,0.27916720509529114,0.4439307749271393,-0.30114468932151794,-0.09826178848743439,0.23486992716789246,-0.015596486628055573,0.3317226469516754,-0.21139271557331085,-0.26538166403770447,-0.3904247283935547,0.3111712634563446,-0.04376910999417305,-0.33669447898864746,-0.8066321015357971,0.593614935874939,-0.5266397595405579,-0.6450377106666565,0.5236591696739197,-0.7439502477645874,-0.78232342004776,0.3888782262802124,-0.11119082570075989,0.8018602728843689,0.028961775824427605,0.47793981432914734,0.44146543741226196,0.48949500918388367,-0.6674486398696899,-0.45779499411582947,0.43646475672721863,0.4379846751689911,-0.6472859382629395,0.1988159567117691,0.5938730239868164,-0.4100312888622284,0.6755200624465942,0.3075571060180664,-0.513310968875885,0.24883079528808594,0.724020779132843,-0.3776915371417999,0.48540785908699036,-0.7388514876365662,0.03680496662855148,-0.2786285877227783,0.007897969335317612,-0.25745564699172974,0.29932713508605957,0.31495508551597595,-0.44616395235061646,-0.3003636598587036,0.4410236179828644]},"outputBias":{"rows":20,"columns":1,"weights":[-0.8810635209083557,0.6794227361679077,0.1589486002922058,0.6125884056091309,-0.2639615833759308,0.0995933786034584,-0.4309452772140503,0.3461351692676544,-1.2274932861328125,1.1328272819519043,0.8140406608581543,-0.49397939443588257,-0.7384827136993408,-0.35045909881591797,-0.7552635073661804,-0.4892910122871399,-0.9993690252304077,0.6774571537971497,-1.0120282173156738,-0.17903241515159607]},"cellActivationMatrix":{"rows":20,"columns":4,"weights":[0.9370883703231812,0.1616538166999817,0.8873885869979858,0.11649893969297409,0.7738920450210571,-0.2632885277271271,0.7114129662513733,0.14982256293296814,-1.088512897491455,-0.12583792209625244,-1.196946620941162,-0.09901192039251328,0.9979020953178406,-0.2547644376754761,1.0113390684127808,-0.25786179304122925,-0.15095628798007965,-0.9122438430786133,-0.11315207928419113,0.3392404317855835,-1.1969612836837769,0.029136383906006813,-1.1162716150283813,0.12462560087442398,0.8158270120620728,0.17907074093818665,0.7424951791763306,0.38222092390060425,0.5632309913635254,-0.5675342082977295,0.5444211363792419,0.09755450487136841,-0.9984281063079834,0.08170555531978607,-0.9394338130950928,0.02485852688550949,0.6680629253387451,-0.23725935816764832,0.8656197786331177,-0.7388057708740234,-0.6864250302314758,0.5129477381706238,-0.5798371434211731,-0.14197352528572083,-0.45499148964881897,-0.7225890159606934,-0.4300157427787781,-0.3537386357784271,-1.149264931678772,-0.1238047257065773,-1.0531752109527588,0.04758181795477867,-0.7425544857978821,-0.3697885572910309,-0.5790179371833801,-0.6836466193199158,-0.9980502724647522,-0.0257691852748394,-0.9895468354225159,-0.08585861325263977,-0.33559373021125793,-0.7899816036224365,-0.4654933512210846,0.6078490018844604,1.044690728187561,0.034361422061920166,1.0324745178222656,0.0026749323587864637,-1.015499472618103,0.09148386865854263,-1.1001378297805786,0.31494903564453125,-1.0576860904693604,-0.028802676126360893,-0.9470754265785217,-0.034723877906799316,-0.8026910424232483,-1.221053957939148,-0.6511311531066895,0.015942538157105446]},"cellActivationHidden":{"rows":20,"columns":20,"weights":[-0.46070197224617004,-0.13004086911678314,0.14479494094848633,-0.06889224052429199,0.19515325129032135,0.2592131197452545,-0.2433333694934845,-0.030020691454410553,0.3535909056663513,-0.1080232486128807,0.06704797595739365,0.5644372701644897,0.39034149050712585,0.511073887348175,0.3637984097003937,0.3170037865638733,-0.3520888686180115,0.20770016312599182,0.2665565311908722,0.3177953362464905,-0.3473265767097473,-0.2887842059135437,0.4932698905467987,-0.323993980884552,0.6474744081497192,0.543087363243103,-0.5348691940307617,-0.304461807012558,0.6563529372215271,-0.5952832102775574,0.29562267661094666,0.07544917613267899,0.6457161903381348,0.03784457966685295,0.47687214612960815,0.9157962799072266,-0.5542615056037903,0.44232258200645447,0.6005256772041321,0.9527079463005066,0.4697803258895874,-0.5656258463859558,-0.2718493938446045,0.030165432021021843,-0.49389681220054626,-0.32506096363067627,0.2660429775714874,-0.6035355925559998,-0.658078670501709,0.18984322249889374,0.6756706833839417,-0.07959260046482086,-0.6750746965408325,0.1767367422580719,-0.5345093607902527,-0.5492907762527466,0.7048779129981995,-0.13774029910564423,-0.568009614944458,-0.45830050110816956,-0.07453843951225281,0.2069743275642395,0.08942626416683197,0.08259981125593185,0.45780929923057556,0.08418594300746918,-0.0690590888261795,0.3099522888660431,0.32581627368927,-0.27881017327308655,-0.14585544168949127,0.16978195309638977,0.3043281137943268,0.06635180860757828,0.18303582072257996,0.6058524250984192,-0.23836477100849152,0.0056332191452383995,0.20565928518772125,0.5459297299385071,-0.08942868560552597,-0.1266799122095108,0.28577494621276855,-0.2814895808696747,0.40269002318382263,0.22668398916721344,-0.2000429481267929,-0.23595039546489716,0.08497623354196548,-0.5996412038803101,0.1790717989206314,0.17424647510051727,0.15966102480888367,0.1666361689567566,0.07914724946022034,0.4750910997390747,-0.16663393378257751,0.2943136990070343,0.0810958594083786,0.4640657603740692,0.4536164402961731,-0.11624081432819366,-0.2631680369377136,0.06566662341356277,-0.4008580446243286,-0.23994937539100647,0.15472625195980072,-0.21278604865074158,-0.4946102797985077,0.3253827393054962,0.2350885421037674,-0.22602541744709015,-0.4502837359905243,-0.2128876894712448,-0.24929630756378174,-0.4419751465320587,0.3594898581504822,-0.21452951431274414,-0.4536963999271393,-0.5855660438537598,-0.5462532639503479,0.6005761623382568,0.2453625649213791,0.014009129256010056,0.512766420841217,0.24494633078575134,-0.2496892511844635,0.4880512058734894,0.8086529970169067,-0.18784837424755096,-0.5984495282173157,0.1758238971233368,0.6706008315086365,-0.21754612028598785,0.5301045179367065,0.7262700200080872,-0.6003969311714172,0.024668537080287933,0.7353429198265076,0.6476885676383972,-0.5524942278862,-0.7092331051826477,0.7918810248374939,-0.667428731918335,-0.024770373478531837,0.7057797312736511,-0.6962341070175171,-0.7247301340103149,0.6414854526519775,-1.0242778062820435,0.7497355937957764,-0.2434081882238388,0.7941433191299438,0.09795509278774261,0.6442320942878723,0.40749162435531616,-0.6550488471984863,0.7556247115135193,0.6293251514434814,0.5591405034065247,0.35196757316589355,0.17680001258850098,-0.24750187993049622,0.23784346878528595,-0.2919101417064667,-0.3384488821029663,0.30184146761894226,0.18705858290195465,-0.4663145840167999,0.24444524943828583,-0.03867018595337868,-0.2583959400653839,-0.41616183519363403,-0.42247581481933594,-0.3806300759315491,-0.404135137796402,0.3241434395313263,-0.15498226881027222,-0.3745335042476654,-0.4731026887893677,0.0342726893723011,0.5302457213401794,-0.2392134964466095,0.18227413296699524,-0.3638902008533478,-0.23361264169216156,0.3001159131526947,0.21647487580776215,0.04298108443617821,0.31554093956947327,-0.3412436246871948,-0.256406307220459,-0.03358663246035576,-0.26488009095191956,-0.055120810866355896,-0.29867488145828247,0.025563087314367294,-0.2987110912799835,-0.02940964139997959,-0.2739493250846863,0.46918126940727234,0.41710612177848816,-0.5838103294372559,0.4533752202987671,-0.41858261823654175,-0.611505925655365,0.48259153962135315,0.5000171661376953,-0.48588210344314575,0.9097285270690918,-0.5007297992706299,0.17140920460224152,-0.655851423740387,-0.14490936696529388,-0.4856880009174347,-0.8210521340370178,0.6026533842086792,-0.65318363904953,-0.4674690067768097,-0.8894811272621155,0.2449890524148941,0.1364242136478424,-0.05457935482263565,-0.07524442672729492,-0.19032025337219238,-0.03509431704878807,0.1308673620223999,-0.261806845664978,-0.12422992289066315,0.09721773117780685,0.0758625715970993,-0.3740503787994385,-0.07046997547149658,-0.443096786737442,-0.03274301812052727,-0.2614501714706421,0.06540926545858383,-0.03284990414977074,-0.03294896334409714,-0.38662654161453247,0.4114026129245758,-0.04794792830944061,-0.20205560326576233,0.23266328871250153,-0.3136586844921112,-0.265604168176651,0.19176024198532104,0.07422101497650146,-0.5277025103569031,0.398802787065506,-0.06497140973806381,-0.2520727813243866,-0.42141667008399963,-0.40012574195861816,-0.3750232756137848,-0.3781013786792755,0.48947614431381226,-0.1852429062128067,-0.42964208126068115,-0.512100338935852,0.1857193410396576,-0.0968136265873909,-0.046919405460357666,0.008541220799088478,-0.3980163633823395,0.011925194412469864,0.06233659386634827,-0.4516172409057617,-0.19385284185409546,0.16831886768341064,0.15495431423187256,-0.48789703845977783,-0.17581692337989807,-0.30806201696395874,-0.10391309857368469,-0.5151700377464294,0.0728534534573555,-0.0761854276061058,-0.1369607150554657,-0.6450814604759216,0.5302889943122864,-0.04986906051635742,-0.35393890738487244,0.2520965337753296,-0.3887604773044586,-0.3198241591453552,0.29303786158561707,-0.00927755981683731,-0.690831184387207,0.3835025429725647,-0.04548764228820801,-0.28022950887680054,-0.6124836802482605,-0.2672617435455322,-0.4350124001502991,-0.524742841720581,0.6383798718452454,-0.2538232207298279,-0.6701445579528809,-0.5747769474983215,-0.20916682481765747,-0.11977039277553558,0.3483075201511383,-0.29341015219688416,0.5226074457168579,0.3812546133995056,-0.23136574029922485,-0.262738972902298,0.25317999720573425,-0.7981323003768921,0.30215319991111755,0.357120543718338,0.3027174174785614,0.29747188091278076,0.2114180624485016,0.6405456066131592,-0.1714719980955124,0.3366818130016327,0.28881680965423584,0.6180656552314758,-0.493324339389801,-0.05260135978460312,0.35296666622161865,-0.2252332866191864,0.31232696771621704,0.41391488909721375,-0.25970199704170227,-0.03374606370925903,0.523674726486206,-0.33796000480651855,-0.011495303362607956,0.4223394989967346,0.4972139000892639,0.3732573390007019,0.3747813403606415,0.4340095520019531,-0.52790766954422,0.2805993854999542,0.5266426801681519,0.4465125501155853,0.3135068416595459,-0.5393123626708984,-0.07644101977348328,-0.18194328248500824,-0.41278067231178284,-0.14915019273757935,0.035200588405132294,-0.726629376411438,-0.45948466658592224,0.019232142716646194,0.6333827376365662,-0.16946396231651306,-0.4229729473590851,-0.0378880575299263,-0.12089376896619797,-0.5554699897766113,0.353105366230011,0.14367622137069702,-0.32149261236190796,-0.5391597151756287,0.45826125144958496,0.10641223192214966,-0.22767600417137146,0.265331506729126,-0.2365426868200302,-0.3610656261444092,0.36167430877685547,0.06345756351947784,-0.45184558629989624,0.26010769605636597,-0.011178799904882908,-0.39664384722709656,-0.42662307620048523,-0.4677565395832062,-0.30000802874565125,-0.3505765199661255,0.38648220896720886,-0.19342496991157532,-0.4261553883552551,-0.45800188183784485,-0.06326024979352951,-0.20033502578735352,0.0014595246175304055,-0.14632222056388855,-0.18232907354831696,-0.01185208186507225,-0.0563187301158905,-0.5418233275413513,0.012921236455440521,-0.12558750808238983,0.18208734691143036,0.20121058821678162,0.07287722080945969,0.1724630445241928,0.057382166385650635,-0.14050370454788208,-0.1010027751326561,-0.010227459482848644,0.171408548951149,-0.40436872839927673]},"cellActivationBias":{"rows":20,"columns":1,"weights":[0.23765452206134796,0.5633631944656372,-0.42996886372566223,0.5645020604133606,-0.2604409456253052,-0.4399932622909546,0.3042084574699402,0.44764944911003113,-0.13958029448986053,1.0567684173583984,-0.6703794598579407,-0.14329347014427185,-0.30998262763023376,-0.17130336165428162,-0.2747667133808136,-0.46681904792785645,0.24237413704395294,-0.6189308762550354,-0.23247173428535461,-0.5193241238594055]}},{"inputMatrix":{"rows":20,"columns":20,"weights":[-0.4912227392196655,-0.6757144331932068,1.2109386920928955,-0.2881878614425659,-0.36455097794532776,0.597046971321106,-1.305198073387146,-0.548742413520813,0.46324020624160767,-0.6238000988960266,0.6235461235046387,0.25190597772598267,0.46223485469818115,0.4247001111507416,1.2808743715286255,-0.33503589034080505,-0.7220174074172974,0.5061120986938477,0.45190438628196716,-0.0743037760257721,-0.3407002091407776,0.598771333694458,-0.315178781747818,0.6532048583030701,0.20956438779830933,-0.1881134957075119,0.06885368376970291,0.5809916257858276,0.345141738653183,1.0664126873016357,-0.785881757736206,0.29352864623069763,0.14199429750442505,0.3204716145992279,0.14678503572940826,0.03677889704704285,-0.35099726915359497,-0.7882546782493591,0.20510320365428925,0.3748432993888855,-0.4302408695220947,-1.0974656343460083,1.154065489768982,-0.36624759435653687,-0.21173690259456635,0.6017419695854187,-0.9982625246047974,-0.9302726984024048,0.41068610548973083,-0.27841851115226746,0.993798017501831,0.2554672956466675,0.42876946926116943,0.1501142680644989,1.1075886487960815,-0.3384403884410858,-0.5645977258682251,0.4993472993373871,0.3823051452636719,-0.03886314481496811,-0.21980585157871246,-0.092161625623703,-0.251607209444046,0.9446184635162354,-0.609887421131134,-0.3659539818763733,-0.4066886901855469,-0.41755345463752747,0.25320014357566833,0.9717670679092407,0.021849874407052994,0.25494250655174255,0.10872184485197067,0.27347394824028015,0.3840482532978058,-0.9166756868362427,-0.20246632397174835,-0.8266398310661316,0.08586519211530685,-0.5816493630409241,0.04573584720492363,0.31090444326400757,-0.8825805187225342,1.0660685300827026,-0.28007516264915466,-0.9270045757293701,0.548060953617096,-0.057859811931848526,-0.09474547952413559,1.1476619243621826,-0.47060641646385193,0.29921239614486694,-0.3787010610103607,0.13071532547473907,-0.35154998302459717,-0.4886678159236908,0.20762717723846436,-1.2877274751663208,-0.32444968819618225,-0.33239009976387024,-0.4547123610973358,-1.0643115043640137,1.484717607498169,-0.498445063829422,-0.44402241706848145,0.7052187919616699,-1.4623222351074219,-0.8171402215957642,0.4393499493598938,-0.28453806042671204,0.9100021123886108,0.3619225323200226,0.4895423948764801,0.6278581619262695,1.2341619729995728,-0.3077872693538666,-0.7684173583984375,0.7074628472328186,0.47957682609558105,0.05567864701151848,0.2370711714029312,-0.28318077325820923,-0.5533356666564941,1.2893381118774414,-0.8404343724250793,-1.0708500146865845,-0.274255633354187,-0.2979857623577118,0.12765143811702728,1.156943440437317,0.19675558805465698,-0.06071799620985985,-0.339462548494339,-0.09691791981458664,-0.01791115291416645,-0.7814465165138245,-0.055129922926425934,-1.3470542430877686,-0.3195209205150604,-0.8727753162384033,-0.3639138340950012,-1.1012394428253174,1.005748987197876,-0.4669240713119507,-0.4791189730167389,0.42294928431510925,-1.2272037267684937,-0.569317102432251,0.3728809058666229,-1.261886477470398,0.7680609822273254,0.16876539587974548,0.5222294330596924,0.30386099219322205,0.8132731914520264,-0.4267146587371826,-0.4702405035495758,1.0204527378082275,0.34127527475357056,-0.311217725276947,0.6390823125839233,0.8718292713165283,-1.0697085857391357,0.9523314237594604,0.5353335738182068,-0.8332089781761169,1.1568520069122314,0.5697086453437805,-0.4078231751918793,1.0323220491409302,-0.7915594577789307,-0.7425783276557922,-0.5154345035552979,-0.9999638795852661,-1.0038748979568481,0.5887436866760254,0.6243853569030762,-1.0007128715515137,-0.576307475566864,0.41740456223487854,0.0412304513156414,0.40625208616256714,-0.7393038272857666,1.14860200881958,-0.2619714140892029,-0.6484058499336243,0.40460968017578125,-0.08792988210916519,-0.03670821711421013,1.1895275115966797,-0.4163689911365509,0.21882231533527374,-0.26140180230140686,0.08780765533447266,-0.2643488347530365,-0.4749472439289093,0.15865974128246307,-1.1706169843673706,-0.18376672267913818,-0.3232313394546509,-0.48896709084510803,-1.1199445724487305,1.106555700302124,-0.481688916683197,-0.4489734172821045,0.4933048486709595,-1.2964991331100464,-0.8861676454544067,0.4151935875415802,-0.4781264066696167,0.9088025689125061,0.3322083652019501,0.40428921580314636,0.5619134902954102,0.8348521590232849,-0.5012431144714355,-0.5742959976196289,0.7347458004951477,0.4564369022846222,-0.2582091689109802,0.5688095688819885,0.42903998494148254,-0.837262749671936,0.8099259734153748,0.046180568635463715,-0.9342411160469055,0.742544949054718,0.3021644055843353,-0.8526058197021484,1.1309183835983276,-0.3570583760738373,-0.03197099268436432,-0.9277904629707336,-0.1283106803894043,-0.860338568687439,-0.2323209047317505,0.9089292883872986,-0.9625301957130432,-0.8875154852867126,-0.3135123550891876,0.699638843536377,0.6357519626617432,-0.7913782000541687,0.8048464059829712,0.1908830851316452,-0.9454994201660156,0.7305923104286194,0.37235212326049805,-0.8836079835891724,0.9985368251800537,-0.4592663645744324,0.13455691933631897,-0.8635597825050354,-0.015485107898712158,-0.7000718712806702,-0.05191221460700035,0.7473989129066467,-0.9340623617172241,-0.8497437238693237,-0.04000314325094223,-0.4887739419937134,-0.7450542449951172,1.2329301834106445,-0.295325368642807,-0.29498228430747986,0.6380986571311951,-1.191727638244629,-0.5722933411598206,0.43967583775520325,-0.609898030757904,0.6096072793006897,0.20076100528240204,0.5379006266593933,0.3517501652240753,1.3133139610290527,-0.29901015758514404,-0.6708358526229858,0.6646579504013062,0.42143046855926514,-0.09330158680677414,-0.36679932475090027,-0.47612687945365906,-0.004566590301692486,0.4627428948879242,-0.689221978187561,0.056482162326574326,-0.43726646900177,-0.8966161608695984,0.3673807978630066,0.9222333431243896,0.43046334385871887,0.27719494700431824,0.31072744727134705,0.2837980091571808,0.36033153533935547,-0.9176679849624634,-0.3128577470779419,-0.5197283029556274,0.2937822937965393,-0.7269593477249146,-0.02517768368124962,0.36730292439460754,-0.8367959856987,0.9200681447982788,-0.14500311017036438,-0.837285578250885,0.900746762752533,0.19600264728069305,-0.528510570526123,1.6127798557281494,-0.42904508113861084,0.3672441244125366,-0.601074755191803,0.18156303465366364,-0.5828521251678467,-0.49197593331336975,0.49562469124794006,-1.2255786657333374,-0.5358440279960632,-0.3761102855205536,-0.5685564279556274,-0.8940309286117554,1.312389612197876,-0.45522719621658325,-0.347271203994751,0.6598243713378906,-1.1974986791610718,-0.6202045679092407,0.4056038558483124,-0.1744769811630249,0.6822319626808167,0.3817322254180908,0.49817201495170593,0.6090243458747864,1.1637275218963623,-0.36878904700279236,-0.8062196373939514,0.5698871612548828,0.5012339353561401,0.01501565333455801,0.0004306942573748529,0.17611591517925262,-0.7106873393058777,1.0180739164352417,-0.2920415699481964,-0.7436162829399109,0.2789272665977478,-0.22688601911067963,-0.06015235185623169,1.1408003568649292,-0.30756059288978577,0.18545696139335632,-0.3274137079715729,0.1360045075416565,-0.19820857048034668,-0.5335039496421814,0.27527478337287903,-1.183411955833435,-0.3061944544315338,-0.4572334885597229,-0.40459105372428894,-0.9468879699707031,1.1543153524398804,-0.4494321346282959,-0.24612466990947723,0.4691894054412842,-1.0572459697723389,-0.8221365809440613,0.36554157733917236,-0.6263687014579773,0.902677595615387,0.3432253897190094,0.5335363745689392,0.14119410514831543,1.1408582925796509,-0.41101565957069397,-0.6879982948303223,0.6501524448394775,0.5215646028518677,-0.14762534201145172,0.06272869557142258,0.4259345829486847,-0.6725921034812927,0.6919431686401367,0.021461067721247673,-0.6511299014091492,0.4175640940666199,0.28268906474113464,-0.6794654726982117,1.3246958255767822,-0.3827441930770874,0.36047613620758057,-0.6450546979904175,0.6962181329727173,-0.4295889139175415,-0.13151633739471436,0.4596771001815796,-0.9672732949256897,-0.6106411218643188,-0.0795341283082962]},"inputHidden":{"rows":20,"columns":20,"weights":[-0.09206308424472809,-0.3515089452266693,0.22816507518291473,-0.39088502526283264,0.11582265794277191,0.15828821063041687,-0.4105713665485382,0.1850605458021164,-0.271979957818985,-0.3610134422779083,0.26441606879234314,-0.007530333939939737,-0.14707224071025848,-0.08844511210918427,-0.24805353581905365,-0.3355666995048523,-0.18939144909381866,0.14776717126369476,-0.2752438187599182,0.09670684486627579,-0.37270253896713257,-0.24725238978862762,0.3740741014480591,-0.3047160804271698,0.20554159581661224,0.33204779028892517,-0.029593588784337044,0.38623589277267456,0.384988009929657,-0.11799131333827972,0.3351413607597351,0.29702073335647583,0.14208072423934937,-0.2672126889228821,-0.35805749893188477,-0.2672407031059265,-0.32885971665382385,0.18711256980895996,-0.4124675989151001,-0.10995102673768997,-0.29547038674354553,-0.2972804605960846,0.29906952381134033,-0.3175971210002899,0.2735709249973297,0.2630424201488495,-0.45280909538269043,0.15285928547382355,-0.04692142456769943,-0.2618465721607208,0.2525336444377899,0.2442249059677124,0.06271927058696747,-0.2857211232185364,-0.3811056315898895,-0.13813485205173492,-0.21676313877105713,0.2482384443283081,-0.20652951300144196,-0.0655674859881401,-0.31902286410331726,-0.16311660408973694,0.2748907506465912,-0.164053276181221,-0.09768179059028625,0.30570918321609497,0.0743345245718956,0.2389320284128189,0.42651572823524475,-0.1058814749121666,0.21805807948112488,-0.5268020033836365,-0.5450178980827332,-0.31228262186050415,-0.2290734201669693,0.6895664930343628,-0.26668092608451843,-0.008671673014760017,-0.24118275940418243,0.4740098714828491,-0.18676534295082092,-0.022488800808787346,0.22822041809558868,-0.24280092120170593,0.15785281360149384,0.08594445139169693,-0.40332525968551636,0.06091831997036934,1.1926814317703247,-0.30757632851600647,0.1980922520160675,-0.37227436900138855,-0.38404929637908936,-0.10154110193252563,-0.26206669211387634,0.1736348420381546,-0.10531942546367645,0.20351675152778625,-0.19364595413208008,0.3677245080471039,-0.24297067523002625,-0.34400230646133423,0.18440993130207062,-0.41589251160621643,0.2564529776573181,0.22439132630825043,-0.7112172842025757,0.0538598969578743,0.12426978349685669,-0.46608075499534607,0.16428685188293457,0.14891959726810455,0.036094218492507935,-0.26051583886146545,-0.3569089472293854,-0.48143264651298523,-0.1836770921945572,0.28192487359046936,-0.3017832040786743,0.06307629495859146,-0.05191468074917793,-0.03256484866142273,0.07830873876810074,0.11090750247240067,-0.1968729943037033,-0.050805993378162384,0.046425994485616684,0.08141574263572693,0.8231160640716553,-0.18047206103801727,0.11085140705108643,-0.8398309946060181,-0.8051681518554688,-0.0620727464556694,-0.032954320311546326,0.823477029800415,0.048162758350372314,-0.1463695913553238,-0.028385143727064133,0.8694442510604858,-0.195937842130661,-0.45731088519096375,0.1257181465625763,-0.29433155059814453,0.38009482622146606,0.08413329720497131,-0.7986351251602173,0.21900011599063873,-0.4955578148365021,-0.5218547582626343,0.1814899444580078,-0.24661026895046234,-0.2933811843395233,-0.17584636807441711,-0.16034963726997375,0.03539426624774933,-0.11107899993658066,0.4035972058773041,-0.11794120818376541,0.1765228807926178,0.34991925954818726,0.6777143478393555,-0.4469148814678192,0.6948341727256775,-0.07613272219896317,-0.4029904901981354,0.6742165684700012,-0.21339932084083557,1.1091375350952148,0.7433596849441528,-0.4268132150173187,0.14595679938793182,0.2438894510269165,0.3615371882915497,0.46647512912750244,-0.15615981817245483,0.3381527066230774,-0.2818727493286133,0.397445410490036,-0.25025618076324463,-0.08127551525831223,0.05145105719566345,0.17301036417484283,-0.07113911211490631,0.15431447327136993,0.08139805495738983,-0.3710559606552124,0.12625986337661743,1.442750096321106,-0.3424761891365051,0.16540147364139557,-0.40112507343292236,-0.41684815287590027,-0.1644987314939499,-0.29143282771110535,0.21002766489982605,-0.06210717931389809,0.20786434412002563,-0.2059425562620163,0.41753220558166504,-0.2089051902294159,-0.5370690822601318,0.3311961889266968,-0.462005078792572,0.3766319155693054,0.16681203246116638,-0.8136027455329895,0.12188605219125748,-0.8179781436920166,-0.6325236558914185,0.19466137886047363,-0.0028319722041487694,-0.13061630725860596,-0.24169285595417023,-0.34972646832466125,0.03000780940055847,-0.17373190820217133,0.5141568183898926,-0.3668707013130188,0.08995749801397324,0.11848458647727966,0.3563084602355957,-0.07906845957040787,-0.0197746641933918,-0.26466256380081177,-0.009966431185603142,-0.20423869788646698,-0.16234004497528076,1.0025216341018677,0.4074578285217285,-0.06066842004656792,0.06789696216583252,0.051797591149806976,0.11544573307037354,-0.21410459280014038,0.10919617116451263,0.1149858608841896,-0.2060910016298294,-0.05252976715564728,-0.01983892358839512,-0.0261135995388031,0.245205819606781,0.0958516001701355,-0.049061983823776245,-0.3703320026397705,0.03978500887751579,0.37357190251350403,0.03332676738500595,1.076255202293396,0.3203543424606323,-0.022291507571935654,0.18830178678035736,0.12614156305789948,-0.14152631163597107,-0.13738371431827545,0.00013497490726877004,-0.11874453723430634,-0.3650662302970886,-0.05792546644806862,-0.1523737609386444,-0.20030440390110016,-0.27480819821357727,0.15441639721393585,-0.3486904203891754,0.20401501655578613,0.22241152822971344,-0.42481207847595215,0.11629067361354828,-0.2276517152786255,-0.3746210038661957,0.22353191673755646,-0.04701961576938629,-0.03451547771692276,-0.08199302852153778,-0.24348480999469757,-0.3373410701751709,-0.19222863018512726,0.10980575531721115,-0.2097627818584442,0.05447063967585564,-0.2260078340768814,-0.1435239464044571,0.25386157631874084,-0.32041385769844055,-0.034497540444135666,0.34192681312561035,-0.08152859658002853,0.24690701067447662,0.848733127117157,-0.16114799678325653,0.2791167199611664,-0.7217051982879639,-0.6495732069015503,-0.2527124285697937,-0.45636528730392456,0.862888514995575,-0.34704822301864624,0.04639187082648277,-0.3504631519317627,0.6851577758789062,0.05467193201184273,0.7596884965896606,0.023907171562314034,-0.5501766204833984,0.1933434009552002,0.07147999852895737,-0.11850573867559433,-0.1458922028541565,1.966072678565979,-0.25551456212997437,0.025466563180088997,0.12558265030384064,-0.1188611090183258,0.024786176159977913,-0.7902901768684387,0.26751914620399475,-0.1250368058681488,0.23623619973659515,-0.04202044755220413,0.014313158579170704,-0.14158017933368683,-0.1939835548400879,0.21910825371742249,-0.4048105478286743,0.20036903023719788,0.13022102415561676,-0.5634445548057556,0.06672724336385727,0.13524764776229858,-0.26699209213256836,0.2042311578989029,0.11134456843137741,-0.06534669548273087,-0.07747992128133774,-0.382330060005188,-0.4878857433795929,-0.22217564284801483,0.19562548398971558,-0.3288974165916443,-0.05333106964826584,-0.10265304148197174,-0.0820363461971283,0.10492008179426193,-0.12067382037639618,0.11859872937202454,0.04714164137840271,-0.4012850522994995,-0.04270545393228531,1.062529444694519,-0.3676134943962097,0.1442514955997467,-0.44838929176330566,-0.5228058099746704,0.017090003937482834,-0.09248848259449005,0.31386175751686096,-0.009409148246049881,0.24333371222019196,-0.14856263995170593,0.4359935224056244,-0.2571474015712738,-0.5565916895866394,0.29793134331703186,-0.4473472237586975,0.5128605961799622,0.23765236139297485,-0.6465745568275452,0.2831810712814331,-0.7461510300636292,-0.4909200370311737,0.3235710859298706,0.061816923320293427,-0.08496382087469101,-0.28507664799690247,-0.3099899888038635,0.0892934650182724,-0.33846405148506165,0.4035973846912384,-0.26422959566116333,0.07120472937822342,0.22671717405319214,0.554020345211029,-0.04652136191725731,-0.31150656938552856,-0.02872593142092228,-0.009498643688857555,-0.297665536403656,-0.18387563526630402,1.2329031229019165,-0.018625566735863686,-0.06461469829082489,0.15603980422019958,-0.02320006676018238,0.19542527198791504,-0.673173725605011,-0.16084568202495575,0.12784941494464874,-0.015099153853952885,-0.02884811721742153,0.003910115920007229]},"inputBias":{"rows":20,"columns":1,"weights":[-0.12727315723896027,0.3128263056278229,-0.17941993474960327,0.3495429754257202,0.4359357953071594,-0.11035505682229996,1.0480313301086426,-0.26890623569488525,1.0949276685714722,0.23707059025764465,-0.14415735006332397,0.7821252346038818,0.9177567958831787,-0.11759459972381592,0.3099575638771057,0.9070141315460205,-0.20222064852714539,0.3272895812988281,-0.11306813359260559,0.7949159145355225]},"forgetMatrix":{"rows":20,"columns":20,"weights":[-0.20279152691364288,-0.12408609688282013,0.16144920885562897,-0.18749405443668365,-0.06586278975009918,0.1381184160709381,-0.2678692042827606,-0.1801990568637848,0.3011353611946106,-0.060222428292036057,0.210998073220253,0.15747451782226562,0.3025590479373932,0.26717087626457214,0.29133549332618713,-0.06170976534485817,-0.2183443307876587,0.15468065440654755,0.16357384622097015,0.012730032205581665,-0.21566326916217804,-0.09662248939275742,0.17356881499290466,-0.21261285245418549,0.06439803540706635,0.15571708977222443,-0.22649899125099182,-0.07373380661010742,0.21630199253559113,-0.1092807799577713,-0.007670411374419928,0.1856747716665268,0.26524847745895386,0.2736745774745941,0.16748212277889252,0.17813800275325775,-0.22815769910812378,0.19804856181144714,0.2863715887069702,0.09904413670301437,-0.13142459094524384,-0.05633358657360077,0.11581232398748398,-0.05451899394392967,0.06027497723698616,0.20451228320598602,-0.06325309723615646,-0.07358741015195847,0.19493861496448517,-0.12182895839214325,0.013642988167703152,0.2905840277671814,0.13454385101795197,0.1855655312538147,0.1292581558227539,0.011545388028025627,-0.20790478587150574,0.025021562352776527,0.2350328266620636,0.1836431324481964,0.3032079041004181,0.33883142471313477,-0.3211492896080017,0.27268466353416443,0.4099787175655365,-0.2851506471633911,0.24254775047302246,0.3501693606376648,-0.18379493057727814,-0.14051811397075653,-0.41346773505210876,-0.028637534007430077,-0.21369236707687378,-0.24794554710388184,-0.2959563434123993,0.5396209955215454,0.3258821964263916,-0.1477554738521576,-0.13641183078289032,0.2668287456035614,-0.46736541390419006,-0.3719361424446106,0.5311434268951416,-0.3373461663722992,0.0016652290942147374,0.5035082697868347,-0.5239399671554565,-0.10981650650501251,0.48440223932266235,-0.427592933177948,0.15557686984539032,0.33666589856147766,0.4339909851551056,0.4200735092163086,0.5746079683303833,0.148993119597435,-0.531511127948761,0.6157149076461792,0.4800473749637604,0.3303649127483368,-0.2065543383359909,0.0263249259442091,0.06960052251815796,-0.11286231875419617,-0.0372798889875412,0.0721796527504921,-0.08757272362709045,-0.02871798910200596,0.11016087234020233,-0.09358062595129013,0.062458883970975876,0.16147851943969727,0.1340818554162979,0.20414131879806519,0.09473076462745667,-0.016092464327812195,-0.1801074892282486,0.02698470838367939,0.1252310425043106,0.04640449956059456,-0.5553961992263794,-0.051080863922834396,0.21446624398231506,-0.4821915924549103,0.4049285352230072,0.4152175486087799,-0.11114276200532913,0.35975557565689087,0.5278411507606506,-0.2875936031341553,-0.14522749185562134,0.42464905977249146,0.4062801003456116,0.3326302766799927,0.3011503517627716,0.36172449588775635,-0.3557889759540558,0.5286186933517456,0.5623689889907837,0.5219699740409851,-0.21788384020328522,-0.2968911826610565,0.258576363325119,-0.1982269436120987,-0.20426662266254425,0.27070125937461853,-0.3939174711704254,-0.37657907605171204,0.32022184133529663,0.0012954131234437227,0.30038249492645264,0.18933621048927307,0.33343377709388733,0.2637850344181061,0.36031535267829895,-0.13130396604537964,-0.3687814772129059,0.19462668895721436,0.3645109534263611,-0.08261945098638535,0.13608402013778687,-0.45520731806755066,0.2571350038051605,-0.08618839085102081,-0.1516968309879303,0.24756087362766266,-0.2789169251918793,-0.7869251370429993,0.28868019580841064,-0.19165699183940887,0.45116370916366577,-0.40291622281074524,0.2544783353805542,-0.5731561779975891,0.19377991557121277,-0.13698872923851013,-0.24607208371162415,0.06613180041313171,0.1254098117351532,-0.44539570808410645,-0.32851365208625793,-0.2641039490699768,0.5160539150238037,-0.41483601927757263,0.014855933375656605,0.4597925543785095,-0.40775445103645325,-0.01663358323276043,0.37542709708213806,-0.47997769713401794,0.10614107549190521,0.23393739759922028,0.43001312017440796,0.2085779458284378,0.5423896908760071,0.1815606951713562,-0.49722161889076233,0.4907585680484772,0.39491942524909973,0.3581189513206482,0.026405278593301773,0.32839030027389526,-0.19506390392780304,0.17262950539588928,0.16924476623535156,-0.15228141844272614,0.15034395456314087,0.160770446062088,-0.025768179446458817,-0.14313670992851257,-0.22575244307518005,0.09034498035907745,0.005861862096935511,0.0015123772900551558,-0.12009609490633011,0.17837420105934143,0.07117877900600433,-0.045689988881349564,-0.016124384477734566,0.12178178876638412,-0.13310076296329498,0.14932534098625183,0.08319875597953796,-0.026874709874391556,0.5977820754051208,0.22678765654563904,-0.04874425381422043,0.5587538480758667,0.21378816664218903,-0.28468412160873413,-0.16135331988334656,0.30737876892089844,0.3272477686405182,0.27802392840385437,0.10547331720590591,0.9894155263900757,-0.2231437712907791,0.1509057879447937,0.2494524121284485,0.9895694851875305,0.3005596697330475,0.4136529564857483,-0.6137215495109558,0.2744208872318268,0.11812930554151535,-0.3840797245502472,0.5766779184341431,0.1318691372871399,-0.20906156301498413,0.5104812979698181,-0.3289701044559479,-0.08721167594194412,-0.45076313614845276,-0.3849286139011383,-0.7422592639923096,0.12651972472667694,0.46516677737236023,-0.40158289670944214,-0.4013131558895111,0.06958242505788803,-0.25305983424186707,-0.15541495382785797,0.22695177793502808,-0.13778668642044067,-0.10329452157020569,0.22729679942131042,-0.1310124695301056,-0.22450141608715057,0.15508471429347992,-0.09168928116559982,0.062266454100608826,0.16985103487968445,0.25943294167518616,0.17520426213741302,0.15105676651000977,-0.15009185671806335,-0.14049282670021057,0.13290977478027344,0.19952207803726196,-0.07431969791650772,0.5792091488838196,0.4077008366584778,-0.6906096935272217,0.6212751269340515,0.640140950679779,-0.6877208352088928,0.5130899548530579,0.40899375081062317,-0.5599137544631958,-0.03142957016825676,-0.38079309463500977,-0.07854609191417694,-0.6213448643684387,-0.2621247172355652,-0.6826632022857666,0.6748654842376709,0.5887269973754883,-0.48381108045578003,-0.5717464685440063,0.5336229205131531,0.5862475037574768,0.38477879762649536,-0.09758303314447403,0.12032585591077805,0.6488661170005798,-0.22133250534534454,0.10970540344715118,1.0251942873001099,-0.38552263379096985,-0.37874531745910645,-0.3448193073272705,-0.19765228033065796,-0.2707522213459015,-0.3676060438156128,-0.3721974194049835,0.8928422927856445,0.4910297393798828,0.0467713437974453,-0.3910028040409088,0.8726975321769714,-0.22793598473072052,-0.1415703296661377,0.04425042122602463,-0.13904830813407898,-0.012060074135661125,0.1272081881761551,-0.05021677166223526,-0.11954963207244873,0.19944140315055847,0.027276242151856422,0.05166091397404671,0.13129226863384247,0.16308921575546265,0.08345145732164383,0.07207279652357101,0.07759638875722885,-0.18893523514270782,0.030053727328777313,0.13111183047294617,0.08137919008731842,-0.3799237608909607,-0.011730032972991467,0.32026395201683044,-0.3484143018722534,0.09465181827545166,0.5000971555709839,-0.3240710198879242,0.20459359884262085,0.42967212200164795,-0.4302748739719391,-0.05640307441353798,0.2813313901424408,0.5215194821357727,0.32205110788345337,0.33415791392326355,0.31114357709884644,-0.43004754185676575,0.41312175989151,0.48974794149398804,0.4811473786830902,0.1568370908498764,0.2360626459121704,-0.21317055821418762,0.19723184406757355,0.18018479645252228,-0.18325892090797424,0.12250792980194092,0.2197270691394806,0.014579751528799534,-0.05910385027527809,-0.3125002682209015,0.14177371561527252,-0.13240814208984375,-0.05312523618340492,-0.15904439985752106,0.27250078320503235,0.1496889889240265,-0.07046247273683548,-0.1169179305434227,0.14899104833602905,0.2261636108160019,0.3409983217716217,-0.4463757574558258,0.2358091026544571,0.2775598466396332,-0.25724896788597107,0.5216664671897888,0.2294483780860901,-0.08342000842094421,0.39042365550994873,-0.3974330425262451,-0.0553726851940155,-0.19868937134742737,-0.4112111032009125,-0.49783846735954285,0.3310857117176056,0.25097939372062683,-0.30084043741226196,-0.13861046731472015,0.1992579847574234]},"forgetHidden":{"rows":20,"columns":20,"weights":[-0.3174285590648651,-0.3111875355243683,0.22031757235527039,-0.3054106533527374,0.292390376329422,0.23303034901618958,-0.31166914105415344,0.26013022661209106,0.2973579168319702,-0.33805176615715027,0.2195557951927185,-0.06420059502124786,0.05176585912704468,-0.2811404764652252,-0.28998395800590515,-0.17833754420280457,-0.3074222803115845,0.1870841532945633,-0.21268653869628906,-0.0481119379401207,-0.2470584660768509,-0.2772437036037445,0.3361276388168335,-0.34917280077934265,0.26225534081459045,0.299866259098053,-0.22608233988285065,0.3438485860824585,0.05572277307510376,-0.20124201476573944,0.37860098481178284,0.3619003891944885,0.3752155900001526,-0.2767704427242279,-0.2763451933860779,-0.3175544738769531,-0.3716523051261902,0.22334228456020355,-0.2907947301864624,-0.3180482089519501,-0.2837715148925781,-0.34196680784225464,0.24586616456508636,-0.22336122393608093,0.22531847655773163,0.30976662039756775,-0.1563032567501068,0.28818821907043457,0.1703926920890808,-0.2086380273103714,0.3684568703174591,0.21115395426750183,0.2239445596933365,-0.22050759196281433,-0.3515360951423645,-0.20884697139263153,-0.26694798469543457,0.2894884943962097,-0.2673630118370056,-0.3396511375904083,-0.18166027963161469,-0.4663448631763458,0.20466375350952148,-0.026041517034173012,0.36380094289779663,0.26320716738700867,-0.11513431370258331,0.236750990152359,-0.33054593205451965,-0.3969113826751709,0.21805155277252197,0.25691816210746765,0.8184450268745422,-0.21616673469543457,0.21799983084201813,0.12760044634342194,-0.1385384202003479,0.2882154881954193,-0.1398564577102661,-0.8210555911064148,-0.3058227300643921,-0.44420382380485535,0.395042359828949,-0.44842809438705444,0.24337126314640045,0.4010542631149292,-0.3378913998603821,0.3729179799556732,-0.49340394139289856,-0.21097806096076965,0.29445645213127136,0.60121089220047,0.5231192708015442,-0.2833746075630188,-0.3365672826766968,-0.5904962420463562,-0.43035539984703064,0.33711349964141846,-0.3072298765182495,-0.4871158003807068,-0.24651528894901276,-0.3004027307033539,0.21476450562477112,-0.27777495980262756,0.20701229572296143,0.309731125831604,-0.13890643417835236,0.2579028010368347,0.22545866668224335,-0.3215312957763672,0.3097632825374603,0.11310059577226639,0.2669484317302704,-0.23925182223320007,-0.2404225468635559,-0.2320176064968109,-0.2438250035047531,0.21256275475025177,-0.2666630148887634,-0.2036682814359665,-0.42864492535591125,-0.3137388229370117,0.5788252353668213,-0.11051607877016068,0.5130189657211304,0.6072039604187012,-0.481599360704422,0.26110851764678955,0.5122388005256653,-0.11972260475158691,0.5913053750991821,0.3212374448776245,0.6319810748100281,-0.4090801179409027,-0.7169356346130371,-1.1848723888397217,-0.4522447884082794,0.4890870451927185,-0.6323805451393127,-0.3272998034954071,-0.3090205490589142,-0.24053162336349487,0.2137383371591568,-0.2748146951198578,0.1915694922208786,0.25033122301101685,-0.21607165038585663,0.3422769606113434,0.32989680767059326,-0.20578990876674652,0.3319461941719055,-0.19525521993637085,-0.13163037598133087,-0.26294299960136414,-0.17854896187782288,-0.06588093936443329,-0.24065707623958588,0.2815229892730713,-0.308858186006546,-0.02790556102991104,0.025893718004226685,0.5616381764411926,-0.18613651394844055,0.8517712354660034,-1.0799719095230103,-0.09223118424415588,0.9724054932594299,0.11751581728458405,-0.5955496430397034,0.8152635097503662,-0.2561546266078949,-1.0057650804519653,-0.7578312754631042,0.01449755672365427,0.8711841106414795,1.4535273313522339,0.09810050576925278,-1.033836841583252,0.2500930428504944,0.8245843052864075,-0.3775898814201355,-0.42389726638793945,0.29962360858917236,-0.45968443155288696,0.3862732946872711,0.35970258712768555,-0.33450525999069214,0.2740287184715271,-0.24943572282791138,-0.2169506698846817,0.3582501709461212,0.5113436579704285,0.42424875497817993,-0.2704174518585205,-0.49992620944976807,-0.6063660383224487,-0.4257446527481079,0.41227272152900696,-0.4478548467159271,-0.2998689115047455,-0.31179091334342957,-0.31450748443603516,0.2754839360713959,-0.23463469743728638,0.21445375680923462,0.30672791600227356,-0.013908116146922112,0.4338335394859314,-0.23215697705745697,-0.14228884875774384,0.27578234672546387,0.19052711129188538,0.4627781808376312,-0.22893811762332916,0.004980272147804499,-0.30348867177963257,-0.2994590699672699,0.2241121530532837,-0.2075272798538208,-0.48899611830711365,-0.28073492646217346,-0.5669040679931641,0.2579384744167328,-0.28723788261413574,0.22011247277259827,0.21262454986572266,0.01359054259955883,0.21491554379463196,-0.7444679141044617,0.011097310110926628,0.2894250750541687,0.6041735410690308,0.5705878138542175,-0.20027118921279907,-0.25509408116340637,-0.845100998878479,-0.29237014055252075,0.10207083076238632,-0.15860767662525177,-0.5289796590805054,-0.45540618896484375,0.49460461735725403,0.27240240573883057,0.3963668942451477,-0.8344340324401855,0.26829057931900024,0.7940355539321899,0.4527973532676697,1.1133677959442139,0.7358525395393372,0.10166885703802109,0.16924934089183807,0.17716972529888153,-0.32212620973587036,0.05722148343920708,0.173019677400589,-0.3125241994857788,-0.6526436805725098,-0.05920888110995293,-0.22013404965400696,-0.2584507465362549,-0.24097877740859985,0.2484833300113678,-0.24461831152439117,0.26673808693885803,0.308601975440979,-0.16138991713523865,0.29863062500953674,0.19416023790836334,-0.3246533274650574,0.26386502385139465,0.06527619808912277,0.045614518225193024,-0.23661726713180542,-0.27396053075790405,-0.27502986788749695,-0.3146531283855438,0.25394585728645325,-0.24982291460037231,-0.16779771447181702,-0.19975613057613373,-0.32298439741134644,0.06320004910230637,0.20388545095920563,0.13386675715446472,0.20452788472175598,0.2038818895816803,0.5931577086448669,-0.7124335169792175,-0.21168087422847748,0.10119819641113281,0.3018990755081177,0.6865353584289551,-0.23685456812381744,0.3790360987186432,-0.18617743253707886,-0.16057974100112915,0.20892615616321564,0.017533360049128532,-0.7353354692459106,-0.07178568840026855,-0.6939284205436707,0.06537768989801407,0.20552945137023926,0.7740994691848755,0.11551100760698318,-0.43718549609184265,0.1728506088256836,-0.6249563694000244,-0.4380068778991699,-0.03186072036623955,0.7172072529792786,0.934009850025177,-0.0588613823056221,0.668799877166748,-0.8006031513214111,-0.05681878328323364,0.6993495225906372,0.0632927194237709,-0.9678565859794617,-0.23458366096019745,-0.309352308511734,0.21790388226509094,-0.27194589376449585,0.23490741848945618,0.304463654756546,-0.1451915055513382,0.20325326919555664,0.19959469139575958,-0.19816550612449646,0.29173681139945984,0.08308712393045425,0.13546918332576752,-0.2623688280582428,-0.21300238370895386,-0.26494401693344116,-0.1860656887292862,0.2837265729904175,-0.19495496153831482,-0.21096673607826233,-0.40132614970207214,-0.4056307375431061,0.3420669734477997,-0.41355669498443604,0.4218595325946808,0.3674294352531433,-0.4134884178638458,0.39297130703926086,-0.0674327164888382,-0.3459571599960327,0.4633285105228424,0.615462601184845,0.6162306070327759,-0.3590546250343323,-0.4948638677597046,-0.7995341420173645,-0.3207527995109558,0.34750112891197205,-0.33084869384765625,-0.42850497364997864,-0.29804298281669617,-0.30192530155181885,0.31394365429878235,-0.16546371579170227,0.2280482053756714,0.24891650676727295,0.07086014747619629,0.4969075918197632,-0.08221317082643509,-0.19544638693332672,0.17763741314411163,0.22346490621566772,0.31457167863845825,-0.3124449551105499,0.05687402933835983,-0.17732839286327362,-0.2902134358882904,0.11794254183769226,-0.1337147206068039,-0.3091917037963867,-0.4105311334133148,0.656393826007843,0.21310582756996155,0.35150203108787537,-0.9550254940986633,0.266452431678772,1.0662851333618164,0.5099284648895264,1.112898588180542,1.1109870672225952,0.27848291397094727,0.07563810050487518,0.16209176182746887,-0.4269423186779022,0.23133151233196259,0.06943532824516296,-0.28616929054260254,-1.012403964996338,-0.28128138184547424,-0.26888343691825867]},"forgetBias":{"rows":20,"columns":1,"weights":[0,0,0,0,0,0,0,0,0,0,0,0,0,0,0,0,0,0,0,0]},"outputMatrix":{"rows":20,"columns":20,"weights":[-0.50725257396698,-0.8909383416175842,1.3213587999343872,-0.41478675603866577,-0.3062707185745239,0.6655145883560181,-1.3740583658218384,-0.6438875794410706,0.501352846622467,-0.5550037026405334,0.793590784072876,0.1764233112335205,0.5968647003173828,0.3102002739906311,1.2338602542877197,-0.38284197449684143,-0.6963765025138855,0.569610595703125,0.4414426386356354,-0.13047027587890625,-0.3763955235481262,0.6514930725097656,-0.23693974316120148,0.725598156452179,0.34053125977516174,-0.23040178418159485,-0.12740688025951385,0.5944166779518127,0.2836257517337799,1.2306126356124878,-0.8924942016601562,0.341961532831192,0.23713651299476624,0.340523362159729,0.31515440344810486,0.17807623744010925,-0.3754862844944,-0.8844903111457825,0.3783127963542938,0.3234279751777649,-0.4754590094089508,-1.276234745979309,1.2558106184005737,-0.5323397517204285,-0.25476595759391785,0.6371065974235535,-0.9297954440116882,-1.0485444068908691,0.3623010814189911,-0.28264084458351135,1.068782091140747,0.23610234260559082,0.491955429315567,0.309670090675354,1.0452122688293457,-0.3943457305431366,-0.5902493596076965,0.4831028878688812,0.4702993631362915,-0.01933392509818077,-0.0710320994257927,-0.1697143167257309,-0.27282771468162537,0.9888966679573059,-0.703674852848053,-0.34468701481819153,-0.5414648056030273,-0.546761155128479,0.11318559944629669,1.2365391254425049,0.04611721634864807,0.29251933097839355,-0.014612074941396713,0.35158565640449524,0.3715997338294983,-0.9279949069023132,-0.13258294761180878,-1.0142697095870972,0.11255351454019547,-0.6201114654541016,-0.11130569875240326,0.1386343091726303,-0.7898128628730774,1.2640995979309082,-0.2400442510843277,-0.6595613360404968,0.3263859152793884,-0.1954701840877533,-0.11219480633735657,1.4105806350708008,-0.3658559024333954,0.3592575788497925,-0.20073756575584412,0.25314098596572876,-0.15705087780952454,-0.5244560837745667,0.13412371277809143,-1.3934495449066162,-0.12671971321105957,-0.34697824716567993,-0.4193149209022522,-1.179611325263977,1.328545093536377,-0.5363579988479614,-0.46232953667640686,0.6208446025848389,-1.3157768249511719,-0.9817718267440796,0.40602385997772217,-0.25524502992630005,1.0794503688812256,0.27420762181282043,0.5537261366844177,0.44959717988967896,1.0672194957733154,-0.4193163514137268,-0.7369022965431213,0.8625797033309937,0.5550597906112671,-0.06778571754693985,0.03235239163041115,-0.19744282960891724,-0.2004472315311432,1.0177668333053589,-0.7014585733413696,-0.33650127053260803,-0.37371426820755005,-0.23846569657325745,0.42516833543777466,1.5678108930587769,0.05642466992139816,0.02945544570684433,0.08453554660081863,-0.0795321986079216,0.25225141644477844,-0.786563515663147,-0.2718239724636078,-0.9453030228614807,0.14812803268432617,-0.7672192454338074,-0.4205070436000824,-1.222490906715393,0.8834415078163147,-0.5200990438461304,-0.4746726155281067,0.6055896282196045,-1.1169987916946411,-0.7641989588737488,0.5119523406028748,-0.843828558921814,0.929019570350647,0.15109524130821228,0.5261923670768738,0.2677514851093292,0.6153651475906372,-0.5966031551361084,-0.5267519950866699,0.7916745543479919,0.5119776129722595,-0.28827106952667236,0.7474274635314941,-0.11876369267702103,-0.5498078465461731,1.0912684202194214,-0.02993188612163067,-0.6367878913879395,0.14315176010131836,-0.4237971007823944,-0.3162645399570465,1.0923336744308472,0.14912113547325134,-0.5769444704055786,-0.5356294512748718,-0.7985000014305115,-0.46826475858688354,-0.19264435768127441,0.4604119062423706,-1.0497963428497314,-0.5916362404823303,-0.3815380930900574,-0.015608713962137699,0.20373320579528809,-0.6582048535346985,1.1979198455810547,-0.21625809371471405,-0.497389018535614,0.3446143567562103,-0.1866939663887024,0.0526350699365139,1.4510501623153687,-0.38737228512763977,0.15707212686538696,-0.1535310596227646,0.09504807740449905,-0.02235308848321438,-0.3392072319984436,-0.04445728659629822,-1.3397371768951416,-0.07012229412794113,-0.3399333357810974,-0.44534730911254883,-1.1291996240615845,1.2110438346862793,-0.483210951089859,-0.46629688143730164,0.5243719816207886,-1.3152741193771362,-1.029335379600525,0.4371909201145172,-0.5510805249214172,1.1017405986785889,0.290120393037796,0.5209670066833496,0.6406068801879883,0.8725135326385498,-0.43693962693214417,-0.5267429351806641,0.717589259147644,0.4789756238460541,-0.2655785381793976,0.6780371069908142,0.5558813214302063,-0.7620038986206055,0.7341660261154175,0.15753959119319916,-0.9026204347610474,0.6908130049705505,0.30232417583465576,-0.9366890788078308,1.1072717905044556,-0.49140438437461853,0.06246801093220711,-0.8557897806167603,-0.13919760286808014,-0.8751086592674255,-0.11600521206855774,0.8694710731506348,-0.8746429085731506,-0.8797826170921326,-0.14335647225379944,0.9778449535369873,0.6148465275764465,-0.8051689863204956,0.7855903506278992,0.28343063592910767,-0.9116145372390747,0.8924781084060669,0.5625632405281067,-1.055932879447937,0.9741721153259277,-0.587218165397644,0.050376567989587784,-0.9092164039611816,-0.2658635079860687,-0.9813966155052185,0.06642275303602219,0.9886246919631958,-0.973471999168396,-0.8823439478874207,0.15018440783023834,-0.360803484916687,-0.8201189041137695,1.2920807600021362,-0.46561041474342346,-0.29068872332572937,0.72495037317276,-1.2985140085220337,-0.6989439129829407,0.3563001751899719,-0.5775063037872314,0.7814027667045593,0.19785426557064056,0.541783332824707,0.3914968967437744,1.23151695728302,-0.3810628652572632,-0.697903573513031,0.6349740624427795,0.5079469680786133,-0.008202681317925453,0.04447721317410469,-0.6894212365150452,-0.04147334396839142,0.6622194647789001,-0.6123664379119873,-0.19144919514656067,-0.6089859008789062,-1.018633484840393,0.04702465608716011,1.0741020441055298,0.519292414188385,0.25518983602523804,-0.12238140404224396,0.31738510727882385,0.12837277352809906,-0.9348759055137634,0.006117220502346754,-0.6289282441139221,-0.0306877251714468,-0.7009539604187012,0.2056976854801178,0.4177057445049286,-0.921497106552124,0.9038949608802795,-0.019584521651268005,-0.9298103451728821,0.9007442593574524,0.24519743025302887,-0.6509469747543335,1.683138370513916,-0.43166521191596985,0.2557583153247833,-0.7810842990875244,0.12418197840452194,-0.6495574712753296,-0.4368172287940979,0.6315324306488037,-1.4507315158843994,-0.683191180229187,-0.25325503945350647,-0.48510733246803284,-0.9616206884384155,1.2219980955123901,-0.44072070717811584,-0.38171935081481934,0.7393662929534912,-1.122210144996643,-0.8173002600669861,0.469229519367218,-0.1682610660791397,0.8609073162078857,0.23560908436775208,0.4867957532405853,0.46703004837036133,1.0845006704330444,-0.44738122820854187,-0.7398084402084351,0.7131761312484741,0.4666564166545868,-0.08450894057750702,-0.09608640521764755,0.05867510661482811,-0.6708336472511292,1.0849217176437378,-0.3054180145263672,-0.5624806880950928,0.1190713569521904,-0.2346150130033493,0.03994739428162575,1.2388898134231567,-0.22566206753253937,0.3239699900150299,-0.24786311388015747,0.28849995136260986,-0.10977673530578613,-0.5114827156066895,0.12295400351285934,-1.3715718984603882,-0.17417502403259277,-0.3995509743690491,-0.4353847801685333,-1.021607518196106,1.3516498804092407,-0.5916707515716553,-0.3172644376754761,0.4737069308757782,-1.2219966650009155,-0.8292211294174194,0.5190855264663696,-0.45383039116859436,1.002328634262085,0.2475183755159378,0.5505961775779724,0.37876835465431213,1.0484092235565186,-0.3681468665599823,-0.5834049582481384,0.7301846742630005,0.5080881714820862,-0.20503854751586914,0.15032878518104553,0.4099421203136444,-0.6440531015396118,0.7674084305763245,0.1084442064166069,-0.7097135186195374,0.7246099710464478,0.2479020208120346,-0.8686317205429077,1.3914525508880615,-0.32962244749069214,0.1725146621465683,-0.6847734451293945,0.41020357608795166,-0.6249634623527527,-0.10746152698993683,0.6083337068557739,-1.0076273679733276,-0.6126667261123657,-0.039710115641355515]},"outputHidden":{"rows":20,"columns":20,"weights":[-0.18915894627571106,-0.24741142988204956,0.10760214924812317,-0.32034042477607727,0.05868258327245712,0.18800120055675507,-0.4235478639602661,0.19147811830043793,-0.03478977829217911,-0.24570895731449127,0.19550380110740662,0.02246900461614132,-0.05876121670007706,-0.1052270233631134,-0.21957802772521973,-0.35028529167175293,-0.1826341450214386,0.1285603791475296,-0.23419423401355743,0.05786680430173874,-0.34328994154930115,-0.25685054063796997,0.3036787807941437,-0.3846096694469452,0.20870736241340637,0.24381738901138306,-0.09821511059999466,0.33732348680496216,0.32564777135849,-0.21517089009284973,0.30858269333839417,0.3489406108856201,0.21940791606903076,-0.3793807625770569,-0.3476662337779999,-0.36470940709114075,-0.3030717372894287,0.24526603519916534,-0.32904452085494995,-0.207741379737854,-0.1680145263671875,-0.3056468665599823,0.17644181847572327,-0.2436799556016922,0.22306235134601593,0.25688859820365906,-0.4083472788333893,0.1303548663854599,0.07454165071249008,-0.2620060443878174,0.22887082397937775,0.23407982289791107,-0.010422681458294392,-0.17661705613136292,-0.2938810884952545,-0.18228910863399506,-0.2857448160648346,0.24684634804725647,-0.19225434958934784,-0.09318743646144867,-0.18529267609119415,-0.24368597567081451,0.29344505071640015,-0.12125222384929657,0.06108478456735611,0.2759259343147278,0.017922796308994293,0.28597041964530945,0.3541986346244812,-0.26442649960517883,0.18765011429786682,-0.5703259706497192,-0.6500366926193237,-0.26375168561935425,-0.09263521432876587,0.6769644618034363,-0.3011486232280731,0.12269511073827744,-0.2934918701648712,0.5060247182846069,-0.1190287172794342,-0.05334155261516571,0.22252067923545837,-0.19718605279922485,0.18358919024467468,0.04106326028704643,-0.32104814052581787,0.1417587250471115,1.2610560655593872,-0.3166521489620209,0.16232523322105408,-0.2772694528102875,-0.4986744225025177,-0.09860143810510635,-0.17402885854244232,0.1623774915933609,-0.14424346387386322,0.3117971122264862,-0.22670933604240417,0.4002588391304016,-0.13752096891403198,-0.2805882394313812,0.16132116317749023,-0.26720571517944336,0.19415543973445892,0.09865313768386841,-0.5270998477935791,0.07508298009634018,0.35070255398750305,-0.30567634105682373,0.13380496203899384,0.09382999688386917,-0.05322647467255592,-0.20846424996852875,-0.3944264054298401,-0.341179758310318,-0.2106054574251175,0.25269100069999695,-0.3164696991443634,-0.05017070844769478,-0.07808608561754227,0.043897226452827454,0.04579063504934311,0.4015752673149109,0.01952379383146763,0.12255881726741791,-0.39207303524017334,0.1534806489944458,0.6873641014099121,-0.25454118847846985,0.11542347818613052,-0.9574008584022522,-0.9010430574417114,-0.12512923777103424,0.03528018295764923,0.8214062452316284,-0.1006927415728569,0.12884411215782166,-0.07324503362178802,0.799597978591919,-0.18642283976078033,-0.2536967396736145,0.16607074439525604,-0.15156947076320648,0.2605016827583313,0.1466553807258606,-0.49534696340560913,0.08143105357885361,-0.12156198918819427,-0.3794836699962616,0.09572009742259979,-0.29222941398620605,-0.33064207434654236,-0.11280684173107147,-0.1570194512605667,0.19018825888633728,-0.13907082378864288,0.20774619281291962,-0.18855297565460205,0.27138644456863403,0.3508436977863312,0.6793806552886963,-0.5658718943595886,0.9451718330383301,-0.8163503408432007,-0.4994966387748718,0.8583142161369324,-0.18869483470916748,-0.18911154568195343,0.5390638709068298,-0.5804103016853333,-0.7166565656661987,-0.5212580561637878,0.28313639760017395,0.9640234112739563,0.9766057133674622,0.49657073616981506,-0.6999194025993347,0.5252450108528137,0.43460991978645325,-0.017302783206105232,-0.08281206339597702,0.1322488635778427,-0.08054633438587189,0.15738233923912048,0.17839713394641876,-0.3120039701461792,0.008867512457072735,1.5541692972183228,-0.3711877763271332,0.08587397634983063,-0.30667799711227417,-0.46051374077796936,-0.12194396555423737,-0.2661544382572174,0.13904215395450592,-0.1364661455154419,0.2959200441837311,-0.1519509255886078,0.4008251130580902,-0.18258170783519745,-0.35418975353240967,0.23697800934314728,-0.4104228913784027,0.33522137999534607,0.15512311458587646,-0.7746805548667908,0.15212436020374298,-0.6908574104309082,-0.48416611552238464,0.2580203711986542,-0.037695519626140594,-0.09056264162063599,-0.1767556369304657,-0.4138195514678955,-0.0437510684132576,-0.21668559312820435,0.3352670967578888,-0.285742849111557,0.04607698321342468,0.05043979734182358,0.41987159848213196,0.006592524237930775,-0.031868964433670044,-0.21060651540756226,-0.01612311787903309,-0.23552276194095612,-0.14819568395614624,1.425775170326233,0.48148980736732483,-0.0530698336660862,0.006681038532406092,-0.021315352991223335,0.04296819493174553,-0.08865146338939667,0.05304891616106033,0.045207392424345016,-0.33788904547691345,-0.0414256677031517,-0.045536432415246964,-0.05405554175376892,0.4368671178817749,0.02157576009631157,0.22895799577236176,-0.6231095194816589,-0.011373431421816349,0.7427424192428589,0.16032841801643372,1.6712191104888916,0.6293070912361145,0.009763116016983986,0.13183483481407166,0.07272802293300629,0.00829321052879095,0.08450891077518463,0.018802519887685776,0.031591471284627914,-0.4572063386440277,-0.057371482253074646,-0.12653812766075134,-0.07395792752504349,-0.24689370393753052,0.16687916219234467,-0.33255282044410706,0.1757863610982895,0.126761794090271,-0.3086453378200531,0.08979494869709015,-0.09738504886627197,-0.2684372663497925,0.22154751420021057,-0.005195754114538431,-0.07671927660703659,-0.0773579329252243,-0.21867743134498596,-0.3425949513912201,-0.10079631209373474,0.10960248112678528,-0.14431479573249817,-0.03204023465514183,-0.10226912796497345,-0.1239001527428627,0.16881559789180756,-0.07130163908004761,0.12859609723091125,0.23599876463413239,-0.19579152762889862,0.1932283639907837,0.8373666405677795,-0.3163210153579712,0.1942993700504303,-0.7883424162864685,-0.8041852116584778,-0.16739489138126373,-0.13669265806674957,0.798112690448761,-0.25204864144325256,0.21809035539627075,-0.22734352946281433,0.7415276765823364,-0.14581212401390076,0.5816869139671326,0.20114530622959137,-0.48713546991348267,0.1588308960199356,0.2035847306251526,0.03730173781514168,0.05702732130885124,2.303053617477417,-0.24527336657047272,0.1719791740179062,0.09737138450145721,-0.03170405700802803,-0.19009454548358917,-1.0924969911575317,0.15146063268184662,-0.21361832320690155,0.3568076491355896,-0.0637931227684021,0.014493025839328766,-0.12685276567935944,-0.23074617981910706,0.12452712655067444,-0.3519311249256134,0.1618373990058899,0.16759255528450012,-0.514215886592865,0.057023532688617706,0.3138292729854584,-0.26665952801704407,0.17753703892230988,0.19848927855491638,0.013857166282832623,-0.13243934512138367,-0.20652326941490173,-0.38462507724761963,-0.07243094593286514,0.12566179037094116,-0.21689023077487946,0.008154671639204025,-0.08697337657213211,-0.007616691291332245,0.12675495445728302,-0.19638323783874512,0.11190670728683472,0.027619414031505585,-0.4463072121143341,-0.08680140972137451,1.156133770942688,-0.3651016652584076,0.0321711041033268,-0.44538185000419617,-0.44047871232032776,0.019865499809384346,-0.1795601099729538,0.185195654630661,-0.017051488161087036,0.29704898595809937,-0.0291232168674469,0.38941842317581177,-0.25607988238334656,-0.4270591139793396,0.2247525006532669,-0.38030409812927246,0.4514385759830475,0.3645152747631073,-0.61981201171875,0.16260910034179688,-0.7273903489112854,-0.3772321939468384,0.27549538016319275,0.0007148821605369449,-0.04081450402736664,-0.26746898889541626,-0.3610003888607025,-0.000060416943597374484,-0.2592334449291229,0.3481135368347168,-0.25421255826950073,0.0688093900680542,0.17976504564285278,0.5866869688034058,0.03594658151268959,-0.3461638391017914,-0.25078457593917847,-0.11742936819791794,0.020152004435658455,-0.14721882343292236,1.9769905805587769,0.13053631782531738,-0.08718094229698181,0.1607712358236313,-0.16938337683677673,0.12008422613143921,-0.810798704624176,-0.09134645760059357,0.02502725087106228,0.02319316565990448,-0.039021849632263184,0.15258122980594635]},"outputBias":{"rows":20,"columns":1,"weights":[-0.11793263256549835,0.3940752148628235,-0.1674366146326065,0.4073627293109894,0.5605503916740417,-0.0995875746011734,1.6416151523590088,-0.26454633474349976,1.3272348642349243,0.43261003494262695,-0.1338432878255844,0.9090433120727539,1.0205578804016113,-0.10588086396455765,0.2734103500843048,0.9703092575073242,-0.19358351826667786,0.4701196253299713,-0.10135317593812943,0.8984328508377075]},"cellActivationMatrix":{"rows":20,"columns":20,"weights":[-0.32844001054763794,-0.4416396915912628,0.3996945917606354,0.020527446642518044,-0.16881632804870605,0.21730871498584747,-0.7847983241081238,-0.10468345135450363,0.2477703094482422,0.032228514552116394,0.43990442156791687,0.13936908543109894,0.18464338779449463,0.04846446216106415,0.6789661049842834,-0.18297216296195984,-0.31529244780540466,0.10022690147161484,0.20135840773582458,-0.042678676545619965,0.1055212914943695,0.7609704732894897,-0.4976206421852112,0.6021842360496521,0.2542353570461273,-0.5161402821540833,0.25398194789886475,0.8804026246070862,-0.016056325286626816,0.5157458782196045,-0.7606560587882996,0.08811914175748825,-0.09053675085306168,0.05897169187664986,-0.32375916838645935,0.23209848999977112,0.19258740544319153,-0.45664694905281067,-0.1519498974084854,0.3379294276237488,0.3106645345687866,-0.21588195860385895,0.22863514721393585,-0.08881767839193344,-0.05160416662693024,-0.13434207439422607,-0.22635173797607422,-0.2910449504852295,-0.20440717041492462,-0.42766398191452026,0.28047847747802734,0.06528856605291367,-0.22269505262374878,-0.11582881957292557,-0.08413506299257278,0.011641914956271648,0.18270152807235718,0.24395045638084412,-0.28859278559684753,-0.1010286882519722,-0.20331116020679474,-0.018547654151916504,-0.24604052305221558,0.45150700211524963,0.014510249719023705,-0.23307280242443085,-0.13188476860523224,-0.0027082820888608694,0.0354575477540493,1.0990182161331177,-0.04623992741107941,0.29219698905944824,-0.031852561980485916,0.6089374423027039,0.12216952443122864,0.004047400783747435,-0.010852853767573833,-0.5257369875907898,0.010134529322385788,0.4104803800582886,-0.234644815325737,-0.5203463435173035,0.5273650884628296,-0.6138347387313843,-0.7998610734939575,0.6635656952857971,-0.25144001841545105,-0.9240993857383728,0.37831610441207886,-0.5835824012756348,0.6097097992897034,-0.12037406116724014,0.3144606053829193,-0.19281570613384247,0.3883938193321228,-0.7515349388122559,-0.29126521944999695,0.46230077743530273,0.38967493176460266,-0.8434264659881592,0.25602197647094727,-0.31055590510368347,0.15421193838119507,-0.16702397167682648,-0.12756532430648804,0.007968454621732235,-0.2141227126121521,-0.5061593055725098,-0.16869553923606873,-0.37477949261665344,0.44699257612228394,-0.1446530669927597,-0.09558987617492676,0.02350696735084057,-0.15005163848400116,-0.05124702304601669,0.25389909744262695,0.21339097619056702,-0.18569917976856232,-0.23187173902988434,0.2796948552131653,0.5164387822151184,-0.4443007707595825,0.40453261137008667,0.6584522128105164,-0.5316721200942993,0.3381497263908386,0.7630501985549927,-0.5361155867576599,0.18883857131004333,-0.38573235273361206,0.1497018039226532,-0.5020304322242737,-0.008804756216704845,-0.6695629358291626,0.7795726656913757,0.584824800491333,-0.3367373049259186,-0.5607075691223145,0.8722435832023621,0.24940304458141327,0.4953162968158722,-0.2523627281188965,0.1022852212190628,0.26146501302719116,-0.2822636067867279,0.4983733892440796,0.07645764946937561,-0.3139551877975464,-0.15247410535812378,-0.38829535245895386,-0.07774604856967926,-0.24421443045139313,-0.07510002702474594,-0.4652083218097687,0.19368812441825867,0.3455263078212738,-0.07834349572658539,-0.32926636934280396,0.06433495879173279,-0.15113301575183868,0.41393622756004333,-0.047922465950250626,0.10371465235948563,-0.4866878390312195,-0.038595233112573624,-0.000022443588022724725,0.42319220304489136,0.23530997335910797,0.3071729838848114,-0.5134781002998352,-0.11499521136283875,0.07506630569696426,-0.4453761577606201,0.09939934313297272,-0.4981458783149719,-0.21312446892261505,-0.1615687757730484,0.25719723105430603,-0.5461884140968323,0.18044555187225342,0.44123172760009766,-0.5141175389289856,0.6363375186920166,0.6915034651756287,-0.5867702960968018,0.19252389669418335,1.103782296180725,-0.2666224539279938,0.40751898288726807,-0.6631982922554016,0.16796503961086273,-0.25923097133636475,0.037369318306446075,-0.4079892933368683,0.6662172675132751,0.2517070770263672,-0.6213462352752686,-0.31160733103752136,0.814844012260437,0.3113551735877991,-0.1670605093240738,0.25461140275001526,-0.004022857174277306,0.0010994371259585023,-0.11261887848377228,-0.1406477391719818,-0.3402043879032135,-0.13734841346740723,-0.24097168445587158,0.24260829389095306,-0.03575185313820839,-0.13424049317836761,-0.15117286145687103,-0.08589407801628113,0.013332817703485489,0.16798585653305054,0.08731512725353241,-0.1681509017944336,-0.18241198360919952,-0.393846720457077,-0.4385969340801239,0.37861526012420654,-0.3391953110694885,-0.643104612827301,0.4513588845729828,-0.3650645315647125,-1.1166713237762451,0.47010836005210876,0.23231743276119232,0.44358202815055847,-0.00576026039198041,0.42410191893577576,0.15137942135334015,0.4218968152999878,-0.8520505428314209,-0.37114930152893066,0.19806407392024994,0.493869811296463,-0.6852074861526489,-0.7340548634529114,-0.6570700407028198,0.7201976180076599,-0.625696063041687,-0.19170215725898743,0.8831462860107422,-0.8810890316963196,-0.5205051898956299,0.7901676893234253,-0.22148092091083527,0.47727063298225403,0.2120029181241989,0.9241478443145752,0.6973829865455627,0.8431267738342285,-0.12493689358234406,-0.9298784732818604,0.6161139011383057,0.8791138529777527,0.0373554453253746,-0.17534080147743225,-0.46556341648101807,0.3396812081336975,0.10202425718307495,-0.04979417845606804,0.19427433609962463,-0.6178981065750122,-0.14847908914089203,0.345497190952301,0.15271639823913574,0.3078102171421051,0.0871555507183075,0.1333424150943756,0.06172741949558258,0.7060100436210632,-0.2119239866733551,-0.4202505350112915,0.006937189493328333,0.29409894347190857,-0.10512585937976837,-0.33316630125045776,-0.1362106055021286,0.08648368716239929,0.32343846559524536,-0.20633196830749512,-0.17339958250522614,-0.30399712920188904,0.03287043794989586,0.016434291377663612,0.9581364989280701,-0.019963787868618965,0.37964943051338196,0.059466708451509476,0.47726285457611084,0.2965907156467438,-0.12417848408222198,-0.17053982615470886,-0.5575752258300781,0.1441641002893448,0.33900967240333557,0.36813434958457947,0.07610157132148743,-0.06597764790058136,0.1269747018814087,0.3127827048301697,-0.35687899589538574,0.030711917206645012,0.5525999069213867,-0.39872533082962036,0.13699479401111603,-0.1543515920639038,0.5795357823371887,-0.348466157913208,0.6389702558517456,-0.25251877307891846,0.5453758239746094,0.3522058427333832,-0.18346847593784332,-0.39397138357162476,0.6766374707221985,-0.26940280199050903,0.21851329505443573,-0.06253515928983688,0.1086861863732338,0.10028690099716187,0.0945814773440361,0.13412149250507355,0.5550105571746826,0.3004431426525116,0.2052965760231018,-0.42798560857772827,0.23751875758171082,0.15903125703334808,0.04368386045098305,0.2712906002998352,0.04224482551217079,-0.12552061676979065,-0.09848925471305847,0.2561585605144501,0.1243593841791153,-0.13138221204280853,-0.548265814781189,0.5585477352142334,-0.665090024471283,-0.778728187084198,0.5555578470230103,-0.33725011348724365,-0.7891771793365479,0.3440861701965332,-0.5333467125892639,0.6497649550437927,-0.12806834280490875,0.3833332061767578,-0.18046708405017853,0.4876304864883423,-0.7383549809455872,-0.4320768117904663,0.6715765595436096,0.2840117812156677,-0.7512151002883911,-0.3537033796310425,0.006676313932985067,0.12242932617664337,-0.15991728007793427,-0.2876929044723511,0.13939066231250763,-0.12599395215511322,0.06502875685691833,0.32318609952926636,0.29660043120384216,-0.012419450096786022,-0.024593818932771683,0.30016350746154785,0.25271403789520264,0.05423557385802269,-0.15156875550746918,-0.17885510623455048,0.09923361241817474,0.20471373200416565,0.12905192375183105,0.6931838393211365,0.5786344408988953,-0.8107979893684387,0.7655101418495178,0.4261089861392975,-0.8359650373458862,0.9197023510932922,0.43862128257751465,-0.7933347225189209,0.42172691226005554,-0.45628413558006287,-0.3464590013027191,-0.871393620967865,-0.6202433109283447,-0.9081848859786987,0.404488205909729,0.8201838731765747,-0.6869069337844849,-0.8348098993301392,0.0597737655043602]},"cellActivationHidden":{"rows":20,"columns":20,"weights":[0.247074693441391,-0.5790321826934814,0.04428538680076599,-0.534070611000061,0.24636784195899963,-0.09707006812095642,-0.7125919461250305,-0.2544710338115692,0.038315899670124054,-0.5027679800987244,0.2433018833398819,-0.5800418257713318,-0.6802084445953369,0.2975216805934906,-0.361960768699646,0.3812462389469147,0.10220856219530106,0.1911662071943283,-0.17561808228492737,0.5754410028457642,-0.3590484857559204,-0.339571475982666,0.30278533697128296,-0.054813385009765625,0.24427281320095062,0.2311834692955017,0.13676264882087708,0.29470452666282654,0.10481169819831848,-0.2736400365829468,0.24556994438171387,0.343565970659256,0.6198956966400146,-0.2733858823776245,-0.2815811336040497,-0.31330087780952454,-0.2228078544139862,0.17246486246585846,-0.3366343677043915,-0.7587947845458984,0.0376417301595211,-0.032145194709300995,-0.2845442295074463,0.19539621472358704,-0.4217117726802826,-0.07180802524089813,0.6236715912818909,0.10802566260099411,-1.4986830949783325,0.21845100820064545,-0.35502323508262634,-0.01167559064924717,0.07157272845506668,0.06139275059103966,0.7295147180557251,0.3519710600376129,0.059109970927238464,-0.3657117784023285,0.26815855503082275,-0.03575201705098152,-0.30297979712486267,-0.303310364484787,0.299064040184021,