{"type":"LSTM","options":{"inputSize":8,"inputRange":8,"hiddenLayers":[20,20],"outputSize":8,"decayRate":0.999,"smoothEps":1e-8,"regc":0.000001,"clipval":5,"maxPredictionLength":100,"dataFormatter":{"indexTable":{"H":0,"i":1,"e":2,"l":3,"o":4,"stop-input":5,"start-output":6,"unrecognized":7},"characterTable":{"0":"H","1":"i","2":"e","3":"l","4":"o","5":null,"6":null,"7":null},"values":[{"input":"Hi","output":"Hello"}],"characters":["H","i","e","l","o","stop-input","start-output","unrecognized"],"specialIndexes":[5,6,7]}},"trainOpts":{"iterations":20000,"errorThresh":0.005,"log":false,"logPeriod":10,"learningRate":0.01,"callbackPeriod":10,"timeout":"Infinity"},"input":{"rows":9,"columns":8,"weights":[0.30500102043151855,-0.7812410593032837,-1.331979513168335,0.6911835074424744,-0.3262018859386444,0.3592323362827301,0.19500455260276794,-0.7751814126968384,-0.6660029888153076,0.6779395341873169,0.5949485898017883,-0.2763281762599945,0.30549538135528564,-0.5428179502487183,-0.13298285007476807,0.9221742153167725,-0.07460635900497437,0.05102507397532463,-0.5668507814407349,-0.26954883337020874,0.38845571875572205,-0.04720009118318558,-0.03462894633412361,0.1370323747396469,0.4623853266239166,-0.8911961913108826,0.49757882952690125,0.7675371170043945,-0.903766930103302,0.8507190346717834,1.2649848461151123,-0.6573528051376343,0.6701114773750305,-1.2380609512329102,0.1310328096151352,1.4580738544464111,-1.5069537162780762,0.8545249700546265,1.3639880418777466,-1.3455524444580078,0.14273713529109955,0.005688829347491264,1.2496397495269775,-0.17465542256832123,0.058648884296417236,0.3600511848926544,0.08629676699638367,-0.005912134423851967,0.5546258091926575,-0.7807329893112183,-1.5919373035430908,0.6155474781990051,-0.0778677687048912,0.17935292422771454,-0.13562685251235962,-0.8986150026321411,-0.16682317852973938,0.2549460232257843,-0.7777732014656067,-0.2506725788116455,0.11346081644296646,-0.406443327665329,-0.19556698203086853,0.13086377084255219,0.012109557166695595,0.019816625863313675,0.070234514772892,0.007088062819093466,0.008213651366531849,0.07681813091039658,0.01981905847787857,0.06308722496032715]},"hiddenLayers":[{"inputMatrix":{"rows":20,"columns":8,"weights":[0.22070012986660004,-0.1881035566329956,0.400831401348114,0.22170959413051605,-0.4644615352153778,0.24346569180488586,0.13691484928131104,-0.13914908468723297,0.44044002890586853,-0.7718518972396851,-0.6388267874717712,0.5907458662986755,-0.5026440620422363,0.5473917722702026,0.46280479431152344,-0.5837990641593933,0.7804187536239624,-0.8678721785545349,-0.5823984742164612,0.724173903465271,-0.8073840737342834,0.6559589505195618,0.7296760678291321,-0.8976816534996033,-0.44796717166900635,0.1349589079618454,1.1824848651885986,0.13979347050189972,-0.10968939960002899,-0.0793398916721344,0.40552476048469543,0.3713513910770416,-0.4971197247505188,0.6255102157592773,0.6589595675468445,-0.2169172763824463,0.06884441524744034,-0.4243313670158386,-0.21665054559707642,0.6763363480567932,0.17140062153339386,-0.59475177526474,-0.5890154838562012,0.7707687020301819,-0.6227930784225464,-0.000013070317436358891,0.275524377822876,-0.8408758640289307,0.7691580653190613,-1.029266119003296,0.041951775550842285,0.7415481805801392,-0.7708412408828735,0.7076728343963623,0.7881277203559875,-0.9236765503883362,0.43701866269111633,-0.5696312189102173,-0.4163591265678406,0.8484788537025452,-0.7159307599067688,0.5028245449066162,0.3851358890533447,-0.9558178186416626,0.40714940428733826,-0.6890121698379517,-0.8315923810005188,0.25995489954948425,0.021232426166534424,0.6193137168884277,0.29413193464279175,-0.16866198182106018,0.42474880814552307,-0.7145000100135803,-0.9901383519172668,0.7321957945823669,-0.515734851360321,0.2965985834598541,0.14174006879329681,-0.7809306383132935,0.10549426078796387,-0.10088343918323517,-0.7741279602050781,0.23252566158771515,-0.18625731766223907,-0.04087822511792183,0.10929222404956818,-0.3550562858581543,-0.05493445321917534,-0.1490609347820282,0.11329919099807739,0.49134281277656555,-0.5951672196388245,-0.1368764191865921,0.22568053007125854,-0.19312222301959991,0.19062107801437378,0.1062798723578453,-0.0879366397857666,-0.05777475982904434,-0.020701108500361443,0.12768620252609253,-0.26864194869995117,0.13218455016613007,0.3528916835784912,-0.5718553066253662,-1.0474967956542969,0.39245209097862244,-0.1546943038702011,0.5062212347984314,0.11554854363203049,-0.26981639862060547,0.5381676554679871,-0.8564954996109009,-0.5404092669487,0.5163449645042419,-0.12049124389886856,0.48686161637306213,0.16083700954914093,-0.6944836378097534,1.079484224319458,-0.7193670868873596,0.30139121413230896,0.6651673913002014,-0.5239547491073608,1.0255485773086548,0.38881319761276245,-0.8292190432548523,0.11646932363510132,-0.5242847800254822,0.09129809588193893,0.8524267077445984,-0.748550295829773,0.18394675850868225,0.46647268533706665,-0.5228942036628723,0.4713248908519745,-0.5577508211135864,-0.6108675599098206,0.720007061958313,-0.6178365349769592,0.48850777745246887,0.22670431435108185,-0.9513688683509827,-0.6989327073097229,0.4932781159877777,0.2833956480026245,-0.32310721278190613,0.13967664539813995,-0.7524465322494507,-0.29102209210395813,0.6127170324325562,0.2429293692111969,-0.6533034443855286,-0.5817171335220337,0.6555274724960327,-0.5917558073997498,0.1951196938753128,0.46818140149116516,-0.6332449316978455]},"inputHidden":{"rows":20,"columns":20,"weights":[-0.23665112257003784,-0.7529348134994507,-0.40966543555259705,-0.4138859510421753,0.11298353970050812,0.4850488305091858,-0.5302281975746155,0.4140743017196655,-0.133668914437294,0.5450800657272339,0.24168457090854645,-0.8760204911231995,-0.36502620577812195,0.3000054657459259,0.6840082406997681,-0.5202621817588806,-0.4674183130264282,-0.3919672966003418,0.5555804371833801,-1.028667688369751,-0.1727064847946167,-0.31221890449523926,-0.6373857259750366,0.38148239254951477,-0.8279645442962646,0.3046889007091522,-0.2832218110561371,0.36796435713768005,0.13451722264289856,0.41461899876594543,0.4337753355503082,0.09373841434717178,-0.0008766253595240414,-0.05996076762676239,0.3779052793979645,-0.3153110444545746,-0.23007184267044067,-0.30324870347976685,-0.250907838344574,-0.27343645691871643,0.183588445186615,-0.14879083633422852,-0.09404762089252472,-0.06517616659402847,0.2230444997549057,0.09024310111999512,-0.05770270898938179,0.174103781580925,0.3347601890563965,0.10358475148677826,0.02634900063276291,-0.06730841100215912,0.394893616437912,-0.2968238890171051,0.122734434902668,-0.09359990060329437,-0.16319477558135986,-0.1621898114681244,0.1697348654270172,-0.037506282329559326,-0.02204589545726776,-0.11391101777553558,-0.17066699266433716,0.09609773755073547,0.18577247858047485,0.16971366107463837,0.032759469002485275,0.1631327122449875,0.2885163724422455,0.23046532273292542,0.3379524052143097,-0.056857649236917496,0.03557538986206055,-0.34312352538108826,0.07870231568813324,-0.2666018605232239,-0.34802481532096863,-0.2251921445131302,0.3227866590023041,0.17188896238803864,-0.02950432151556015,-0.3157254755496979,-0.5639315843582153,0.21967273950576782,0.16019552946090698,0.4106241464614868,-0.3233100175857544,0.3947185277938843,0.21245191991329193,0.42843306064605713,0.2673684060573578,-0.2635803818702698,0.3732893168926239,-0.33176180720329285,0.3574398458003998,-0.6150151491165161,-0.646361231803894,-0.38417521119117737,0.13063253462314606,-0.3153001070022583,-0.04289812222123146,-0.12144091725349426,-0.03698059171438217,0.07762974500656128,-0.6275546550750732,0.14356370270252228,-0.06641487032175064,0.06342168152332306,-0.1880170851945877,0.11901161074638367,0.0508023165166378,-0.13069771230220795,-0.3217706084251404,0.42658698558807373,0.10414569079875946,-0.17221832275390625,-0.05265900120139122,-0.02134372666478157,0.14558131992816925,-0.09248983860015869,0.24132539331912994,-0.36899709701538086,0.25788968801498413,-0.034292176365852356,-0.1424243152141571,0.37882858514785767,-0.27411404252052307,0.38746556639671326,0.8105494379997253,0.3734413981437683,0.29284265637397766,-0.15383808314800262,0.5172299146652222,-0.7607532739639282,0.286288857460022,-0.24027207493782043,-0.200436070561409,-0.3929186463356018,0.23803465068340302,-0.2755356729030609,-0.1100873053073883,-0.1013491228222847,-0.13352076709270477,0.0166374109685421,-0.44148489832878113,0.17633312940597534,-0.18456411361694336,0.21835781633853912,-0.17990219593048096,0.06798521429300308,0.18813084065914154,-0.09265682101249695,-0.3351617455482483,0.46362388134002686,0.123395636677742,-0.08846903592348099,-0.05494989827275276,-0.20633502304553986,0.14380884170532227,-0.043744102120399475,0.25156232714653015,-0.5170786380767822,-0.6397880911827087,-0.3949260413646698,-0.044194284826517105,0.4687862992286682,-0.6900850534439087,0.4113790988922119,-0.42855000495910645,0.46982651948928833,0.38790181279182434,-0.5031190514564514,-0.463958203792572,0.5727939009666443,0.569194495677948,-0.6389275193214417,-0.39590829610824585,-0.4209943115711212,0.37381187081336975,-0.5938766002655029,-0.1141066923737526,-0.1082390546798706,0.12930341064929962,0.23301728069782257,-0.4449143409729004,0.12216930091381073,-0.06760765612125397,0.22684122622013092,-0.1716604083776474,0.2136373221874237,0.005550997797399759,-0.17328153550624847,-0.2933869957923889,0.3644630014896393,0.12987272441387177,-0.18010035157203674,-0.019057024270296097,-0.15427649021148682,0.053870316594839096,0.035565439611673355,-0.7361132502555847,0.003587133716791868,-0.7168529033660889,-0.09911181777715683,-1.0197029113769531,-0.041592951864004135,-0.5658697485923767,-0.056159548461437225,-1.3711371421813965,0.047581903636455536,-0.8788686394691467,-0.19261637330055237,-1.3706169128417969,1.6113868951797485,-0.20832474529743195,-0.18577486276626587,-0.03422006219625473,0.1868259310722351,0.03703725337982178,-0.46889060735702515,-0.019956424832344055,-0.3598857820034027,-0.4082977771759033,0.5916354060173035,-0.48597511649131775,0.3724466860294342,-0.14378346502780914,0.2803856432437897,-0.028315136209130287,0.36539483070373535,-0.048995401710271835,-0.04089657962322235,-0.20602527260780334,0.13385336101055145,0.3325267434120178,-0.5781134366989136,-0.3749178349971771,-0.35053032636642456,-0.2222685068845749,-0.34884241223335266,0.3554913103580475,-0.6634628772735596,-0.47507795691490173,-0.8405486941337585,0.10057564824819565,0.7176427245140076,-0.7031334042549133,0.5986759066581726,0.13423235714435577,0.6856605410575867,0.5344052314758301,-0.6567089557647705,-0.08054418861865997,0.03547408804297447,0.8186977505683899,-0.985912561416626,-0.756646990776062,-0.6129665374755859,0.6267210841178894,-0.7728715538978577,0.19176752865314484,-0.6184194087982178,-0.7104902267456055,-0.4324191212654114,0.012631436809897423,0.5044109225273132,-0.6118370294570923,0.5240696668624878,-0.3167138993740082,0.5118275880813599,0.2545304596424103,-0.3951942026615143,-0.49132412672042847,0.5252240896224976,0.5564732551574707,-0.7789087891578674,-0.4958655536174774,-0.5127629041671753,0.3340364396572113,-0.618226945400238,-0.5910771489143372,-0.05518826097249985,0.25155022740364075,0.39108380675315857,-0.7373204231262207,-0.026139287278056145,-0.23997513949871063,-0.09159837663173676,-0.3312374949455261,-0.0801992118358612,0.23404832184314728,-0.1369933784008026,-0.5466077327728271,0.44416943192481995,0.006229929160326719,0.036340005695819855,0.039443694055080414,0.009732682257890701,-0.1482062041759491,-0.06309925019741058,-0.30573034286499023,-0.06332362443208694,0.27341699600219727,-0.4305635094642639,-0.14161249995231628,0.20953181385993958,0.29116353392601013,0.36615189909935,0.005003369878977537,0.24560345709323883,0.16699309647083282,0.1676807701587677,0.03872157633304596,-0.132610484957695,0.12457606196403503,0.030632738023996353,-0.20381836593151093,-0.5306359529495239,-0.22720874845981598,0.14214037358760834,-0.12437669187784195,-0.30868998169898987,-0.6054679155349731,0.41072192788124084,-0.5416849255561829,0.2924392521381378,-0.1488153338432312,0.35082530975341797,-0.034098684787750244,0.2415875941514969,-0.09029357880353928,0.007344776298850775,-0.24483008682727814,0.2617865800857544,0.2163712978363037,-0.21874071657657623,-0.05942489206790924,-0.2798091769218445,0.04341404139995575,-0.25083357095718384,-0.029682273045182228,-0.07554157078266144,-0.12469310313463211,0.008055292069911957,-0.44195306301116943,0.16752175986766815,-0.06986168771982193,0.19748279452323914,-0.1601826548576355,0.13238203525543213,0.08300021290779114,-0.10857648402452469,-0.3929809629917145,0.5830816030502319,0.12827183306217194,-0.19886447489261627,-0.06881595402956009,-0.15479561686515808,0.1430945098400116,-0.11957985907793045,-0.23471401631832123,0.2838406562805176,-0.5660662651062012,0.4421597421169281,-0.6825639605522156,-0.41686198115348816,0.12732094526290894,-0.34563931822776794,-0.42609137296676636,-0.429675817489624,-0.3443979024887085,0.07830222696065903,-0.8411434292793274,0.7406288981437683,-0.42649731040000916,0.0686677098274231,0.09269832074642181,0.33777496218681335,-0.1635609120130539,0.2661530375480652,-0.4707185626029968,0.2897358238697052,0.5017748475074768,-0.015345324762165546,-0.5170535445213318,-0.4000605642795563,0.032948192209005356,-0.4691362977027893,-0.07230828702449799,-0.43776190280914307,-0.14384740591049194,0.15445981919765472,-0.5778883695602417,0.15962816774845123,-0.30656304955482483,0.0964038297533989,0.1332537680864334,0.41109219193458557,-0.17285852134227753,0.12476148456335068]},"inputBias":{"rows":20,"columns":1,"weights":[-0.8778269290924072,0.5841270685195923,0.39639878273010254,-0.5902814865112305,-0.8069571852684021,-0.11261436343193054,0.07255926728248596,-0.15845887362957,0.6317878365516663,0.04792878031730652,-0.677638828754425,0.38196247816085815,-0.8058906197547913,0.41196557879447937,-0.03811688348650932,-0.16098123788833618,-0.3356087803840637,-0.17187392711639404,-0.6939080953598022,0.6425862908363342]},"forgetMatrix":{"rows":20,"columns":8,"weights":[-0.2609267830848694,0.22568665444850922,-0.053795330226421356,-0.18944594264030457,0.2591088116168976,-0.23435445129871368,-0.28305456042289734,0.35901883244514465,0.4725901782512665,-0.5461061596870422,-0.697100818157196,0.4481237828731537,-0.37798628211021423,0.49734386801719666,0.3245714008808136,-0.4650003910064697,-0.011913017369806767,-0.08843982964754105,-0.09763474762439728,0.0846867635846138,-0.18791218101978302,-0.04892214015126228,0.029632003977894783,-0.014497604221105576,-0.10033666342496872,0.6429720520973206,0.4954543709754944,-0.443065881729126,0.47731542587280273,-0.06451429426670074,-0.2977135479450226,0.7351980805397034,-0.22621598839759827,0.13975754380226135,0.5340307354927063,-0.12946201860904694,0.09144455939531326,0.051262520253658295,0.1306726634502411,0.22707661986351013,0.40558427572250366,-0.4195021390914917,-0.6910955309867859,0.24755766987800598,-0.12174009531736374,0.4237695038318634,0.20251181721687317,-0.297042578458786,0.217424675822258,-0.251349538564682,-0.21752400696277618,0.1855420619249344,-0.17633762955665588,0.42030301690101624,0.13933396339416504,-0.2033381164073944,0.4837108254432678,-0.40787795186042786,-0.4844895303249359,0.31071779131889343,-0.20453602075576782,0.5698437094688416,0.3995934724807739,-0.3410370945930481,-0.17465612292289734,-0.25365766882896423,-0.36309942603111267,0.4241650700569153,-0.22552797198295593,-0.12009396404027939,0.39805129170417786,-0.16027206182479858,0.41712334752082825,-0.3234739303588867,-0.8140589594841003,0.18150483071804047,0.13815104961395264,0.4336824119091034,0.05995446443557739,-0.34720978140830994,-0.40398210287094116,0.6533067226409912,-0.6783183813095093,-0.5735360383987427,0.7211158871650696,-0.24220700562000275,-0.6874619722366333,0.5094130039215088,0.11627156287431717,-0.058304741978645325,-0.07016946375370026,-0.04896773397922516,0.36906668543815613,0.2387552410364151,-0.06842423975467682,0.01642792485654354,-0.5006629228591919,0.3095366358757019,-0.0601256862282753,-0.23180878162384033,0.2289934605360031,-0.4284510910511017,-0.19824720919132233,0.3107665777206421,-0.2852051556110382,0.03852654993534088,0.15350738167762756,0.02681957557797432,-0.026979900896549225,-0.14517776668071747,0.17086562514305115,0.11777091771364212,0.43223270773887634,-0.36762717366218567,-0.5641199350357056,0.435589075088501,-0.23551541566848755,0.5431966781616211,0.19652321934700012,-0.4195929765701294,0.4576493501663208,-0.36550256609916687,-0.35708656907081604,0.32773393392562866,-0.3671986162662506,0.2522814869880676,0.4506756365299225,-0.4315160810947418,0.32770824432373047,-0.35443347692489624,-0.13869591057300568,0.1659940481185913,0.1541387438774109,0.5862460136413574,0.160760760307312,-0.21708054840564728,0.43150001764297485,-0.36413660645484924,-0.5711121559143066,0.3852878510951996,-0.186929389834404,0.4465322494506836,0.2908969819545746,-0.33016711473464966,0.30963918566703796,-0.27526742219924927,-0.07504967600107193,0.15256549417972565,0.0038387763779610395,0.5080092549324036,0.13060802221298218,-0.1985933780670166,0.7489692568778992,-0.5851207375526428,-0.6012654900550842,0.24446479976177216,-0.11529532074928284,0.7472009062767029,0.12261151522397995,-0.6679160594940186]},"forgetHidden":{"rows":20,"columns":20,"weights":[-0.5648574829101562,0.46120089292526245,0.11469575762748718,0.23403893411159515,-0.13388822972774506,-0.35929107666015625,0.4261956214904785,-0.3958541750907898,-0.6618602871894836,-0.4590337574481964,-0.31520286202430725,-0.09028875082731247,-0.5218437314033508,0.5818203091621399,-0.41168439388275146,0.182280495762825,0.5635057091712952,0.4790140986442566,-0.14614850282669067,0.33930090069770813,-0.06381148099899292,0.18535172939300537,0.04819370433688164,-0.16738279163837433,-0.21639898419380188,-0.21246521174907684,-0.4039992690086365,-0.04764905199408531,-0.30002790689468384,-0.11970120668411255,-0.05076444149017334,-0.5912204384803772,-0.34613165259361267,0.29453790187835693,-0.25767654180526733,-0.382405549287796,0.44320446252822876,0.13569706678390503,0.2954399883747101,-0.12785634398460388,0.03566538915038109,-0.16771763563156128,-0.20988212525844574,-0.23187784850597382,0.08123436570167542,0.2863592505455017,-0.16105984151363373,0.2518860995769501,0.3574194014072418,0.22635042667388916,0.23364581167697906,-0.1498502939939499,0.248857319355011,-0.3983166813850403,0.31575673818588257,-0.6469636559486389,-0.21539832651615143,-0.36791348457336426,0.11167760193347931,-0.13411876559257507,-0.18636055290699005,0.07930344343185425,-0.20393714308738708,-0.22181791067123413,0.038509923964738846,-0.08612959086894989,0.3043478727340698,-0.07066621631383896,-0.061703260987997055,-0.10145997256040573,-0.022933566942811012,0.010216036811470985,-0.1249641478061676,0.09660781919956207,-0.1370118409395218,0.017408236861228943,0.03046417608857155,0.01930657960474491,-0.036889947950839996,0.06190200522542,-0.04816688597202301,-0.292131245136261,-0.6245599985122681,0.21973736584186554,-0.3611185550689697,0.28862103819847107,-0.5115087032318115,0.23531173169612885,-0.06444217264652252,0.36725932359695435,-0.04525531828403473,-0.11032440513372421,-0.2350713163614273,0.1980993151664734,0.2506919801235199,-0.7462285161018372,-0.339806467294693,-0.28374579548835754,-0.11882444471120834,-0.5372893810272217,0.18095633387565613,0.07020439952611923,-0.12541694939136505,-0.242187961935997,-0.039057616144418716,0.02719840593636036,-0.25243237614631653,0.07711400836706161,-0.18374177813529968,0.04940728843212128,0.17818684875965118,-0.34093865752220154,-0.24172383546829224,0.323943555355072,-0.011914118193089962,-0.471120685338974,0.14867061376571655,-0.022164756432175636,0.2836538553237915,-0.1644473522901535,0.0995076522231102,-0.5681319236755371,-0.2830107510089874,-0.4553910791873932,0.40664049983024597,0.5648382306098938,-0.35648441314697266,0.5930838584899902,0.0828113704919815,0.6010435223579407,0.46338701248168945,-0.5879893898963928,0.1764773279428482,-0.09732348471879959,0.5682968497276306,-0.3824862837791443,-0.4497515559196472,-0.6736676096916199,0.5218714475631714,-0.40038159489631653,0.1359265297651291,-0.04389050975441933,-0.25253093242645264,-0.3043999671936035,0.07932047545909882,0.24078866839408875,-0.27059903740882874,0.2166544646024704,-0.1302434802055359,0.19860130548477173,0.12091460824012756,-0.20786309242248535,-0.16991843283176422,0.1253548413515091,0.15170244872570038,-0.7482444643974304,-0.29601821303367615,-0.2856563329696655,0.3207515776157379,-0.10041254758834839,0.26048558950424194,0.34634238481521606,-0.18627777695655823,0.11594706773757935,-0.2706332802772522,-0.17371995747089386,-0.04539265111088753,-0.1084614098072052,0.19205471873283386,-0.22638675570487976,0.27265703678131104,-0.5414756536483765,-0.02621392346918583,-0.22567927837371826,-0.33886250853538513,-0.44451597332954407,0.11620070040225983,0.15864598751068115,0.036638300865888596,0.061093881726264954,0.013655639253556728,-0.05459147319197655,-0.21730054914951324,-0.19988107681274414,-0.06255749613046646,0.1354966163635254,-0.19310973584651947,0.20998144149780273,-0.13715672492980957,0.09335885941982269,0.20052427053451538,-0.33501580357551575,-0.32843920588493347,0.17803382873535156,0.01509229838848114,-0.6566507816314697,-0.040101997554302216,-0.19117963314056396,0.3502098023891449,-0.11010975390672684,-0.4837200343608856,0.3382333815097809,-0.17021040618419647,0.27435141801834106,-0.19726040959358215,-0.109133780002594,-0.3860938251018524,-0.22974681854248047,-0.5286649465560913,-0.15180201828479767,-0.09370250254869461,0.12249667942523956,-0.48866331577301025,0.4454454481601715,-0.14760325849056244,-0.4767509996891022,0.192781463265419,0.18145126104354858,-0.00961098913103342,-0.19370968639850616,-0.4615858197212219,0.2680191695690155,-0.5249879956245422,0.007139231543987989,-0.07426232844591141,-0.14313364028930664,-0.13983608782291412,-0.1491556614637375,-0.90652996301651,-0.078465037047863,-0.7105950117111206,0.40613028407096863,-0.8517781496047974,0.960210382938385,-0.30581220984458923,-0.6129992604255676,0.04676030948758125,0.09837805479764938,-0.23672708868980408,-0.09459105879068375,-0.07034748047590256,0.47766557335853577,-0.1648552417755127,0.18656498193740845,-0.3170582354068756,-0.2152087241411209,-0.39993226528167725,-0.4590527415275574,-0.3910822868347168,-0.3181503117084503,-0.3417385220527649,0.04558055102825165,-0.5184769630432129,0.46182751655578613,-0.40248018503189087,-0.23528362810611725,0.09504411369562149,0.4426553547382355,-0.051083844155073166,-0.20093873143196106,0.45645496249198914,0.07842106372117996,-0.7585867047309875,0.18725787103176117,-0.24747851490974426,0.18632793426513672,-0.3891284763813019,0.05860026180744171,0.32699650526046753,0.10460570454597473,0.20258665084838867,0.28512242436408997,0.15861919522285461,-0.32309097051620483,0.005219134036451578,-0.688386082649231,-0.564834713935852,-0.026363039389252663,-0.030810892581939697,-0.202577605843544,0.17726223170757294,-0.20784611999988556,-0.4274432957172394,-0.3734598457813263,-0.16288559138774872,0.4297086298465729,-0.4015043377876282,0.26645490527153015,-0.1987018585205078,0.4444517195224762,0.1490257829427719,-0.28108200430870056,-0.2518981397151947,0.26535311341285706,0.3858968913555145,-0.9773514866828918,-0.48951780796051025,-0.41347336769104004,0.4804282486438751,-0.4889354407787323,0.29844990372657776,-0.3947645425796509,-0.01740081235766411,-0.21894042193889618,0.30392563343048096,0.25275981426239014,0.14622247219085693,0.3659913241863251,0.3255294859409332,0.3319464921951294,0.2167481929063797,-0.1754363477230072,0.3220897912979126,-0.4310441315174103,0.26541414856910706,0.2681686282157898,-0.2951103150844574,-0.4521512985229492,0.1931854635477066,-0.08667297661304474,0.003622325137257576,-0.14239171147346497,-0.557864785194397,-0.2641502618789673,0.12845340371131897,0.32504788041114807,0.08427417278289795,0.34594738483428955,0.0799970030784607,0.2972331941127777,0.17924048006534576,-0.09056449681520462,-0.031297098845243454,-0.043795499950647354,0.2201540768146515,-0.7487615346908569,-0.32624462246894836,-0.33261555433273315,0.28373029828071594,-0.1982509195804596,0.21303631365299225,-0.1796257346868515,-0.33497992157936096,-0.4299834370613098,0.03617113083600998,0.2362026870250702,-0.32521453499794006,0.1872873306274414,-0.10927119106054306,0.32620224356651306,0.24760854244232178,-0.3439321219921112,-0.10478059947490692,0.21988791227340698,0.26760485768318176,-0.7728444337844849,-0.2990944981575012,-0.2953960597515106,0.47125059366226196,-0.24411310255527496,0.10458794236183167,-0.2969166934490204,-0.3904537260532379,-0.21112526953220367,0.05603328347206116,0.33212727308273315,-0.21320049464702606,0.3935402035713196,0.10052254050970078,0.41209620237350464,0.29460057616233826,-0.39415693283081055,-0.03241056576371193,0.08125386387109756,0.19436615705490112,-0.7703591585159302,-0.3485662639141083,-0.3644565939903259,0.39290374517440796,-0.2993215322494507,0.008113912306725979,-0.10353582352399826,-0.7869492769241333,-0.4255744516849518,0.204094797372818,0.10877809673547745,-0.5007041692733765,0.1926964819431305,0.018991777673363686,0.14185208082199097,0.1744145005941391,-0.34984487295150757,-0.16033262014389038,-0.11144635081291199,0.2513236701488495,-0.8687441349029541,-0.276859849691391,-0.2202327847480774,0.35185858607292175,-0.29981398582458496]},"forgetBias":{"rows":20,"columns":1,"weights":[0,0,0,0,0,0,0,0,0,0,0,0,0,0,0,0,0,0,0,0]},"outputMatrix":{"rows":20,"columns":8,"weights":[-0.09263833612203598,0.10911821573972702,-0.13828735053539276,0.077214814722538,-0.17093250155448914,-0.11411868035793304,-0.2417713850736618,-0.034895289689302444,0.5697245001792908,-0.7854567170143127,-0.7823294997215271,0.55191570520401,-0.3653884828090668,0.6308788657188416,0.5108939409255981,-0.6322923302650452,0.906800389289856,-0.9829222559928894,-0.3041529357433319,0.8403301239013672,-0.8157309889793396,0.797967791557312,0.7517397403717041,-0.8567298054695129,-0.35325610637664795,0.3975098729133606,0.9699947237968445,-0.23330648243427277,0.2639782726764679,-0.1163712739944458,-0.16292130947113037,0.40234917402267456,-0.5673667192459106,0.6370693445205688,0.705101490020752,-0.2355901151895523,0.1697644293308258,-0.29607874155044556,-0.056813061237335205,0.7691775560379028,0.2615986764431,-0.6503821015357971,-0.7827529907226562,0.7146050930023193,-0.5422041416168213,0.08918137848377228,0.33077526092529297,-0.9198920130729675,0.6442540884017944,-0.8749973773956299,0.06263208389282227,0.6329243779182434,-0.61390221118927,0.7467994689941406,0.9518100023269653,-0.8922566771507263,0.4904070198535919,-0.8009865283966064,-0.8473291993141174,0.812739908695221,-0.6756366491317749,0.5089618563652039,0.44630166888237,-1.010520339012146,0.3482535779476166,-0.4800335168838501,-0.8084268569946289,0.1411168873310089,0.01798563450574875,0.5958237051963806,0.27528777718544006,-0.021726040169596672,0.6299712061882019,-0.8638915419578552,-1.168811559677124,0.8088501691818237,-0.4081253707408905,0.454459011554718,0.09496227651834488,-1.1104609966278076,0.24858029186725616,-0.10331258177757263,-1.0672672986984253,0.20172566175460815,-0.14376074075698853,-0.08110636472702026,-0.19129960238933563,-0.43328770995140076,0.12472124397754669,-0.21851807832717896,0.17687395215034485,0.35235023498535156,-0.3936828374862671,0.0670718178153038,0.14172682166099548,-0.4360036551952362,0.3890637159347534,-0.031004590913653374,-0.1172996461391449,-0.18579985201358795,0.15084023773670197,0.15326276421546936,-0.387592613697052,0.10392200201749802,0.23290956020355225,-0.38564950227737427,-0.8756321668624878,0.38083237409591675,-0.033211447298526764,0.4983471930027008,0.1978658139705658,-0.02409801259636879,0.4604329764842987,-0.6374168395996094,-1.1396055221557617,0.40103960037231445,-0.30366581678390503,0.4297488331794739,0.28068894147872925,-0.689279317855835,0.8856860995292664,-0.88037109375,-0.055994462221860886,0.6243642568588257,-0.6069096922874451,0.963045060634613,0.5552994608879089,-0.7735922336578369,0.2728046476840973,-0.4996875524520874,0.23614610731601715,0.9366685152053833,-0.8019719123840332,0.1545027494430542,0.5871572494506836,-0.5911307334899902,0.5043503046035767,-0.7468370795249939,-0.9379071593284607,0.7715935111045837,-0.5983096957206726,0.29887697100639343,0.2205539345741272,-1.0199520587921143,-0.5765047669410706,0.5022324323654175,0.3643782138824463,-0.10224573314189911,0.07276847958564758,-0.684914767742157,-0.1886310577392578,0.6388939023017883,0.30834081768989563,-0.5076773762702942,-1.5841739177703857,0.705208420753479,-0.5868725180625916,0.30201926827430725,0.14603084325790405,-0.6990337371826172]},"outputHidden":{"rows":20,"columns":20,"weights":[-0.6821411848068237,-0.060162778943777084,-0.17995238304138184,-0.24631470441818237,-0.12554936110973358,-0.1502520591020584,-0.44699493050575256,-0.15501849353313446,-1.2589031457901,-0.1583312451839447,-0.3912372291088104,-0.8699727058410645,-1.176979660987854,1.3282159566879272,-0.029809752479195595,-0.12578889727592468,0.26448890566825867,0.21827180683612823,0.173037588596344,-0.7387179732322693,-0.15840989351272583,-0.3495146930217743,-0.3878551423549652,0.28479743003845215,-0.6633412837982178,0.38792869448661804,-0.3023512661457062,0.2314864546060562,-0.05451994016766548,0.401602178812027,0.39960986375808716,0.10686694830656052,-0.22054262459278107,0.08873695880174637,0.412320613861084,-0.4605254828929901,-0.21404068171977997,-0.23001673817634583,-0.17740416526794434,-0.21079622209072113,0.044886115938425064,-0.16470098495483398,0.11063507199287415,-0.0028963289223611355,0.21528223156929016,0.27465951442718506,0.15935014188289642,0.33270344138145447,0.3654871881008148,0.32426121830940247,-0.003507331246510148,0.03287910297513008,0.4370289742946625,-0.5003259181976318,0.2440842092037201,-0.15578126907348633,-0.1605781614780426,-0.3829955756664276,0.046156756579875946,0.039291657507419586,-0.3272859752178192,-0.038657162338495255,-0.15861643850803375,0.06671246141195297,0.1733575016260147,0.06212662160396576,0.371842622756958,0.051932454109191895,0.16653461754322052,0.0678953006863594,-0.048476044088602066,0.22012124955654144,0.013926365412771702,-0.09390998631715775,0.015624879859387875,-0.40438663959503174,-0.08768004924058914,-0.08402717113494873,0.09305176883935928,0.373572438955307,0.09329956769943237,-0.4518204629421234,-0.5814541578292847,0.32846736907958984,0.07723873853683472,0.42064350843429565,-0.47332140803337097,0.4155816435813904,0.40827080607414246,0.3971031904220581,0.3824739158153534,-0.37785255908966064,0.4090687334537506,-0.4988913834095001,0.42598816752433777,-0.6641807556152344,-0.5493250489234924,-0.4402546286582947,0.13169917464256287,-0.37812623381614685,-0.0020741643384099007,-0.08203516155481339,-0.17341533303260803,-0.09864776581525803,-0.5453434586524963,0.12611062824726105,-0.15658122301101685,0.16861951351165771,-0.3851526379585266,0.12158168852329254,-0.01770847663283348,-0.40647631883621216,-0.5509290099143982,0.5494971871376038,0.04581213742494583,-0.22400496900081635,0.03241922706365585,-0.12287683039903641,0.1919422298669815,-0.12475986778736115,0.017691554501652718,-0.2939140498638153,0.639086127281189,0.02997073344886303,0.25213876366615295,0.18417711555957794,-0.19539983570575714,0.29945847392082214,0.7932506203651428,0.29270341992378235,0.1377253532409668,0.16939878463745117,0.38664284348487854,-0.8303925395011902,0.19454678893089294,-0.12130061537027359,-0.45250576734542847,-0.23157775402069092,-0.09263038635253906,-0.1261279284954071,-0.015791740268468857,-0.07330603152513504,0.0668722614645958,-0.14316144585609436,-0.42325499653816223,0.1300591379404068,-0.3758563995361328,0.08547333627939224,-0.5460029244422913,0.17977850139141083,0.2061477154493332,-0.5228584408760071,-0.5163825154304504,0.6337978839874268,0.0503789521753788,-0.2290278673171997,0.013579522259533405,-0.20477943122386932,0.3526645302772522,-0.1744304597377777,0.5279592275619507,-0.3820740282535553,-0.8256632089614868,-0.3828403651714325,0.19329644739627838,0.2967362105846405,-0.6701794862747192,0.37748071551322937,0.008700491860508919,0.3141327202320099,0.4673283100128174,-0.4387769401073456,-0.0930645540356636,0.02952703647315502,0.42035239934921265,-0.5406333208084106,-0.47780221700668335,-0.37033402919769287,0.4451349079608917,-0.35769033432006836,-0.18946149945259094,-0.15541408956050873,-0.05914546176791191,0.13119949400424957,-0.6232696771621704,0.21434618532657623,-0.20310036838054657,0.30702003836631775,-0.2728673219680786,0.31439676880836487,-0.038855958729982376,-0.2722136974334717,-0.3080664873123169,0.21654875576496124,0.28914833068847656,-0.20445796847343445,-0.050423767417669296,-0.3719295561313629,0.03047548234462738,-0.09863574802875519,-0.15997779369354248,-0.38207295536994934,-0.7791486382484436,-0.5350180268287659,-0.2889065742492676,0.4362761080265045,-0.6608130931854248,0.27954158186912537,-0.8942549228668213,0.3565637171268463,-0.036844007670879364,-0.5000442862510681,-0.7969452142715454,1.1425670385360718,0.3379882872104645,-0.5590313076972961,-0.562960684299469,-0.3019065260887146,0.4271104633808136,-0.6177625060081482,-0.21256433427333832,-0.4602189362049103,-0.48603853583335876,0.09562603384256363,-0.40629321336746216,0.4669487178325653,-0.17652295529842377,0.43352577090263367,-0.11502629518508911,0.5019899606704712,0.097446508705616,-0.13769972324371338,-0.26545780897140503,0.20212037861347198,0.4895331859588623,-0.4868832230567932,-0.44986388087272644,-0.4020377993583679,0.08741700649261475,-0.33780086040496826,0.4499991536140442,-0.6440221667289734,-0.6000354290008545,-0.7529232501983643,-0.010230140760540962,0.6256629228591919,-0.7169979810714722,0.5814937353134155,-0.2275409698486328,0.7596357464790344,0.24371227622032166,-0.48235711455345154,-0.33525022864341736,0.36250555515289307,0.6876205205917358,-1.0089524984359741,-0.762395977973938,-0.4709448516368866,0.6240202188491821,-0.8131402134895325,0.5851109027862549,-0.5489982962608337,-0.9173667430877686,-0.527539849281311,0.1704472154378891,0.35101771354675293,-0.5686400532722473,0.537583589553833,-0.0480477549135685,0.39926373958587646,0.4559846520423889,-0.38406068086624146,-0.3103998899459839,0.15996842086315155,0.477139949798584,-0.9765669703483582,-0.6962454915046692,-0.3760519325733185,0.5474436283111572,-0.46165528893470764,-0.28964781761169434,-0.013915115036070347,0.08180472999811172,0.2750682830810547,-0.8046956062316895,-0.04137663170695305,-0.48270726203918457,0.03790703043341637,-0.7320894002914429,-0.035256240516901016,0.3728478252887726,-0.27739080786705017,-0.7041264176368713,0.705105721950531,0.13992168009281158,-0.07327482104301453,0.038454629480838776,0.009517929516732693,0.017013493925333023,-0.1313842236995697,-0.20277203619480133,-0.6277145147323608,0.5339601039886475,-0.3496035635471344,-0.17387233674526215,0.5958444476127625,0.48267436027526855,0.7061738967895508,0.45628535747528076,0.6299870610237122,0.37464845180511475,-0.04972167685627937,0.3819827437400818,-0.5825549960136414,0.5219459533691406,0.0299296323210001,-0.3313404321670532,-0.736828625202179,-0.0636477842926979,-0.01637028343975544,-0.06684461981058121,-0.4362833499908447,-0.7141275405883789,0.0871381163597107,-0.36681556701660156,0.37011364102363586,-0.05154117941856384,0.40353259444236755,0.041788049042224884,0.5070419907569885,0.015211202204227448,-0.08691833913326263,-0.15477873384952545,0.21729028224945068,0.4426637589931488,-0.37987515330314636,-0.3073473572731018,-0.456495076417923,0.08208367973566055,-0.18586823344230652,-0.08523181825876236,-0.02422310970723629,0.12850916385650635,-0.2420509159564972,-0.5011268854141235,0.10209868103265762,-0.2676957845687866,0.17685504257678986,-0.45917150378227234,0.11145626753568649,0.1734277904033661,-0.3603852689266205,-0.616344153881073,0.7905451059341431,0.11668068170547485,-0.16958485543727875,0.057882413268089294,-0.05962971970438957,0.30372947454452515,-0.258644700050354,0.045151032507419586,-0.0007549089496023953,-0.7870693802833557,-0.1322033554315567,-0.4434845745563507,-0.16519418358802795,-0.004642887506633997,-0.04931502044200897,0.47592371702194214,-0.18670137226581573,0.3783886432647705,-0.34948721528053284,-0.3796592354774475,0.023319508880376816,-0.07340940833091736,-0.1971479058265686,-0.2789982259273529,0.12039312720298767,0.06885931640863419,0.010624419897794724,-1.1732779741287231,0.366703063249588,0.3883296549320221,0.13198375701904297,-1.007824420928955,-0.6674237251281738,-0.031100191175937653,-0.6312245726585388,-1.0400264263153076,-0.5007691979408264,-0.9312951564788818,0.31770479679107666,-1.2397925853729248,1.208490252494812,-0.49308523535728455,0.25086697936058044,0.46287280321121216,0.5865669846534729,-0.31709030270576477,0.04973066970705986]},"outputBias":{"rows":20,"columns":1,"weights":[-0.920364499092102,0.5851385593414307,0.5399109721183777,-0.5916638374328613,-0.8178901672363281,-0.12293688207864761,0.12853890657424927,-0.1705581694841385,0.9352138042449951,0.04068884253501892,-0.6559060215950012,0.3589728772640228,-0.8200281262397766,0.7002091407775879,-0.03712156414985657,-0.15141600370407104,-0.30043748021125793,-0.19183139503002167,-0.7031171917915344,0.5928221344947815]},"cellActivationMatrix":{"rows":20,"columns":8,"weights":[0.18412259221076965,-0.5620817542076111,-0.2729176878929138,0.6577406525611877,-0.8235551714897156,-0.20907168090343475,0.6052451133728027,-0.6371856927871704,-0.2344924360513687,0.5469965934753418,-0.966058075428009,-0.632697343826294,0.7821337580680847,-0.44099000096321106,-0.624191164970398,0.3638480603694916,0.3980141580104828,0.48492297530174255,0.11920365691184998,-0.7558555006980896,0.9387024641036987,0.11873161047697067,-0.677842378616333,0.7767893671989441,-0.2830479145050049,0.565592885017395,-0.6024683117866516,-0.7284125089645386,1.1694196462631226,-0.4552595913410187,-0.6241364479064941,0.5108835101127625,0.38286569714546204,-0.5917260646820068,-0.29895204305648804,0.8825875520706177,-1.0988357067108154,0.0012004913296550512,0.5822898745536804,-0.627068281173706,0.2859582304954529,-0.20564870536327362,1.0116548538208008,0.23909206688404083,-0.8759140372276306,0.29843759536743164,0.5069449543952942,-0.23589850962162018,-0.1217702180147171,0.18845483660697937,-0.8492554426193237,-0.23986272513866425,0.4091913402080536,-0.3840172290802002,-0.5493351221084595,0.013959066942334175,0.26964476704597473,-0.47474417090415955,0.7517606616020203,0.4721417725086212,-0.9108559489250183,0.4030817151069641,0.6771785020828247,-0.48273077607154846,-0.2609339952468872,0.005537204910069704,-1.031935214996338,0.5757977366447449,-0.5035961866378784,-0.4965468943119049,-0.2698991894721985,-0.37392979860305786,0.127335324883461,-0.18938973546028137,1.024215817451477,0.2497197836637497,-0.7076739072799683,0.4407350718975067,0.6027500033378601,-0.28810614347457886,0.48029711842536926,-0.610671877861023,-0.14686331152915955,0.8524850606918335,-1.0102119445800781,0.25226402282714844,0.7484515309333801,-0.5555947422981262,-0.23950661718845367,0.20450927317142487,-0.9128686189651489,-0.6029470562934875,0.8937759399414062,-0.25751084089279175,-0.5700470209121704,0.20695234835147858,-0.045961346477270126,0.0663418248295784,-0.3492014408111572,0.5917847752571106,-0.7007560729980469,-0.1453411728143692,-0.026992416009306908,-0.4425122141838074,0.008460622280836105,0.06698233634233475,0.9766330122947693,-0.5270244479179382,0.5458852648735046,0.3173510432243347,0.21847471594810486,0.4239647686481476,0.22404463589191437,-0.23619462549686432,0.8930141925811768,0.5166693329811096,-0.8679743409156799,0.24755679070949554,0.5449917316436768,-0.29786989092826843,-0.10013911873102188,0.49076956510543823,-0.02758033201098442,-0.6111873984336853,0.7092479467391968,-0.48927542567253113,-0.42716526985168457,0.2690456211566925,-0.43829527497291565,0.5291882753372192,-0.1853736937046051,-0.7283415198326111,1.0381813049316406,-0.3938280940055847,-0.5084512829780579,0.6670522093772888,-0.38932642340660095,0.4893797039985657,-0.7155192494392395,-0.5250251889228821,0.9608847498893738,-0.6024556756019592,-0.6663627624511719,0.5300357341766357,0.4548792243003845,-0.5002806782722473,0.4036029875278473,0.7695592045783997,-0.9424257874488831,0.5330131649971008,0.6365745067596436,-0.5765729546546936,-0.25029000639915466,0.4624963104724884,-1.3544257879257202,-0.5177782773971558,0.596645712852478,-0.47409477829933167,-0.652523398399353,0.42777585983276367]},"cellActivationHidden":{"rows":20,"columns":20,"weights":[-0.11197875440120697,0.16620737314224243,-0.518231987953186,0.2467886358499527,-0.41925179958343506,-0.10358203947544098,0.0708594098687172,-0.1372746080160141,-0.5592369437217712,-0.11123106628656387,-0.1310587376356125,-0.40523481369018555,-0.6085940599441528,0.6532430052757263,-0.16283372044563293,0.046356040984392166,0.27777916193008423,0.05837654694914818,-0.03456684947013855,0.2663704752922058,-0.02015622705221176,-0.03171766176819801,-0.2524782419204712,0.19009077548980713,0.6312288641929626,-0.0014733716379851103,-0.002836591098457575,-0.020616348832845688,0.20732329785823822,-0.0178567823022604,0.1502429097890854,0.2284076064825058,0.6296655535697937,-0.2518552541732788,0.12642285227775574,-0.025072354823350906,-0.0670369565486908,0.06176495552062988,-0.2852426767349243,0.25383561849594116,-0.32866156101226807,0.16373805701732635,0.49528083205223083,0.26542097330093384,0.2673397362232208,-0.15121737122535706,0.2553645074367523,-0.06626495718955994,0.14170365035533905,-0.19026990234851837,0.1304158866405487,0.16045942902565002,0.48028963804244995,-0.08090543746948242,-0.010763835161924362,0.5426823496818542,0.26184335350990295,0.17483949661254883,-0.2147623598575592,0.5909014940261841,-0.23965774476528168,0.34625065326690674,-0.09034299105405807,0.19942834973335266,-0.06982211023569107,-0.2716726064682007,0.028775492683053017,-0.3110332489013672,-0.03854748234152794,-0.19881083071231842,-0.04844629764556885,0.24816375970840454,-0.34407737851142883,0.18385137617588043,-0.1376349925994873,0.3297725319862366,0.1331053227186203,0.21778780221939087,-0.1137203797698021,0.3385879397392273,0.5406399369239807,-0.28460636734962463,-0.686091423034668,-0.6184866428375244,-0.21337421238422394,0.35094574093818665,0.06312698870897293,0.2607254981994629,-0.1715683788061142,0.2945108115673065,-0.03289532661437988,-0.1871737837791443,-0.35612255334854126,0.34138622879981995,0.17842745780944824,-0.4517854154109955,-0.46501654386520386,-0.320605993270874,0.3771800696849823,-0.1306363046169281,0.5650970339775085,0.042086802423000336,-0.04203793779015541,-0.20230230689048767,-0.13124336302280426,0.28983792662620544,0.08997859060764313,0.1586037427186966,-0.10644800961017609,0.26884570717811584,-0.09808342903852463,-0.2186729907989502,0.2620779871940613,0.020194705575704575,-0.03933020681142807,-0.10166623443365097,-0.24991734325885773,-0.07203015685081482,0.18620404601097107,-0.16402263939380646,0.3697045147418976,-0.4892769157886505,0.5912994742393494,-0.2319238930940628,0.7776369452476501,0.36236995458602905,-0.16641217470169067,0.5700891017913818,1.0547804832458496,0.35815009474754333,0.997982919216156,-0.30804747343063354,1.0232088565826416,-1.280207872390747,0.8323912620544434,-0.9067597389221191,-0.34145861864089966,-0.6758704781532288,0.3610135018825531,0.06460864841938019,0.4433284401893616,-0.11624377220869064,0.017179099842905998,-0.18104958534240723,-0.092295803129673,0.17605376243591309,-0.026705419644713402,0.17664538323879242,-0.08544869720935822,0.20224203169345856,-0.12641967833042145,-0.23395630717277527,0.2896009385585785,-0.07332722097635269,-0.12467329204082489,-0.13522203266620636,-0.04962688311934471,-0.15384626388549805,0.19691979885101318,-0.13082575798034668,0.8493722081184387,0.06303512305021286,-0.29498106241226196,-1.1815093755722046,0.5565026998519897,0.07289072871208191,-0.41776910424232483,-0.12082302570343018,-0.0500461719930172,0.01712794601917267,-0.01109154149889946,-0.6512605547904968,-0.03115745261311531,0.22191572189331055,-0.0952024757862091,0.17805127799510956,-0.20678935945034027,0.10295598208904266,0.8603906631469727,-0.3874938189983368,0.2684331238269806,-0.1504480093717575,-0.14397083222866058,-0.2551271319389343,-0.3747159540653229,0.3212774097919464,0.11871262639760971,0.35442909598350525,-0.07549984753131866,0.27729567885398865,-0.14325226843357086,-0.2701362371444702,-0.3721171021461487,0.1380113661289215,0.05532262474298477,-0.4170091152191162,-0.20845754444599152,-0.20284418761730194,0.25484493374824524,-0.38233959674835205,0.9069780111312866,0.014868889935314655,-0.4014698565006256,-0.26029908657073975,-0.12513592839241028,0.12648437917232513,0.12201891839504242,0.04956453666090965,-0.0958203375339508,0.057102493941783905,-0.15103211998939514,-0.06597699970006943,0.1131632924079895,0.08924026787281036,0.10092101246118546,-0.2733508348464966,-0.2416050136089325,-0.016201194375753403,0.12761689722537994,-0.021292712539434433,0.3221316933631897,-0.304005891084671,-0.22411447763442993,0.06460104137659073,0.8943532109260559,0.25629758834838867,0.15356488525867462,0.3291918933391571,1.0557763576507568,0.24188725650310516,1.055041790008545,-0.13302738964557648,1.2131448984146118,-1.1426608562469482,0.46189942955970764,-0.24271346628665924,-0.293837308883667,-0.3154018819332123,0.1902831345796585,-0.029893849045038223,0.6599257588386536,0.07188516110181808,0.1634424924850464,-0.6096993088722229,0.2914392352104187,0.01388454344123602,-0.516537070274353,-0.08729477226734161,-0.30555370450019836,-0.043544329702854156,0.09433979541063309,-0.5183112025260925,-0.07598244398832321,0.235125333070755,0.039294105023145676,0.31425103545188904,0.009186769835650921,0.00522201182320714,0.5091097950935364,-0.29265096783638,-0.746867835521698,0.16335265338420868,0.46299582719802856,1.545425295829773,-0.8906898498535156,-0.4049086570739746,0.42758822441101074,-0.3473537266254425,-0.34970834851264954,-0.4066912829875946,-0.35702407360076904,0.7325063347816467,-0.45862728357315063,0.016500091180205345,-0.2874736487865448,0.1999891698360443,0.8184733986854553,0.41489434242248535,-0.9753245711326599,0.4020942151546478,-0.07264373451471329,-0.043872058391571045,-0.40833133459091187,0.01771141029894352,-0.6937432289123535,0.08360166847705841,-0.01123400405049324,-0.02388821914792061,-0.2720485329627991,0.08080703020095825,-0.33285585045814514,-0.11770420521497726,-0.6988129615783691,0.5905225276947021,-0.09110991656780243,-0.43288835883140564,-0.044604893773794174,0.020617354661226273,0.20023679733276367,-0.5221844911575317,-0.1366252452135086,0.3976706564426422,0.7945186495780945,-0.2587687075138092,0.27292653918266296,-0.3049955368041992,0.4128350615501404,-0.39372849464416504,-0.144065260887146,-0.2845681309700012,0.11929265409708023,0.34195730090141296,0.003310446161776781,-0.19002962112426758,-0.35892900824546814,0.4186468720436096,0.24234698712825775,0.2721728980541229,-0.23283548653125763,0.4350756108760834,-0.3561744689941406,0.05805366486310959,0.2701070308685303,0.22087866067886353,0.20216768980026245,-0.1853238195180893,0.011058315634727478,-0.19703072309494019,-0.07862627506256104,-0.27795010805130005,0.2324800193309784,-0.015348019078373909,-0.14831210672855377,0.04985196143388748,-0.021827463060617447,0.2457251250743866,0.2866610884666443,0.1883431226015091,-0.08586278557777405,0.21142882108688354,-0.440929114818573,0.15397873520851135,0.3061027228832245,0.15102164447307587,0.17722702026367188,-0.2653672993183136,-0.10908527672290802,-0.284898966550827,-0.003399551846086979,-0.3498009741306305,0.2464742362499237,0.1020248681306839,-0.1965661495923996,0.08091104030609131,-0.10314091295003891,0.35601237416267395,0.20263729989528656,0.19591468572616577,-0.1332540214061737,0.21634896099567413,0.4292430281639099,-0.21828892827033997,-0.2871832847595215,0.21324829757213593,-0.31989994645118713,0.15684399008750916,-0.03519630432128906,0.0836816355586052,0.07688438147306442,0.23826304078102112,-0.3230900466442108,-0.048888664692640305,-0.09855968505144119,0.12859755754470825,0.17467807233333588,-0.31800001859664917,-0.14422482252120972,-0.0949927568435669,0.18424181640148163,-0.22079379856586456,-0.06370777636766434,0.04729515314102173,0.287896990776062,-0.42011064291000366,0.5628750920295715,-0.12430845201015472,0.18032056093215942,-0.27634039521217346,-0.04302286356687546,0.02827608585357666,0.34537580609321594,0.06422638148069382,0.34253063797950745,-0.43642300367355347,-0.07824891805648804,0.16088320314884186,-0.044121142476797104,0.15523135662078857,0.4651505649089813,0.29005536437034607]},"cellActivationBias":{"rows":20,"columns":1,"weights":[-0.5960179567337036,1.3791552782058716,-0.3728727102279663,0.5436276197433472,-0.14189180731773376,-0.9200178980827332,0.9466052055358887,-0.639343798160553,0.2717936933040619,-0.9980815052986145,0.1417911797761917,1.4096436500549316,0.13634048402309418,-0.33692121505737305,-1.023589849472046,-0.665050745010376,-0.07255452871322632,0.606962263584137,-0.43766358494758606,1.4094982147216797]}},{"inputMatrix":{"rows":20,"columns":20,"weights":[0.0513174906373024,-0.10617955029010773,-0.16295866668224335,0.3884516954421997,-0.8075674772262573,0.1846356838941574,-0.8289755582809448,0.27247515320777893,-0.2383796125650406,0.28958016633987427,0.695395290851593,-1.024530291557312,-0.5230523347854614,0.3389643132686615,0.21702657639980316,-0.3444119691848755,0.06741760671138763,-0.2933496832847595,-0.3530023396015167,-0.5195253491401672,-0.16153083741664886,1.0741184949874878,-0.36817365884780884,0.23071719706058502,-0.07106916606426239,-0.41735079884529114,1.8023375272750854,-0.5972177386283875,0.08023986220359802,-0.20605285465717316,-0.7146157026290894,1.957602620124817,-0.003931567072868347,-0.8123120069503784,-0.8791506886482239,0.0712580680847168,-0.7070379257202148,0.654452919960022,-1.0979950428009033,1.0387390851974487,0.008116647601127625,0.462454229593277,-0.7491507530212402,0.021224357187747955,-0.22266262769699097,-0.15273088216781616,-0.4541284143924713,-0.19662432372570038,-0.21873347461223602,-0.3794863224029541,0.9322046637535095,-0.5809163451194763,-0.4199199080467224,0.20175082981586456,-0.2202371060848236,-0.8526027202606201,-0.2807424068450928,0.19244788587093353,-0.1380370706319809,-0.016382258385419846,-0.5877506732940674,-0.3925078213214874,0.04389076679944992,-0.3511205315589905,0.5048409700393677,-0.09140337258577347,1.0354373455047607,0.11788921058177948,0.7307239770889282,-0.04907817021012306,0.03105914779007435,0.8975304961204529,0.4612365663051605,-0.6632595062255859,-0.021729879081249237,-0.19895994663238525,0.028181858360767365,-0.1433883160352707,-0.16411034762859344,1.1651314496994019,-0.5264328122138977,0.37278831005096436,-0.6217279434204102,0.5007675886154175,-0.8123897314071655,-0.14216811954975128,0.013428657315671444,0.15984117984771729,0.2707841992378235,-0.21166880428791046,0.02015470154583454,0.41808760166168213,-0.3931995928287506,-0.22244326770305634,-0.17224812507629395,-0.5453605055809021,-0.2427053153514862,-0.18068726360797882,-0.7025681138038635,0.5738086104393005,-0.03922022134065628,-0.18743042647838593,-0.19750772416591644,0.048851434141397476,-0.10387634485960007,0.2690720856189728,-0.3237844705581665,0.39575499296188354,-0.16919073462486267,0.14937013387680054,0.5382530689239502,-0.7008789777755737,-0.34054553508758545,0.294956773519516,0.2094835788011551,-0.34522950649261475,0.07281502336263657,-0.2818068861961365,-0.15452739596366882,-0.34085553884506226,-0.16647984087467194,1.5230767726898193,-1.1652618646621704,0.20448119938373566,-0.3919569253921509,-1.035307765007019,0.8463058471679688,-0.7860692739486694,-0.6071513891220093,-0.967966616153717,-0.42519962787628174,1.3212804794311523,-0.5720117092132568,-0.2525780200958252,-1.0768059492111206,-0.1618550568819046,-0.7407107353210449,0.8483754992485046,-1.102016568183899,0.6146359443664551,-0.06565213948488235,-0.3665356934070587,-0.5954384803771973,0.18385131657123566,-0.32863879203796387,0.46759286522865295,0.014577158726751804,0.36713463068008423,-0.7742182612419128,0.5415292382240295,0.18008854985237122,0.01715068332850933,-0.10666248202323914,0.6194603443145752,0.3308686912059784,-0.23378150165081024,-0.031383782625198364,-0.3856031596660614,-0.34776949882507324,-0.7123340368270874,0.998076319694519,-0.8475709557533264,-0.7617781758308411,-0.29063960909843445,0.5250967144966125,0.6347526907920837,-0.10887451469898224,1.0005805492401123,0.7663209438323975,0.7424623966217041,0.8457140922546387,-0.2506716549396515,0.3121541440486908,-0.9013016223907471,0.8969725966453552,-0.8365483283996582,-1.2164138555526733,-0.981447696685791,0.09394530206918716,0.049697067588567734,0.5347413420677185,-0.7438116073608398,-0.4444155693054199,0.2704486548900604,0.14099104702472687,0.7591603398323059,-0.2913875877857208,0.9345046281814575,0.617770791053772,0.6152699589729309,0.5735223889350891,-0.26886847615242004,0.4980279803276062,-0.44296136498451233,1.1188554763793945,-0.6974753141403198,-0.548193633556366,-0.9245924949645996,0.03346288204193115,0.12373310327529907,-0.5864214897155762,-0.48283207416534424,-0.3520168662071228,-0.11930201947689056,0.41319984197616577,0.29829198122024536,0.2741541564464569,0.5924955010414124,0.574456512928009,0.40205737948417664,-0.15611860156059265,0.9683250784873962,-0.03442041948437691,-0.35248538851737976,0.31328219175338745,-0.474526047706604,-0.349297434091568,-0.5928499102592468,-0.41726747155189514,0.4606843888759613,-0.5240814685821533,0.22559942305088043,1.2767179012298584,0.8347060084342957,-0.19525928795337677,-0.24321973323822021,0.5291707515716553,0.03995661437511444,0.40383344888687134,-0.5370970964431763,0.48139795660972595,0.22797773778438568,0.061602625995874405,-0.4517394006252289,-0.33708715438842773,0.13326692581176758,0.417839378118515,-0.00906897522509098,-0.23881015181541443,1.2088117599487305,-0.47849538922309875,0.2567536532878876,0.08625473082065582,0.2692091464996338,-0.17732493579387665,-0.202628493309021,0.3911503255367279,0.026365051046013832,-0.20004093647003174,-0.1427733302116394,-0.18545883893966675,-0.014289104379713535,-0.5357927680015564,0.45789384841918945,-0.13108094036579132,-0.3719750940799713,0.19829270243644714,0.11119280755519867,-0.2078489065170288,0.28380852937698364,0.5132492184638977,0.23067493736743927,0.3440149128437042,-0.6427698135375977,0.7708009481430054,-0.053303830325603485,0.9221028089523315,0.04612991213798523,1.1816489696502686,-0.2592077851295471,1.010109305381775,-0.14427709579467773,0.5918177366256714,-1.0328842401504517,-0.04205214977264404,-0.15079282224178314,-0.3592115044593811,-0.17239618301391602,0.5045608282089233,1.043209433555603,-0.1495591700077057,0.7590606808662415,-0.8754656314849854,-0.1516195684671402,-0.0975487157702446,-0.26701807975769043,0.422025591135025,-0.23901377618312836,-0.300876259803772,-0.27564212679862976,-0.4692517817020416,0.5526007413864136,-0.5613350868225098,0.24630756676197052,-0.7553903460502625,-0.968796968460083,-0.15673205256462097,0.34773415327072144,-0.4332127571105957,0.026936642825603485,-0.5957162380218506,0.8625631332397461,0.8748586177825928,0.9968805313110352,-1.007723093032837,-0.7978587746620178,0.5556421875953674,-0.7921565175056458,-0.6964409947395325,-0.9300646185874939,-0.43544265627861023,0.7915973663330078,-0.14082491397857666,0.6317099332809448,-0.8153469562530518,1.222524642944336,0.9377530813217163,0.7542296648025513,-1.1147185564041138,0.9186643958091736,0.23243197798728943,0.1740228831768036,0.08302465826272964,-0.33469873666763306,0.6871669888496399,-0.031232252717018127,0.8888945579528809,0.04195207729935646,1.1981948614120483,-0.07740865647792816,0.9648857116699219,-0.0754123106598854,0.4992954730987549,-1.401282548904419,-0.019550714641809464,-0.39022913575172424,-0.586616575717926,-0.1848609298467636,0.18262013792991638,0.811961829662323,0.23163045942783356,0.442340612411499,-0.8976622223854065,-0.16022789478302002,0.38093259930610657,-0.09618500620126724,0.03704763203859329,-0.11943003535270691,0.0696350634098053,-0.11673030257225037,0.5540583729743958,0.12836752831935883,-0.2586847245693207,-0.15748655796051025,-0.30063435435295105,-1.0087858438491821,-0.55240398645401,0.1270633339881897,-0.02220746874809265,0.09341021627187729,0.4520488381385803,-1.1589618921279907,-0.37040266394615173,0.05536463111639023,-0.02174947038292885,0.46533143520355225,-0.15429678559303284,0.7560324668884277,1.08499014377594,0.6499656438827515,0.5962055325508118,-0.0020283162593841553,0.6267250776290894,-0.8591502904891968,0.887776792049408,-0.5759162902832031,-0.16069552302360535,-0.7008674740791321,-0.08321013301610947,0.19325676560401917,1.0307800769805908,-0.777671754360199,-0.34538567066192627,0.02577102743089199,0.14434371888637543,0.4609408974647522,-1.1169871091842651,0.4459569752216339,0.2958441972732544,0.34355905652046204,1.084268569946289,-0.4354788362979889,0.4899199903011322,-0.4095624089241028,1.0799962282180786,-0.4602305293083191,-0.05131053179502487,-0.5197744369506836,-0.08896884322166443,-0.7553716897964478]},"inputHidden":{"rows":20,"columns":20,"weights":[-0.5930743217468262,-1.333214521408081,0.2543598413467407,0.9660490155220032,1.140066385269165,-0.016543705016374588,1.7953312397003174,-0.31103524565696716,-1.09266197681427,0.7336091995239258,-0.2804463803768158,-0.7666453719139099,-0.7900194525718689,1.4134818315505981,0.04664638265967369,-0.3072472810745239,1.313545823097229,-0.6347628831863403,-1.3221168518066406,1.0761741399765015,-0.620328962802887,0.014178337529301643,0.10199988633394241,0.13754582405090332,0.14495089650154114,0.05666980519890785,-0.5958677530288696,-0.07472153753042221,0.4073799252510071,0.4317048192024231,-0.04299096018075943,-0.3308177888393402,-1.0373347997665405,-0.02812066487967968,0.8573707342147827,-0.19687683880329132,0.09138008952140808,-0.14646150171756744,0.36049461364746094,-0.56324303150177,-0.8245036602020264,-0.5426385402679443,-0.26013079285621643,0.8847486972808838,0.6436337828636169,0.037623852491378784,0.6016154289245605,-0.7294961214065552,-1.0977791547775269,0.5806652307510376,-0.15104390680789948,-0.9226517677307129,-0.8219502568244934,1.0755139589309692,-0.053898461163043976,-0.18981067836284637,1.0671584606170654,-0.006699954159557819,-1.2526154518127441,1.1338118314743042,0.08064514398574829,-0.09676433354616165,-0.6093771457672119,-0.8008165955543518,-0.7847195863723755,-0.25070178508758545,0.4198490381240845,-0.2909173369407654,0.6979846954345703,-0.9278223514556885,0.6626836657524109,1.7149943113327026,0.5255755186080933,-1.0597878694534302,-0.3388555645942688,-0.08174655586481094,-0.9808328747749329,0.612664520740509,0.910001814365387,-0.725891649723053,-0.9927114248275757,-0.3285498023033142,-0.2722673714160919,0.6547702550888062,0.656365156173706,0.7372886538505554,0.558167576789856,0.2327803373336792,-1.0491098165512085,0.2866934835910797,-0.12440811842679977,0.04952889308333397,-0.8215155005455017,1.2728315591812134,1.11496102809906,-1.0955901145935059,1.0083357095718384,0.453145831823349,-1.1678125858306885,1.06747305393219,0.16765953600406647,0.50278240442276,-0.18041926622390747,1.1205830574035645,2.020380973815918,-0.7218131422996521,0.6805800795555115,-0.287069708108902,-0.9158995747566223,-0.8738200664520264,-1.3550204038619995,0.8640590310096741,0.5894491672515869,1.101311206817627,-0.5846325159072876,-0.9137968420982361,1.0396010875701904,0.06630901992321014,-1.0805951356887817,1.108290672302246,-0.5742617249488831,0.0785401314496994,0.010006054304540157,0.6420390605926514,-0.27577096223831177,0.705703616142273,-0.5326108336448669,-0.008773614652454853,-0.287625789642334,0.9582855105400085,0.22404617071151733,-0.9768710136413574,-0.6170785427093506,0.18330422043800354,0.4588567018508911,0.975701630115509,-0.09432173520326614,-0.4175264537334442,-0.24552156031131744,-0.20163914561271667,-0.43579453229904175,0.881848931312561,-0.47987309098243713,0.3971063792705536,0.7263418436050415,0.36553531885147095,-1.4850354194641113,0.9011940956115723,-1.2185120582580566,0.39603060483932495,-0.24241755902767181,-1.4162933826446533,-0.491641640663147,0.8601464033126831,1.0237455368041992,-0.9070680737495422,1.4746880531311035,-0.7833631038665771,-1.1723703145980835,1.164337396621704,-0.21873821318149567,-0.6032612919807434,-0.7731407284736633,-0.10173773020505905,-0.004958237521350384,0.5748636722564697,0.038764648139476776,-0.26564347743988037,0.1461305469274521,0.11961633712053299,0.5549863576889038,0.5547816753387451,-0.35857272148132324,0.36691567301750183,-0.2986804246902466,-0.3389597535133362,0.3363485336303711,1.1595383882522583,-0.133564293384552,-0.5471705794334412,0.45876437425613403,-0.02639820985496044,0.8411014676094055,1.5862427949905396,1.5304120779037476,-1.5272196531295776,0.6390916109085083,-1.051068902015686,-0.2911546528339386,-0.7067088484764099,-1.276007056236267,0.8126277923583984,0.31828710436820984,1.3386125564575195,-0.447539746761322,-1.193993091583252,0.9530607461929321,0.888622522354126,-0.373330682516098,0.4357493221759796,0.035153765231370926,0.4585949778556824,-1.2059757709503174,0.01394362561404705,0.7058746814727783,-0.3806147873401642,0.2632070779800415,0.5411888957023621,-0.06395117938518524,-2.000102996826172,0.237396240234375,-0.09445755928754807,0.10876742750406265,-0.4452698826789856,-0.25285595655441284,-1.0992802381515503,-0.4396017789840698,1.3891792297363281,0.16907361149787903,0.2126087248325348,0.0946694165468216,-1.366681694984436,-0.6015698313713074,0.8687751293182373,-0.48234865069389343,-0.26733314990997314,1.6957818269729614,-0.8634667992591858,-0.7270846366882324,-0.42572665214538574,-0.6354320645332336,-0.1922532469034195,-0.06390535831451416,0.7920351624488831,-0.8316742181777954,0.447470486164093,0.8989554047584534,0.6748255491256714,-0.8011873960494995,0.5840181708335876,-0.3289763629436493,0.41681596636772156,-1.1717487573623657,0.6804938912391663,0.7196265459060669,-0.09277484565973282,-0.29746678471565247,0.6806827783584595,-0.8938401341438293,-0.4286065101623535,-0.2666354179382324,-0.7646450400352478,0.9049389362335205,0.8958667516708374,-0.49422547221183777,-0.26838135719299316,0.6230407357215881,1.068077802658081,-0.8994059562683105,0.9821944832801819,0.12705236673355103,-0.7205538153648376,0.06865779310464859,-0.12708362936973572,-0.3522546589374542,0.4695977568626404,0.46180710196495056,-1.2350836992263794,0.7385674715042114,0.6494225263595581,0.3666048049926758,0.5855470299720764,-0.7099289298057556,-0.3522401750087738,-0.5209052562713623,0.566525399684906,-0.11110376566648483,-0.08448126167058945,0.673958420753479,-0.8120992183685303,-1.4297864437103271,-0.37792253494262695,-0.6343721747398376,-0.7387079000473022,-1.1316965818405151,1.2311686277389526,0.12366054952144623,0.7376205921173096,-0.3023792803287506,-0.4878392517566681,1.5506592988967896,-1.5181078910827637,-0.166272833943367,-0.4369296133518219,-0.5541515946388245,-0.650875985622406,-0.48353102803230286,0.23808027803897858,-0.19507087767124176,0.4192478656768799,-0.756061315536499,-1.577623724937439,0.224015474319458,-0.10905299335718155,-0.46778252720832825,0.7820522785186768,0.8993020057678223,-0.0616733692586422,0.047831661999225616,0.18370112776756287,0.26480308175086975,0.5991700291633606,-1.1172950267791748,-0.24060215055942535,-0.22903192043304443,0.04208695888519287,0.1654764860868454,-0.11587712168693542,-0.03488725423812866,-0.1472928375005722,0.21312004327774048,-0.9710249900817871,-0.5186086893081665,0.07005307823419571,-0.6337997317314148,0.17882731556892395,0.5753284096717834,-0.96767258644104,0.496925950050354,0.7590445280075073,0.8679073452949524,0.6900696158409119,-0.8591858148574829,0.0716051235795021,-0.6010836958885193,0.4388062655925751,0.3500109314918518,0.4143248498439789,0.3467872142791748,-0.9963423013687134,-0.5319064855575562,-0.49894946813583374,0.1590626984834671,0.9335379004478455,0.9054428935050964,-0.58320152759552,0.7671379446983337,-1.2722052335739136,-0.7074934244155884,0.05432703346014023,0.008167472667992115,-1.06752347946167,-0.9499513506889343,0.48604947328567505,0.15867163240909576,0.25600099563598633,0.6012097597122192,0.006504627410322428,-0.9065677523612976,0.8973206877708435,0.0064340257085859776,-0.7167407274246216,-0.7208427786827087,0.06753366440534592,-0.37764981389045715,0.6047071218490601,0.2404959797859192,-0.45235612988471985,0.475323885679245,0.3584810197353363,0.6285693049430847,1.0467205047607422,-0.42509883642196655,0.7337373495101929,-0.6226034760475159,-0.0688789114356041,1.0060005187988281,1.1141759157180786,0.22900311648845673,-0.9437688589096069,0.13023728132247925,-1.0756081342697144,0.19927199184894562,0.6511247158050537,-0.3370104730129242,0.4768604040145874,0.7137624621391296,-0.22349566221237183,-0.2261679321527481,1.087451696395874,0.1207038015127182,0.08934732526540756,-1.2166993618011475,0.7013573050498962,-0.5574270486831665,-0.5282835960388184,0.6316540837287903,0.08464797586202621,-0.7783129811286926,0.3448903262615204]},"inputBias":{"rows":20,"columns":1,"weights":[-0.028519829735159874,0.8027291893959045,1.3776881694793701,0.19480076432228088,0.7096531987190247,0.3002395033836365,0.8369013071060181,-0.7819586992263794,0.5848296284675598,0.10014671087265015,1.3536311388015747,1.569478988647461,0.6128208637237549,0.7882775068283081,0.9317589998245239,-0.8856491446495056,0.7570956349372864,1.1854404211044312,0.27503907680511475,-0.3182964324951172]},"forgetMatrix":{"rows":20,"columns":20,"weights":[-0.3816584646701813,0.5330395102500916,0.6933467388153076,0.6246199607849121,-0.8400489687919617,-0.6064354181289673,0.2660956382751465,-0.5652531981468201,-0.12400238960981369,-0.4286680817604065,0.4139959514141083,0.2172904908657074,-0.1303141862154007,0.019956961274147034,-0.3570089638233185,0.550089955329895,0.6152112483978271,0.5528343319892883,-0.47751346230506897,0.3007022440433502,0.287899911403656,-0.7164009809494019,-0.027455037459731102,-0.8326594829559326,-0.2609468996524811,0.08285067975521088,-1.3456463813781738,0.030238386243581772,-0.18041592836380005,0.08492898941040039,0.18884220719337463,-1.1229331493377686,-0.22035063803195953,0.6170394420623779,0.4879923462867737,-0.6748670339584351,0.38848015666007996,-0.04354427382349968,0.558307945728302,-1.394010066986084,0.13969963788986206,-0.03162609413266182,-0.5300552248954773,-0.17478951811790466,0.047855179756879807,0.2638302445411682,-0.909317672252655,0.24246788024902344,-0.01516442559659481,0.12104925513267517,0.4035700261592865,-1.1919338703155518,-0.21271836757659912,0.2575001120567322,0.10253533720970154,-0.13367456197738647,0.02471393533051014,-0.3045423626899719,0.6407232880592346,-0.8209983706474304,-0.0502154566347599,-0.19407273828983307,0.21840298175811768,-0.6119872331619263,0.6503669023513794,0.5083972215652466,0.8401665091514587,0.5980852246284485,0.30428361892700195,0.6289587020874023,0.360148161649704,-0.18296891450881958,0.2804011404514313,-0.7631256580352783,-0.027842938899993896,0.3353121280670166,-0.7213278412818909,-0.5913525223731995,0.26783719658851624,0.4194072186946869,0.6471284627914429,-0.7938874959945679,-0.7644765377044678,-0.9774664044380188,0.8119421601295471,0.736278772354126,-0.8428419828414917,0.6003126502037048,0.08580386638641357,0.8240004181861877,0.4671514928340912,-0.7990299463272095,0.22841951251029968,-0.09726244956254959,0.8330049514770508,-0.6905584335327148,-0.8765933513641357,-0.7094950079917908,0.7139663696289062,-1.108154296875,0.4811066687107086,-0.18008720874786377,0.2888474762439728,0.1827617883682251,-0.27063319087028503,0.01115241926163435,0.17007501423358917,-0.14392401278018951,0.2281801998615265,-0.04433470591902733,1.0241109132766724,-0.15379250049591064,0.48134732246398926,-0.5462225675582886,0.46922481060028076,0.12751705944538116,0.18381845951080322,-0.003952534403651953,-0.29744386672973633,-0.16620390117168427,0.023073269054293633,-0.21255280077457428,-0.6679994463920593,-0.1969248205423355,-0.014185902662575245,0.4597589075565338,-0.3641737401485443,0.3054054379463196,-0.5024246573448181,0.4400891065597534,-0.007744023110717535,-0.1674928367137909,-0.37895601987838745,0.44761812686920166,0.40825217962265015,-0.42484694719314575,-0.34709879755973816,-0.2661435902118683,0.41660720109939575,-0.8280638456344604,0.04681853950023651,0.6987025737762451,0.2779501974582672,0.6079280376434326,-0.6883404850959778,-0.809048593044281,0.2998541295528412,-0.8005943298339844,-0.05614849552512169,-0.9403159618377686,-0.24400605261325836,0.9796687364578247,-0.35339224338531494,0.15269988775253296,-0.7844152450561523,0.07914537191390991,0.9151967167854309,0.8475489020347595,-0.42114055156707764,0.08946745842695236,-0.16194425523281097,-0.547673761844635,0.07763213664293289,-0.3458499312400818,0.6524311900138855,0.4852595627307892,0.19046947360038757,0.6066042184829712,0.7508199214935303,0.5330352187156677,0.21829208731651306,-0.2622343599796295,0.48440226912498474,-0.87350994348526,-0.06713233143091202,0.07062986493110657,-0.4784466326236725,-0.5808166861534119,-0.011530478484928608,0.3902261555194855,0.6856885552406311,-0.24530033767223358,0.04031216725707054,0.2276642769575119,-0.4316103756427765,0.009021073579788208,-1.314040184020996,0.05221705511212349,-0.41124895215034485,0.03789274021983147,0.9985522031784058,-1.365465760231018,-0.2112625241279602,0.3183712661266327,0.33658871054649353,0.21926631033420563,0.23191046714782715,-0.18500466644763947,-0.31405574083328247,-1.3673334121704102,0.03998393937945366,0.1178540587425232,0.20602060854434967,-0.7419270873069763,1.0952893495559692,0.3459864556789398,0.9124200940132141,0.43549004197120667,0.3406703770160675,0.19027185440063477,0.6409481167793274,-0.14579589664936066,0.4536612033843994,-0.9402029514312744,-0.17457997798919678,-0.07140450924634933,-0.7798883318901062,-0.33997219800949097,0.00794370099902153,0.659310519695282,0.4402296841144562,-0.3019492030143738,-0.18829499185085297,-0.9786745309829712,0.9896067380905151,-0.025403466075658798,-0.45428013801574707,-0.08586104959249496,0.9712114930152893,-0.12451207637786865,0.8817858695983887,-1.0004459619522095,0.37723416090011597,-0.8073101043701172,0.20552274584770203,0.006306232884526253,-0.5909391045570374,0.09968835860490799,1.0772844552993774,-0.5875102877616882,0.4657709300518036,-0.1376204788684845,0.15352481603622437,-0.2455415576696396,0.32798677682876587,-0.015097541734576225,0.03056911751627922,0.05607897788286209,0.33049696683883667,-0.053673915565013885,0.6987893581390381,-0.23264180123806,0.5023218393325806,-0.5192973017692566,0.2210669368505478,0.10104085505008698,-0.07823117822408676,-0.02448803186416626,0.24205122888088226,-0.08006490767002106,0.14081130921840668,-0.2819998264312744,0.07019402086734772,-0.6593611836433411,0.6635904908180237,0.693662703037262,0.5478762984275818,0.8266757726669312,0.5328664779663086,0.7580980062484741,0.5728435516357422,-0.5185060501098633,0.49132394790649414,-0.9821150898933411,0.1255512237548828,0.32349616289138794,-0.831978976726532,-0.7058597803115845,0.1610385775566101,0.5990390777587891,0.3464012145996094,-0.5003530979156494,-1.0088337659835815,-0.02796514518558979,0.0357777401804924,0.6336827874183655,-1.8039969205856323,0.8261843323707581,0.6137638092041016,0.4572505056858063,0.6055184602737427,-0.8067867755889893,0.8357787132263184,-0.3143148422241211,0.5304616689682007,-1.0226126909255981,-0.7105668187141418,-0.6675469279289246,0.45057088136672974,-0.5551307201385498,0.2718662619590759,0.6957697868347168,-0.22914890944957733,0.5058948993682861,-0.4293101131916046,-0.43980610370635986,-0.3316637873649597,-0.4706936180591583,-0.1376020312309265,-0.4400952458381653,-0.024946575984358788,0.36763307452201843,-0.37370213866233826,0.1341930627822876,-0.3212259113788605,-0.218725323677063,0.29298871755599976,0.31484922766685486,-0.1160685271024704,-0.07184625416994095,0.08309448510408401,-0.4838486611843109,0.40018048882484436,0.48467427492141724,-0.13039767742156982,0.4270184636116028,-0.5120370984077454,0.6027116179466248,0.9566174149513245,0.027322979643940926,0.6413513422012329,-1.0280851125717163,1.1741700172424316,-0.3620426654815674,0.49302348494529724,0.4697849750518799,-0.13854087889194489,-0.63831627368927,0.4491545557975769,0.13302986323833466,0.012474576011300087,0.20055978000164032,-0.38661280274391174,-0.05443580821156502,0.09418173134326935,0.0028441089671105146,-1.2034498453140259,-0.006591923534870148,-0.369313508272171,0.06296060234308243,-0.03758630529046059,-0.9266064763069153,-0.4391321837902069,0.5973894596099854,-0.08394227176904678,-0.273712694644928,0.10108102113008499,-0.10035800188779831,0.07701636850833893,-0.4539329707622528,0.07848399132490158,-0.9138140082359314,-0.19220004975795746,-0.41523486375808716,-0.08890967071056366,0.7204914093017578,-0.2809605896472931,0.8685072660446167,0.5498815178871155,0.7052881121635437,0.4853809177875519,-0.8858854174613953,0.7121957540512085,-0.8550285696983337,0.474489688873291,-0.01928803324699402,-0.5742209553718567,-0.8379948139190674,-0.04480373114347458,-0.007287669461220503,-0.13742394745349884,-0.37101468443870544,0.3458248972892761,-0.1864837259054184,0.5479182004928589,0.22176627814769745,0.2651035189628601,0.3460083603858948,0.8728774189949036,0.20926207304000854,0.256620854139328,-0.4472881555557251,0.902571439743042,-0.8716035485267639,-0.17729732394218445,0.4714007079601288,0.02160642482340336,-0.31310683488845825,0.3526290953159332,0.4314271807670593]},"forgetHidden":{"rows":20,"columns":20,"weights":[-0.030617520213127136,-1.2128807306289673,-0.10217469930648804,0.2711990475654602,0.4090331196784973,-0.34081488847732544,1.1390167474746704,-0.746910035610199,0.07216402888298035,-0.2893862724304199,-0.28287431597709656,-0.6620096564292908,-0.058097366243600845,0.22402143478393555,-0.6762771010398865,0.32036808133125305,0.31234630942344666,0.19748838245868683,-0.02414325252175331,-0.1849318891763687,0.6850757598876953,0.03680640459060669,0.1190347746014595,0.4564044773578644,0.27422046661376953,-1.1278692483901978,0.49971669912338257,-0.4181450605392456,-0.9482570886611938,-1.1311373710632324,-0.9210288524627686,-1.2295794486999512,1.0866409540176392,0.30546194314956665,-1.266676425933838,1.1267139911651611,0.3119976818561554,-0.15827852487564087,-0.695103108882904,0.8810665607452393,-0.020901639014482498,1.6037551164627075,-0.24551130831241608,0.5059722065925598,1.7998602390289307,-0.4342042803764343,-0.5069239735603333,-0.5684527158737183,-0.7665348052978516,-0.6107009053230286,-0.6592042446136475,-0.5694302320480347,0.49207255244255066,0.895473301410675,-0.20232421159744263,-0.8322130441665649,0.7650923132896423,0.04166609048843384,-0.9602088928222656,0.9805161952972412,-0.1791500598192215,0.006151930429041386,0.16411706805229187,-0.4958547055721283,0.062268421053886414,0.11299815028905869,-0.5686532258987427,-0.47316068410873413,0.5254203677177429,0.1058911606669426,0.3104572594165802,0.4677000045776367,-0.19629012048244476,-0.5806258916854858,0.5659880042076111,0.06580877304077148,-0.6245080828666687,-0.36107227206230164,0.6068586707115173,-0.5846987962722778,0.7248895168304443,0.49777981638908386,0.1634037345647812,-0.20467384159564972,-0.2741928696632385,-0.8703007698059082,-0.4287901520729065,-0.4394006133079529,0.3575119972229004,-0.4250231981277466,-0.23266884684562683,-0.3070785105228424,0.9986405968666077,-1.1587159633636475,-0.6454724669456482,1.2288501262664795,-1.3175902366638184,-0.76153564453125,0.3882701098918915,-0.3053547739982605,0.3054080009460449,-0.06338010728359222,-0.5705066919326782,-0.00022547920525539666,-0.278975248336792,0.43240880966186523,-0.9229862093925476,-0.5444350242614746,0.6904728412628174,0.9396103620529175,0.11797121912240982,-0.3935292661190033,-0.13950464129447937,0.8911845088005066,0.4716508388519287,0.2961161434650421,0.21885783970355988,0.2077033668756485,0.384717732667923,-0.9150473475456238,0.31272467970848083,-0.268204927444458,-0.33987322449684143,-0.10279267281293869,-0.39857563376426697,-0.8881930708885193,0.4192584455013275,-0.4087897837162018,-0.17149829864501953,-1.2073390483856201,0.5709686279296875,0.6263592839241028,0.27220162749290466,0.19454719126224518,-1.5156389474868774,0.47570401430130005,0.3658148944377899,0.4712347090244293,-0.020154153928160667,0.146780326962471,-0.3181225061416626,-1.0892595052719116,-0.0007137763896025717,0.2732815444469452,-0.9165729284286499,0.6099311709403992,0.6250745058059692,0.7552879452705383,-0.14242418110370636,0.31423741579055786,0.3501332700252533,-0.7286900877952576,-0.2026914656162262,-0.13318638503551483,-0.21318919956684113,0.011024449951946735,-0.23010143637657166,-0.22133663296699524,-0.05659253150224686,0.06806304305791855,0.12288878113031387,-0.7524173259735107,-0.2158537358045578,-0.1914733201265335,-0.7797839045524597,0.13560841977596283,0.3332582414150238,-0.5600267052650452,0.45996609330177307,0.33059215545654297,0.7617089152336121,0.6413688063621521,-0.45210209488868713,-0.27388519048690796,-0.5815846920013428,0.45579656958580017,-0.27407580614089966,0.3883630633354187,0.40671348571777344,-0.5012126564979553,0.7256109118461609,-0.3431931734085083,-0.5738834738731384,0.2907782793045044,-0.02191811241209507,0.4690244793891907,-1.298917293548584,-0.7509731650352478,-0.5591015815734863,0.10534108430147171,1.2370502948760986,0.43537044525146484,-0.14957047998905182,1.4107508659362793,0.3800068199634552,0.6532824039459229,0.9263275265693665,0.17426306009292603,-0.7197787761688232,0.3372204899787903,-0.7960254549980164,-0.11630557477474213,1.627187728881836,-0.5136560797691345,0.4967131018638611,-0.4673870801925659,0.02473902516067028,-0.21068985760211945,-0.15464305877685547,-0.05282270908355713,-0.16029176115989685,-1.0395500659942627,-0.6395028829574585,-0.8476909399032593,0.21087419986724854,-0.15074114501476288,-0.5794962048530579,-1.6903901100158691,-0.06271237879991531,0.28448760509490967,-0.3284289836883545,0.4811732769012451,1.1416507959365845,-0.09729143232107162,-0.4406268894672394,0.14611321687698364,-0.6315484642982483,-1.3803791999816895,0.47215330600738525,0.701435387134552,-0.7269077301025391,-0.37153810262680054,0.09403950721025467,-0.8682544827461243,0.43959173560142517,1.2616297006607056,-0.9744450449943542,-1.2149255275726318,0.5090960264205933,-0.42852964997291565,-0.01774669624865055,-0.41977745294570923,0.478223979473114,0.12018337845802307,0.681382417678833,-0.5229163765907288,1.6717084646224976,-0.8255043625831604,0.2833509147167206,-0.6045528650283813,-0.9569307565689087,1.3589040040969849,-0.08973436057567596,0.1937466412782669,-0.5547797083854675,-0.024232961237430573,0.7367165088653564,-0.1830153912305832,0.40816178917884827,-0.20172110199928284,-0.18963907659053802,0.2363014817237854,0.17193938791751862,-0.5802232027053833,0.5049138069152832,-0.038446445018053055,-0.5358424186706543,-0.5132669806480408,0.43135693669319153,-0.12275407463312149,0.4254167377948761,0.9769026637077332,-0.21956413984298706,-0.27578553557395935,0.44146448373794556,-0.5959257483482361,-0.3265811800956726,-0.1167423278093338,0.5420540571212769,-0.3152284026145935,0.5648881196975708,-0.5793209075927734,0.06564441323280334,1.0411405563354492,-0.3033285439014435,-0.2674730718135834,0.4556678831577301,-0.5486452579498291,-0.26501044631004333,1.4870349168777466,-0.6067109704017639,0.7222982048988342,-0.36427491903305054,1.2990736961364746,-0.2745925188064575,-0.1422797590494156,0.6875281929969788,0.2324739247560501,-0.4165180027484894,0.19264346361160278,-0.4421943128108978,-1.1379626989364624,0.34890681505203247,0.2846682071685791,-0.8722391128540039,0.2974603474140167,1.41390061378479,0.5321069955825806,-0.6094889640808105,0.04619633033871651,0.24335968494415283,-0.29597121477127075,-0.4065864086151123,0.03508693724870682,-0.8545538187026978,-0.4832639694213867,0.1561596393585205,-0.14877066016197205,-0.39138707518577576,0.555453360080719,1.0024240016937256,-0.08436088263988495,0.7198002934455872,0.6934561729431152,0.3972237706184387,-1.1866971254348755,1.118769884109497,-1.5626270771026611,-0.004006952978670597,0.32285597920417786,-0.4950885474681854,1.3821227550506592,0.0015543983317911625,0.3109588921070099,-1.074366807937622,-0.8759758472442627,0.37606579065322876,-0.08685380965471268,-0.012496788054704666,-0.03783086687326431,0.19083328545093536,0.9868815541267395,-0.30646541714668274,0.5581716299057007,1.4520996809005737,-0.995863676071167,-0.7558122277259827,-0.43605712056159973,-0.680651843547821,-0.5910933613777161,-0.25798681378364563,-0.9784612059593201,0.6567322015762329,0.34925782680511475,0.32757705450057983,-0.31442180275917053,0.4236982762813568,0.2983095943927765,-0.9132043719291687,0.9078935980796814,-0.3891060948371887,-0.18138109147548676,0.07023017853498459,-0.1335470974445343,-0.5124775171279907,0.5098704695701599,-0.10391496866941452,-0.12011988461017609,0.03437021002173424,0.5339646935462952,0.8171157240867615,0.6854048371315002,-0.46888110041618347,0.11316397786140442,-0.13968807458877563,-0.5298416614532471,-0.19531677663326263,0.1305130273103714,0.09082730859518051,-0.29604434967041016,0.5121618509292603,-0.4653385579586029,0.013433036394417286,-0.15988177061080933,-0.6409966349601746,-0.40550413727760315,0.2889268100261688,-0.7524491548538208,0.6473490595817566,0.49888962507247925,0.5393484234809875,0.9745558500289917,0.040465906262397766,-0.41856053471565247,-0.5424318909645081,0.6995207667350769,-0.5962458848953247,-0.2842349708080292,0.5207230448722839,-0.6560382843017578]},"forgetBias":{"rows":20,"columns":1,"weights":[0,0,0,0,0,0,0,0,0,0,0,0,0,0,0,0,0,0,0,0]},"outputMatrix":{"rows":20,"columns":20,"weights":[0.0664268434047699,-0.419709175825119,-0.6115418672561646,0.2784264087677002,-0.8467534184455872,0.42645493149757385,-0.88379967212677,0.6159656643867493,0.014453675597906113,0.6206732392311096,0.9807722568511963,-0.47451460361480713,-0.3056442141532898,0.21193431317806244,0.4980175197124481,-0.5587112307548523,-0.16143669188022614,-0.6093003153800964,-0.2568430006504059,-0.7910294532775879,0.25681883096694946,0.7939453125,-0.8560947775840759,-0.12063460052013397,0.22378914058208466,-0.05557416379451752,1.1138240098953247,-0.3455967903137207,-0.30877944827079773,0.055602606385946274,-0.38165178894996643,1.0833433866500854,0.05113241448998451,-0.727638304233551,-0.5123635530471802,-0.2539542615413666,-1.6666003465652466,0.4505418539047241,-1.1362208127975464,0.42974987626075745,0.38215985894203186,0.5907896161079407,-0.8344480395317078,0.0725669339299202,-0.37668001651763916,-0.18432587385177612,-0.66302889585495,-0.11626482754945755,-0.02225923351943493,-0.29745617508888245,0.8191920518875122,-0.7154540419578552,-0.41959574818611145,0.08072510361671448,-0.18180955946445465,-0.8873499035835266,-0.28467994928359985,0.07440893352031708,-0.3146935701370239,-0.39187055826187134,-0.884231686592102,-0.25865986943244934,0.3513554036617279,-0.5102489590644836,0.8728230595588684,-0.0352354496717453,1.038311243057251,0.23759835958480835,0.7459893822669983,-0.10212556272745132,0.2692546546459198,0.7827386260032654,0.7407019138336182,-0.8584158420562744,-0.29942306876182556,0.20875562727451324,0.06779569387435913,-0.27101537585258484,-0.24387195706367493,1.174607753753662,-0.31908974051475525,0.27834197878837585,-0.7451815605163574,0.48970827460289,-0.7251869440078735,0.007402066141366959,-0.09798290580511093,0.21377341449260712,0.0167964119464159,-0.026338005438447,0.4952499270439148,0.07949523627758026,-0.20590068399906158,-0.22473101317882538,-0.03760185092687607,-0.84941166639328,-0.5883336067199707,-0.3400943875312805,-0.5744914412498474,0.31614455580711365,0.20377004146575928,0.03918580338358879,-0.03891884908080101,0.3809433579444885,-0.6267302632331848,0.03260289505124092,-0.4553500711917877,0.11888030916452408,0.025067703798413277,0.0839512050151825,1.082455039024353,-1.2965362071990967,-0.3736498951911926,0.20624344050884247,0.017679421231150627,-0.21526089310646057,0.15376172959804535,-0.18480274081230164,-0.432358056306839,-0.5446436405181885,-0.09792020171880722,1.522696614265442,-1.1584669351577759,0.21977028250694275,-0.15489566326141357,-1.0099461078643799,0.6668794751167297,-0.7200196981430054,-0.46824488043785095,-0.9588598012924194,-0.41916942596435547,1.3417338132858276,-0.5511826276779175,-0.2914315164089203,-1.2106798887252808,-0.25962311029434204,-0.8265659809112549,0.8647179007530212,-1.071054220199585,0.411730021238327,0.12743321061134338,0.0586150698363781,-0.5866689085960388,0.41497233510017395,-0.30323803424835205,-0.1414693295955658,-0.010370294563472271,-0.2520010471343994,-0.5209254622459412,-0.08931410312652588,0.49100977182388306,0.06491881608963013,0.02272021770477295,0.1648510992527008,-0.12261813879013062,-0.35337933897972107,0.294327974319458,0.19689105451107025,-0.5212445259094238,-0.0635601282119751,1.0615988969802856,-1.2791444063186646,-1.2503384351730347,-0.43273085355758667,0.4946841597557068,0.8888849020004272,-0.08295087516307831,1.1319913864135742,0.9310795664787292,1.0290776491165161,0.797746479511261,-0.2151917964220047,0.5188517570495605,-1.5905359983444214,1.1124460697174072,-1.2439897060394287,-1.359492301940918,-1.108285903930664,-0.10167517513036728,-0.07644695043563843,0.26994964480400085,-0.7584102749824524,-0.4387313425540924,0.7861483693122864,-0.5793294906616211,0.7273165583610535,-0.27037638425827026,0.885827362537384,0.637560248374939,0.6011906266212463,0.6242356896400452,0.29235950112342834,0.31009379029273987,-0.3707351088523865,0.9886351227760315,-0.7177509665489197,-0.4765882194042206,-0.92454993724823,-0.6063987612724304,-0.1894373744726181,0.0699935331940651,0.0022020386531949043,-0.7277361154556274,-0.2024853676557541,0.2847866117954254,0.2768925428390503,0.4235501289367676,0.7130826115608215,0.6782345771789551,0.21590518951416016,0.57587730884552,0.08324016630649567,-0.06351374834775925,-1.1508346796035767,-0.038200635462999344,-0.5366330742835999,-1.0664935111999512,-0.5600186586380005,-0.37115320563316345,0.5847209095954895,-0.6160846948623657,0.3138432800769806,0.934208869934082,0.633272647857666,0.11307983845472336,-0.4806027114391327,0.38100558519363403,0.03759414330124855,1.1107418537139893,-0.6593458652496338,0.9083153009414673,0.1162056252360344,0.46942588686943054,-1.0564353466033936,-0.3923676609992981,-0.21665912866592407,0.22524023056030273,-0.04611967131495476,-0.23026689887046814,0.7918960452079773,-0.0911131203174591,0.08339361846446991,-0.0965871587395668,0.34857743978500366,-0.35155799984931946,0.028757860884070396,-0.11868977546691895,0.15038254857063293,0.12392646819353104,0.009422048926353455,0.8499397039413452,-0.5747653841972351,-0.21950902044773102,0.08408377319574356,0.009648035280406475,-0.42166268825531006,0.022969981655478477,-0.03741608187556267,-0.2945452928543091,-0.14285549521446228,0.39692002534866333,0.32262134552001953,0.45118430256843567,-1.1671905517578125,1.1384892463684082,-0.04539120942354202,0.8290957808494568,0.13892748951911926,1.4883029460906982,-0.26737818121910095,1.0009526014328003,-0.3315473198890686,1.0411043167114258,-1.62018620967865,-0.23327964544296265,0.1982918381690979,-0.6331321001052856,-0.046341266483068466,0.6622607707977295,1.2365528345108032,0.507315993309021,0.14526864886283875,-1.7966221570968628,-0.2301306128501892,0.2836015522480011,0.4271746575832367,-0.14856335520744324,0.3724537193775177,0.3761847913265228,0.3672790825366974,0.5084877014160156,0.20461490750312805,-0.11405812948942184,-1.010113000869751,-0.03311200812458992,-1.7007882595062256,-1.2480741739273071,-0.24958336353302002,-0.2032393217086792,-0.3206934928894043,-0.31194305419921875,0.8531814217567444,0.4018442928791046,1.28217613697052,-0.8727462887763977,-0.8085885643959045,0.524869441986084,-0.7150745391845703,-0.751247227191925,-1.0432955026626587,-0.15122734010219574,0.6107959747314453,-0.193836972117424,0.5517920255661011,-0.8498071432113647,1.2393234968185425,1.012422800064087,0.6628546118736267,-0.8509249687194824,0.8206504583358765,-0.10735401511192322,-0.00555712915956974,0.16384567320346832,-0.34587767720222473,0.6883673071861267,0.018170105293393135,0.9934137463569641,0.1934489756822586,1.386125087738037,-0.2537795901298523,0.7476661205291748,0.09569970518350601,0.690200686454773,-1.450480341911316,-0.07151737064123154,-0.38230714201927185,-0.6686142086982727,-0.2120615541934967,0.07931315898895264,0.9797550439834595,0.30210933089256287,0.40087103843688965,-1.1584868431091309,-0.1380128562450409,0.1478273868560791,-0.19150926172733307,-0.19028691947460175,-0.11864171177148819,0.07520273327827454,-0.1614270955324173,0.43303653597831726,-0.1483180820941925,-0.13694219291210175,-0.2870798408985138,-0.3660541772842407,-1.0707777738571167,-0.4407255947589874,0.09229806810617447,-0.20231854915618896,-0.0596039779484272,0.26794567704200745,-1.339202642440796,-0.31245675683021545,-0.03407246991991997,-0.0575072318315506,0.685333788394928,-0.05558786913752556,0.964626669883728,1.1798216104507446,0.815417468547821,0.5983756184577942,-0.1875288039445877,0.8633849620819092,-1.01967191696167,0.9834396243095398,-0.5515758991241455,-0.2572162449359894,-1.0384730100631714,-0.25791436433792114,0.19134736061096191,0.8055447936058044,-1.6927450895309448,-0.5933374762535095,0.08636855334043503,-0.06428734213113785,1.1040384769439697,-0.8724650144577026,1.2743680477142334,0.9632744193077087,1.0978351831436157,0.7232843041419983,-0.28387996554374695,1.137852430343628,-0.4283697009086609,1.5429214239120483,-0.5749182105064392,0.07370826601982117,-1.2477877140045166,-0.12959669530391693,-0.9747114777565002]},"outputHidden":{"rows":20,"columns":20,"weights":[-0.30990585684776306,-1.0139307975769043,-0.517707109451294,0.7578327655792236,0.8477317094802856,-0.22702418267726898,1.8640739917755127,-0.6355761289596558,-0.9428313970565796,-0.06632085144519806,-0.12931066751480103,-0.7287361025810242,-0.13489416241645813,1.3219149112701416,-0.5567634105682373,-0.2198495715856552,1.3368229866027832,0.07236947119235992,-1.205053687095642,0.8130390644073486,-1.0213713645935059,0.15849915146827698,0.3058268427848816,0.16218866407871246,0.45651909708976746,-0.01204230822622776,-0.5485230684280396,0.07879795879125595,0.06051790341734886,0.7212159633636475,-0.49443319439888,-0.6176465749740601,-0.8046275973320007,0.17995043098926544,1.3466742038726807,-0.5601239204406738,0.08178236335515976,-0.28180861473083496,-0.26316264271736145,-0.16983112692832947,-0.4990774989128113,-0.5033929347991943,-0.10418142378330231,1.1112746000289917,0.5622566938400269,-0.28687527775764465,0.3129459619522095,-1.392224669456482,-1.0905297994613647,0.3528687655925751,-0.16200703382492065,-0.7639238238334656,-0.4241936206817627,1.2455936670303345,-0.12292807549238205,-0.22824235260486603,1.0673332214355469,-0.11812121421098709,-1.2361533641815186,1.1539959907531738,0.024809177964925766,-0.20336328446865082,-0.3545295000076294,-0.7641736268997192,-0.7364336848258972,0.0014523175777867436,0.21226076781749725,-0.622027575969696,0.6102828979492188,-0.9933497309684753,0.697616457939148,1.17312753200531,0.29002875089645386,-1.0956045389175415,-0.1190812960267067,-0.08623605221509933,-0.9827640056610107,0.43757522106170654,0.915884792804718,-0.7133132815361023,-1.0832003355026245,-0.24401693046092987,-0.2311762273311615,0.7467243075370789,0.7637957334518433,0.6849894523620605,0.34583839774131775,-0.012525864876806736,-1.205483078956604,0.19108153879642487,-1.3186992406845093,-0.18364740908145905,-0.8004215955734253,1.711108922958374,0.9956943988800049,-1.1066107749938965,1.4159331321716309,0.559891402721405,-1.8776754140853882,1.1145474910736084,0.08298607915639877,-0.0008363311644643545,-0.18542902171611786,1.0162310600280762,1.7620400190353394,-0.45590460300445557,0.47287890315055847,-0.31369999051094055,-1.0092307329177856,0.1676774024963379,-0.9086504578590393,0.7389670610427856,0.35200557112693787,1.3219285011291504,-0.35848352313041687,-0.7896630167961121,1.2343494892120361,0.3323095738887787,-1.2906615734100342,1.2433034181594849,-0.6363031268119812,-0.2910486161708832,0.13011184334754944,0.25244906544685364,-0.640845537185669,0.7147091627120972,0.158572256565094,0.13917796313762665,0.09188026934862137,0.5849435329437256,0.23320414125919342,-0.13843001425266266,-0.9736518263816833,0.4963953197002411,-0.29935529828071594,0.6133015751838684,0.29276156425476074,0.09703787416219711,-0.014675995334982872,-0.13808315992355347,-0.6824547052383423,0.2341722697019577,0.09090615063905716,0.46066156029701233,-0.03688253462314606,0.6927987337112427,-1.1397202014923096,0.3522942364215851,-0.9260886311531067,1.314573884010315,-1.166969895362854,-1.5723825693130493,-0.7521728277206421,0.8926088213920593,1.8523086309432983,-1.1748744249343872,1.0551865100860596,-0.975346028804779,-1.5897661447525024,0.9767064452171326,-0.14412878453731537,-0.5678945183753967,-0.6603624820709229,0.005964618641883135,-0.1087140440940857,0.4208902418613434,0.11370258033275604,-0.255429744720459,0.2904070317745209,0.2653951942920685,0.7992450594902039,0.9303809404373169,-0.29842016100883484,0.683468759059906,-0.26358893513679504,-0.08267189562320709,0.4117854833602905,1.203694462776184,0.06842896342277527,-0.8869747519493103,0.398576945066452,-0.5238077640533447,-0.10677870362997055,1.19841730594635,0.9068243503570557,-0.9550392627716064,0.4204535484313965,-0.38217759132385254,-0.5086179971694946,0.2742859125137329,-0.8123283982276917,-0.014967258088290691,-0.5556901097297668,1.1553924083709717,0.30919453501701355,-1.3429213762283325,1.0264711380004883,1.2086750268936157,-0.6158976554870605,0.40309277176856995,-0.6323554515838623,0.057339392602443695,0.22561070322990417,-0.2563578188419342,0.7513323426246643,-0.5389913320541382,0.8468698859214783,-0.561232328414917,-0.4087670147418976,-1.465660810470581,-0.1723092794418335,0.8239206671714783,-0.300265908241272,-0.1309514194726944,-0.2563464641571045,-1.3865989446640015,0.011704337783157825,0.39309751987457275,0.06876014173030853,0.3518083393573761,-0.09671618044376373,-1.3764967918395996,-0.7556982636451721,0.33567318320274353,-0.6856831312179565,-0.0799221396446228,1.9881051778793335,-1.3960531949996948,-0.2741556465625763,0.24977466464042664,0.10144466906785965,0.49159732460975647,-0.6322384476661682,0.31556954979896545,-1.4361355304718018,0.7522091269493103,0.8370038866996765,0.798774242401123,-0.2853216528892517,0.04883607476949692,0.2252526581287384,0.11333382874727249,-0.8007217645645142,1.1695356369018555,1.173032283782959,-0.5439375638961792,0.34750232100486755,-0.10666840523481369,-0.9560769200325012,0.025958893820643425,-1.386003851890564,-0.16965168714523315,0.6023605465888977,1.1973483562469482,-0.3929227292537689,-0.11252140998840332,1.0262916088104248,0.7493653893470764,-1.1399949789047241,0.8216286897659302,-0.05121859535574913,-0.00760210957378149,0.23326964676380157,-0.5764919519424438,0.2544221580028534,0.044781845062971115,-0.12735773622989655,-1.4719398021697998,0.7481481432914734,0.30064013600349426,0.28690576553344727,0.7482443451881409,-0.306850790977478,-0.664467453956604,0.2228710949420929,-0.2852189242839813,-0.5334599018096924,-0.36704137921333313,0.6729426980018616,-0.9036392569541931,-1.021438479423523,-0.5830135941505432,0.316902220249176,-0.055395614355802536,-0.8749989867210388,0.5361999869346619,0.36343201994895935,-0.16452327370643616,-0.12469036132097244,0.7206425070762634,1.0592882633209229,-0.3922971189022064,-0.9745016694068909,0.2281980961561203,-0.19600297510623932,-0.17294932901859283,0.06554114073514938,-0.18076182901859283,-0.2097509354352951,0.2548826336860657,-0.3716259300708771,-1.8665763139724731,0.42362257838249207,-0.05962573364377022,-0.45366883277893066,0.49700695276260376,1.171306848526001,-0.38922572135925293,0.06437243521213531,-0.12198055535554886,0.25988489389419556,0.4111712872982025,-1.0218805074691772,-0.21332494914531708,-0.3906759023666382,-0.2673042118549347,0.4942370653152466,-0.3095701336860657,0.055483099073171616,-0.2302168756723404,0.07665664702653885,-0.9751362204551697,-0.7802509069442749,0.00026182414148934186,-0.7873769998550415,0.12807799875736237,0.8586145043373108,-0.9914846420288086,0.5974628329277039,0.8089644312858582,0.8376164436340332,0.8560867309570312,-0.723314642906189,-0.03149861842393875,-0.6369416117668152,0.1495649814605713,0.08507991582155228,0.6082573533058167,0.5627238750457764,-1.0453099012374878,-0.7335455417633057,-0.1792670637369156,0.24606406688690186,0.9300607442855835,0.8608182072639465,-0.7340364456176758,0.40048590302467346,-1.7362579107284546,-0.783628523349762,0.07555536925792694,-0.027882421389222145,-0.9138779640197754,-0.6316787600517273,0.6803563833236694,0.3850303888320923,-0.22104227542877197,0.5417718887329102,0.05456775054335594,-0.9800887107849121,0.742834746837616,-0.2034338265657425,-0.6246378421783447,-0.6127917170524597,-0.03510275483131409,-0.45923423767089844,0.48978298902511597,0.04207370802760124,-0.31905072927474976,0.1528608351945877,0.5513972640037537,1.0307879447937012,1.1285046339035034,-0.42314863204956055,0.7110820412635803,-0.39171943068504333,-0.3457459509372711,0.5041086077690125,1.1034356355667114,0.20197410881519318,-0.659758985042572,-0.13436272740364075,-0.8711382150650024,-0.3082695007324219,0.3114611804485321,-0.7701206207275391,0.6954047679901123,0.5878682732582092,0.1677287071943283,-0.2678918242454529,0.5322308540344238,0.8680654764175415,0.7489998936653137,-0.6528191566467285,0.6055245995521545,-0.7752846479415894,-0.02854745462536812,0.600621223449707,0.5925403833389282,-0.2774932384490967,0.029109366238117218]},"outputBias":{"rows":20,"columns":1,"weights":[-0.04351425915956497,0.9176445007324219,1.6718729734420776,0.316904217004776,0.7971412539482117,0.3113920986652374,0.9307515025138855,-0.7435031533241272,0.49012240767478943,0.10072805732488632,1.0901304483413696,1.4286482334136963,0.645006000995636,0.7685558795928955,1.1688461303710938,-0.9847888946533203,0.865217387676239,1.3237191438674927,0.37611275911331177,-0.32182449102401733]},"cellActivationMatrix":{"rows":20,"columns":20,"weights":[0.8623422980308533,-0.7252183556556702,-0.5434514880180359,-0.7023773789405823,0.7630395293235779,0.3285214304924011,-0.838456928730011,0.39413541555404663,0.3667352795600891,0.37721702456474304,0.0561906062066555,-0.5961535573005676,0.26260876655578613,-0.25029250979423523,0.5200372338294983,-0.5475364327430725,-0.46816521883010864,-0.2513476014137268,0.5558024048805237,-0.8877990245819092,-0.5383647084236145,0.03049681894481182,0.15210436284542084,0.28514277935028076,-0.3605496287345886,-0.1482856571674347,0.2970123291015625,-0.10122428089380264,-0.8706232309341431,0.023305922746658325,-0.39682623744010925,-0.02344183251261711,-0.7714074850082397,0.5314236879348755,-0.44582250714302063,0.2845151424407959,0.23790627717971802,0.2537781000137329,-0.23076948523521423,-0.07859013974666595,0.16679206490516663,-0.8085227012634277,-0.3609859049320221,0.3896470367908478,-0.26933714747428894,0.955211341381073,-1.1140542030334473,1.0808167457580566,-0.11825307458639145,1.1425909996032715,0.22334009408950806,-0.16500385105609894,-0.10952050983905792,0.16321758925914764,0.8045132756233215,-0.4034201502799988,-0.09158434718847275,-1.0230792760849,0.22008810937404633,-0.7798823118209839,-0.000012576756489579566,0.3718172311782837,-0.3481709957122803,0.340740829706192,-0.6469315886497498,-0.19809159636497498,-0.1421131193637848,-0.18362081050872803,0.6145405769348145,-0.24785949289798737,-0.05575215071439743,0.1573481410741806,-0.5562244057655334,-0.1987341046333313,-0.2520851492881775,-0.4619462192058563,-0.2320059984922409,0.21126314997673035,-0.2921450734138489,0.1287926882505417,0.8689894080162048,-0.5880706310272217,-0.5738305449485779,-0.03738075867295265,-0.07787805795669556,0.5088307857513428,-0.9867697358131409,0.3404783010482788,0.007741385139524937,0.50201815366745,-0.007826335728168488,-0.2802872359752655,0.14753742516040802,0.023597516119480133,0.4720067083835602,-0.5461572408676147,-0.5184677839279175,-0.10926608741283417,-0.0769977942109108,-0.7940437197685242,-0.2592846751213074,1.160570740699768,0.6295569539070129,0.24362653493881226,0.07314689457416534,-0.7057462334632874,0.810960054397583,